<?xml version="1.0"?>
<opencv_storage>
<stage1>
  <maxWeakCount>7</maxWeakCount>
  <stageThreshold>-9.9607056379318237e-01</stageThreshold>
  <weakClassifiers>
    <_>
      <internalNodes>
        0 -1 251923 4.9321162514388561e-03</internalNodes>
      <leafValues>
        -6.4556962251663208e-01 7.7272725105285645e-01</leafValues></_>
    <_>
      <internalNodes>
        0 -1 297614 -9.5282471738755703e-04</internalNodes>
      <leafValues>
        5.6574994325637817e-01 -3.8088268041610718e-01</leafValues></_>
    <_>
      <internalNodes>
        0 -1 281893 1.4051268808543682e-03</internalNodes>
      <leafValues>
        -3.3811715245246887e-01 6.0789066553115845e-01</leafValues></_>
    <_>
      <internalNodes>
        0 -1 194322 1.9528441131114960e-02</internalNodes>
      <leafValues>
        2.3138651251792908e-01 -9.1759717464447021e-01</leafValues></_>
    <_>
      <internalNodes>
        0 -1 224744 -1.1711598373949528e-02</internalNodes>
      <leafValues>
        -8.3523911237716675e-01 1.8809185922145844e-01</leafValues></_>
    <_>
      <internalNodes>
        0 -1 201612 -2.1898765116930008e-03</internalNodes>
      <leafValues>
        7.5051134824752808e-01 -2.6150253415107727e-01</leafValues></_>
    <_>
      <internalNodes>
        0 -1 259666 -2.2032449487596750e-03</internalNodes>
      <leafValues>
        -9.2311501502990723e-01 2.1052309870719910e-01</leafValues></_></weakClassifiers></stage1>
</opencv_storage>
