<?xml version="1.0"?>
<opencv_storage>
<stage3>
  <maxWeakCount>10</maxWeakCount>
  <stageThreshold>-1.0439500808715820e+00</stageThreshold>
  <weakClassifiers>
    <_>
      <internalNodes>
        0 -1 303593 -1.4526785816997290e-03</internalNodes>
      <leafValues>
        6.7840373516082764e-01 -3.6170211434364319e-01</leafValues></_>
    <_>
      <internalNodes>
        0 -1 243224 6.8497760221362114e-03</internalNodes>
      <leafValues>
        -4.4438660144805908e-01 5.3087466955184937e-01</leafValues></_>
    <_>
      <internalNodes>
        0 -1 250288 6.8131354637444019e-03</internalNodes>
      <leafValues>
        -2.2912515699863434e-01 6.9687354564666748e-01</leafValues></_>
    <_>
      <internalNodes>
        0 -1 183891 4.3704867130145431e-04</internalNodes>
      <leafValues>
        -4.3562546372413635e-01 3.5343018174171448e-01</leafValues></_>
    <_>
      <internalNodes>
        0 -1 214166 3.3965029288083315e-03</internalNodes>
      <leafValues>
        -2.6964151859283447e-01 6.3705515861511230e-01</leafValues></_>
    <_>
      <internalNodes>
        0 -1 252227 -3.1583174131810665e-04</internalNodes>
      <leafValues>
        -7.7149349451065063e-01 2.2087903320789337e-01</leafValues></_>
    <_>
      <internalNodes>
        0 -1 194208 4.1794320568442345e-03</internalNodes>
      <leafValues>
        -2.7728918194770813e-01 6.4115059375762939e-01</leafValues></_>
    <_>
      <internalNodes>
        0 -1 343499 -1.9144666148349643e-03</internalNodes>
      <leafValues>
        5.4179447889328003e-01 -2.8775590658187866e-01</leafValues></_>
    <_>
      <internalNodes>
        0 -1 225166 -8.3150743739679456e-04</internalNodes>
      <leafValues>
        -7.9891675710678101e-01 2.2209797799587250e-01</leafValues></_>
    <_>
      <internalNodes>
        0 -1 145312 -4.0849400684237480e-03</internalNodes>
      <leafValues>
        7.5435322523117065e-01 -2.2150701284408569e-01</leafValues></_></weakClassifiers></stage3>
</opencv_storage>
