<?xml version="1.0"?>
<opencv_storage>
<stage6>
  <maxWeakCount>9</maxWeakCount>
  <stageThreshold>-1.0672708749771118e+00</stageThreshold>
  <weakClassifiers>
    <_>
      <internalNodes>
        0 -1 79719 8.7462947703897953e-04</internalNodes>
      <leafValues>
        -3.7113401293754578e-01 6.4148813486099243e-01</leafValues></_>
    <_>
      <internalNodes>
        0 -1 94770 -2.1844822913408279e-02</internalNodes>
      <leafValues>
        6.9543015956878662e-01 -3.5595032572746277e-01</leafValues></_>
    <_>
      <internalNodes>
        0 -1 37258 7.3256166651844978e-03</internalNodes>
      <leafValues>
        -2.3296770453453064e-01 7.7212846279144287e-01</leafValues></_>
    <_>
      <internalNodes>
        0 -1 13575 2.5958237238228321e-03</internalNodes>
      <leafValues>
        -3.0902522802352905e-01 5.9584504365921021e-01</leafValues></_>
    <_>
      <internalNodes>
        0 -1 84561 3.6946954205632210e-03</internalNodes>
      <leafValues>
        1.9012913107872009e-01 -9.1262215375900269e-01</leafValues></_>
    <_>
      <internalNodes>
        0 -1 119690 3.5287401988171041e-04</internalNodes>
      <leafValues>
        -5.0296169519424438e-01 2.9772371053695679e-01</leafValues></_>
    <_>
      <internalNodes>
        0 -1 79661 -7.7988528646528721e-03</internalNodes>
      <leafValues>
        -8.5770130157470703e-01 1.6707089543342590e-01</leafValues></_>
    <_>
      <internalNodes>
        0 -1 89074 -2.1161120384931564e-03</internalNodes>
      <leafValues>
        2.3290470242500305e-01 -6.3216274976730347e-01</leafValues></_>
    <_>
      <internalNodes>
        0 -1 111747 1.2732931412756443e-02</internalNodes>
      <leafValues>
        1.3433937728404999e-01 -8.6065363883972168e-01</leafValues></_></weakClassifiers></stage6>
</opencv_storage>
