<?xml version="1.0"?>
<opencv_storage>
<stage5>
  <maxWeakCount>9</maxWeakCount>
  <stageThreshold>-8.9890795946121216e-01</stageThreshold>
  <weakClassifiers>
    <_>
      <internalNodes>
        0 -1 62657 1.0317760519683361e-02</internalNodes>
      <leafValues>
        -2.4253731966018677e-01 7.5101488828659058e-01</leafValues></_>
    <_>
      <internalNodes>
        0 -1 125572 -4.5380471274256706e-03</internalNodes>
      <leafValues>
        5.7652199268341064e-01 -3.9305850863456726e-01</leafValues></_>
    <_>
      <internalNodes>
        0 -1 93963 6.3880416564643383e-04</internalNodes>
      <leafValues>
        -4.5786717534065247e-01 4.5644065737724304e-01</leafValues></_>
    <_>
      <internalNodes>
        0 -1 79446 6.6017992794513702e-03</internalNodes>
      <leafValues>
        2.2966767847537994e-01 -8.6002784967422485e-01</leafValues></_>
    <_>
      <internalNodes>
        0 -1 80440 1.0803939774632454e-02</internalNodes>
      <leafValues>
        -4.3344619870185852e-01 4.7836288809776306e-01</leafValues></_>
    <_>
      <internalNodes>
        0 -1 93992 1.0261619463562965e-03</internalNodes>
      <leafValues>
        -3.9534282684326172e-01 3.9465326070785522e-01</leafValues></_>
    <_>
      <internalNodes>
        0 -1 83198 2.1932575851678848e-02</internalNodes>
      <leafValues>
        -3.4911665320396423e-01 5.1531797647476196e-01</leafValues></_>
    <_>
      <internalNodes>
        0 -1 90285 8.8186673820018768e-03</internalNodes>
      <leafValues>
        1.7959699034690857e-01 -7.5479835271835327e-01</leafValues></_>
    <_>
      <internalNodes>
        0 -1 84564 3.1780258286744356e-03</internalNodes>
      <leafValues>
        1.7319999635219574e-01 -7.9568940401077271e-01</leafValues></_></weakClassifiers></stage5>
</opencv_storage>
