<?xml version="1.0"?>
<opencv_storage>
<stage2>
  <maxWeakCount>9</maxWeakCount>
  <stageThreshold>-1.0268995761871338e+00</stageThreshold>
  <weakClassifiers>
    <_>
      <internalNodes>
        0 -1 69212 1.1582260485738516e-03</internalNodes>
      <leafValues>
        -3.2240438461303711e-01 8.2920110225677490e-01</leafValues></_>
    <_>
      <internalNodes>
        0 -1 110589 1.2064457684755325e-01</internalNodes>
      <leafValues>
        -3.2655677199363708e-01 7.8417307138442993e-01</leafValues></_>
    <_>
      <internalNodes>
        0 -1 109233 5.1025778520852327e-04</internalNodes>
      <leafValues>
        -4.5639127492904663e-01 6.0225743055343628e-01</leafValues></_>
    <_>
      <internalNodes>
        0 -1 121373 2.4404297582805157e-03</internalNodes>
      <leafValues>
        -4.2638865113258362e-01 5.1841944456100464e-01</leafValues></_>
    <_>
      <internalNodes>
        0 -1 108718 3.2028537243604660e-03</internalNodes>
      <leafValues>
        2.1543771028518677e-01 -8.1954568624496460e-01</leafValues></_>
    <_>
      <internalNodes>
        0 -1 111938 -1.3087309896945953e-02</internalNodes>
      <leafValues>
        -8.9468890428543091e-01 2.0185209810733795e-01</leafValues></_>
    <_>
      <internalNodes>
        0 -1 42361 4.9862959422171116e-03</internalNodes>
      <leafValues>
        -3.2379499077796936e-01 6.2056952714920044e-01</leafValues></_>
    <_>
      <internalNodes>
        0 -1 79932 2.3786104284226894e-03</internalNodes>
      <leafValues>
        2.3253951966762543e-01 -7.2314536571502686e-01</leafValues></_>
    <_>
      <internalNodes>
        0 -1 105332 -1.7015993595123291e-02</internalNodes>
      <leafValues>
        -7.8220897912979126e-01 1.8968395888805389e-01</leafValues></_></weakClassifiers></stage2>
</opencv_storage>
