<?xml version="1.0"?>
<opencv_storage>
<cascade>
  <stageType>BOOST</stageType>
  <featureType>HAAR</featureType>
  <height>40</height>
  <width>16</width>
  <stageParams>
    <boostType>GAB</boostType>
    <minHitRate>9.9500000476837158e-01</minHitRate>
    <maxFalseAlarm>5.0000000000000000e-01</maxFalseAlarm>
    <weightTrimRate>9.4999999999999996e-01</weightTrimRate>
    <maxDepth>1</maxDepth>
    <maxWeakCount>100</maxWeakCount></stageParams>
  <featureParams>
    <maxCatCount>0</maxCatCount>
    <featSize>1</featSize>
    <mode>BASIC</mode></featureParams>
  <stageNum>10</stageNum>
  <stages>
    <!-- stage 0 -->
    <_>
      <maxWeakCount>6</maxWeakCount>
      <stageThreshold>-1.2073149681091309e+00</stageThreshold>
      <weakClassifiers>
        <_>
          <internalNodes>
            0 -1 89 4.0179913048632443e-04</internalNodes>
          <leafValues>
            -4.9168646335601807e-01 7.4004685878753662e-01</leafValues></_>
        <_>
          <internalNodes>
            0 -1 64 5.2088391967117786e-03</internalNodes>
          <leafValues>
            -4.9503141641616821e-01 6.3913142681121826e-01</leafValues></_>
        <_>
          <internalNodes>
            0 -1 32 1.2009373167529702e-03</internalNodes>
          <leafValues>
            -5.9004670381546021e-01 3.8664361834526062e-01</leafValues></_>
        <_>
          <internalNodes>
            0 -1 54 1.0018912144005299e-02</internalNodes>
          <leafValues>
            2.5736415386199951e-01 -7.8451538085937500e-01</leafValues></_>
        <_>
          <internalNodes>
            0 -1 13 2.4514277465641499e-03</internalNodes>
          <leafValues>
            -5.4933017492294312e-01 4.0997883677482605e-01</leafValues></_>
        <_>
          <internalNodes>
            0 -1 15 -8.4599392721429467e-05</internalNodes>
          <leafValues>
            3.4860825538635254e-01 -4.8774713277816772e-01</leafValues></_></weakClassifiers></_>
    <!-- stage 1 -->
    <_>
      <maxWeakCount>7</maxWeakCount>
      <stageThreshold>-9.7503495216369629e-01</stageThreshold>
      <weakClassifiers>
        <_>
          <internalNodes>
            0 -1 26 4.0158038027584553e-03</internalNodes>
          <leafValues>
            -2.7565392851829529e-01 7.2236502170562744e-01</leafValues></_>
        <_>
          <internalNodes>
            0 -1 88 5.3496686741709709e-03</internalNodes>
          <leafValues>
            -4.0716907382011414e-01 5.5356550216674805e-01</leafValues></_>
        <_>
          <internalNodes>
            0 -1 39 -1.7997303511947393e-03</internalNodes>
          <leafValues>
            5.9635472297668457e-01 -3.7012425065040588e-01</leafValues></_>
        <_>
          <internalNodes>
            0 -1 41 2.2684603929519653e-02</internalNodes>
          <leafValues>
            2.3817625641822815e-01 -9.3644714355468750e-01</leafValues></_>
        <_>
          <internalNodes>
            0 -1 44 -1.7727058380842209e-02</internalNodes>
          <leafValues>
            -9.0706473588943481e-01 2.2599960863590240e-01</leafValues></_>
        <_>
          <internalNodes>
            0 -1 85 5.0083629321306944e-04</internalNodes>
          <leafValues>
            -5.5519396066665649e-01 3.1569585204124451e-01</leafValues></_>
        <_>
          <internalNodes>
            0 -1 29 2.6502747088670731e-02</internalNodes>
          <leafValues>
            1.6893041133880615e-01 -8.7768203020095825e-01</leafValues></_></weakClassifiers></_>
    <!-- stage 2 -->
    <_>
      <maxWeakCount>9</maxWeakCount>
      <stageThreshold>-6.8472111225128174e-01</stageThreshold>
      <weakClassifiers>
        <_>
          <internalNodes>
            0 -1 74 1.2320235837250948e-03</internalNodes>
          <leafValues>
            -4.9140894412994385e-01 5.7723575830459595e-01</leafValues></_>
        <_>
          <internalNodes>
            0 -1 68 1.5759546076878905e-03</internalNodes>
          <leafValues>
            -5.0852078199386597e-01 4.6703395247459412e-01</leafValues></_>
        <_>
          <internalNodes>
            0 -1 6 7.8142238780856133e-03</internalNodes>
          <leafValues>
            -2.6770803332328796e-01 7.1535271406173706e-01</leafValues></_>
        <_>
          <internalNodes>
            0 -1 89 8.2512723747640848e-04</internalNodes>
          <leafValues>
            -4.1481393575668335e-01 4.5428940653800964e-01</leafValues></_>
        <_>
          <internalNodes>
            0 -1 39 -2.0674378611147404e-03</internalNodes>
          <leafValues>
            4.6513062715530396e-01 -3.6901721358299255e-01</leafValues></_>
        <_>
          <internalNodes>
            0 -1 70 -1.1548830196261406e-02</internalNodes>
          <leafValues>
            -6.2116831541061401e-01 2.5059849023818970e-01</leafValues></_>
        <_>
          <internalNodes>
            0 -1 93 9.7428460139781237e-04</internalNodes>
          <leafValues>
            -4.1754865646362305e-01 4.4649052619934082e-01</leafValues></_>
        <_>
          <internalNodes>
            0 -1 42 9.2155989259481430e-03</internalNodes>
          <leafValues>
            1.9869813323020935e-01 -9.3978428840637207e-01</leafValues></_>
        <_>
          <internalNodes>
            0 -1 79 8.4502610843628645e-04</internalNodes>
          <leafValues>
            -3.9814275503158569e-01 4.3897935748100281e-01</leafValues></_></weakClassifiers></_>
    <!-- stage 3 -->
    <_>
      <maxWeakCount>9</maxWeakCount>
      <stageThreshold>-8.6227047443389893e-01</stageThreshold>
      <weakClassifiers>
        <_>
          <internalNodes>
            0 -1 49 -4.4322561472654343e-02</internalNodes>
          <leafValues>
            -8.3749997615814209e-01 5.0134527683258057e-01</leafValues></_>
        <_>
          <internalNodes>
            0 -1 55 8.4261340089142323e-04</internalNodes>
          <leafValues>
            -4.5237690210342407e-01 4.5026174187660217e-01</leafValues></_>
        <_>
          <internalNodes>
            0 -1 87 1.4400204643607140e-02</internalNodes>
          <leafValues>
            -2.8287458419799805e-01 6.5395623445510864e-01</leafValues></_>
        <_>
          <internalNodes>
            0 -1 23 -1.7169199418276548e-03</internalNodes>
          <leafValues>
            4.9575695395469666e-01 -3.2684823870658875e-01</leafValues></_>
        <_>
          <internalNodes>
            0 -1 11 7.9808458685874939e-02</internalNodes>
          <leafValues>
            1.5010170638561249e-01 -8.4131336212158203e-01</leafValues></_>
        <_>
          <internalNodes>
            0 -1 9 -6.2084533274173737e-02</internalNodes>
          <leafValues>
            -8.7932235002517700e-01 1.5256115794181824e-01</leafValues></_>
        <_>
          <internalNodes>
            0 -1 25 -2.9821431962773204e-04</internalNodes>
          <leafValues>
            3.3246558904647827e-01 -4.4693508744239807e-01</leafValues></_>
        <_>
          <internalNodes>
            0 -1 84 1.2197836767882109e-03</internalNodes>
          <leafValues>
            -4.1099530458450317e-01 3.4847635030746460e-01</leafValues></_>
        <_>
          <internalNodes>
            0 -1 8 -6.7970214877277613e-04</internalNodes>
          <leafValues>
            3.6358240246772766e-01 -4.1694375872612000e-01</leafValues></_></weakClassifiers></_>
    <!-- stage 4 -->
    <_>
      <maxWeakCount>9</maxWeakCount>
      <stageThreshold>-6.2111276388168335e-01</stageThreshold>
      <weakClassifiers>
        <_>
          <internalNodes>
            0 -1 82 -1.3926820829510689e-03</internalNodes>
          <leafValues>
            6.2065094709396362e-01 -3.3333334326744080e-01</leafValues></_>
        <_>
          <internalNodes>
            0 -1 72 -7.0101000368595123e-02</internalNodes>
          <leafValues>
            7.7453851699829102e-01 -2.0703528821468353e-01</leafValues></_>
        <_>
          <internalNodes>
            0 -1 27 2.5169602595269680e-03</internalNodes>
          <leafValues>
            -3.8044852018356323e-01 4.6450206637382507e-01</leafValues></_>
        <_>
          <internalNodes>
            0 -1 17 -2.6344133540987968e-02</internalNodes>
          <leafValues>
            -7.9075866937637329e-01 1.9665236771106720e-01</leafValues></_>
        <_>
          <internalNodes>
            0 -1 34 2.3670964874327183e-03</internalNodes>
          <leafValues>
            -4.3102627992630005e-01 2.8973308205604553e-01</leafValues></_>
        <_>
          <internalNodes>
            0 -1 24 2.8152999002486467e-03</internalNodes>
          <leafValues>
            -1.9275581836700439e-01 6.5721791982650757e-01</leafValues></_>
        <_>
          <internalNodes>
            0 -1 31 2.5549247860908508e-02</internalNodes>
          <leafValues>
            1.2213250249624252e-01 -1.</leafValues></_>
        <_>
          <internalNodes>
            0 -1 67 -7.4689055327326059e-04</internalNodes>
          <leafValues>
            -7.4093526601791382e-01 1.4010161161422729e-01</leafValues></_>
        <_>
          <internalNodes>
            0 -1 45 -1.6225351020693779e-02</internalNodes>
          <leafValues>
            5.2769720554351807e-01 -2.5032213330268860e-01</leafValues></_></weakClassifiers></_>
    <!-- stage 5 -->
    <_>
      <maxWeakCount>8</maxWeakCount>
      <stageThreshold>-7.0304393768310547e-01</stageThreshold>
      <weakClassifiers>
        <_>
          <internalNodes>
            0 -1 22 1.0573223698884249e-04</internalNodes>
          <leafValues>
            -5.1968502998352051e-01 5.4554361104965210e-01</leafValues></_>
        <_>
          <internalNodes>
            0 -1 56 2.3410986177623272e-03</internalNodes>
          <leafValues>
            -4.0198034048080444e-01 4.7389164566993713e-01</leafValues></_>
        <_>
          <internalNodes>
            0 -1 10 -6.8113714456558228e-02</internalNodes>
          <leafValues>
            -8.2041150331497192e-01 1.6940851509571075e-01</leafValues></_>
        <_>
          <internalNodes>
            0 -1 53 -3.5942591726779938e-02</internalNodes>
          <leafValues>
            -8.3233934640884399e-01 1.7703323066234589e-01</leafValues></_>
        <_>
          <internalNodes>
            0 -1 12 -1.5176937449723482e-03</internalNodes>
          <leafValues>
            4.2630574107170105e-01 -3.5087448358535767e-01</leafValues></_>
        <_>
          <internalNodes>
            0 -1 62 7.6739519136026502e-04</internalNodes>
          <leafValues>
            -3.2974186539649963e-01 4.0337187051773071e-01</leafValues></_>
        <_>
          <internalNodes>
            0 -1 66 6.4547751098871231e-03</internalNodes>
          <leafValues>
            1.5439298748970032e-01 -8.3537894487380981e-01</leafValues></_>
        <_>
          <internalNodes>
            0 -1 47 4.5317700132727623e-03</internalNodes>
          <leafValues>
            -3.3471068739891052e-01 4.7205242514610291e-01</leafValues></_></weakClassifiers></_>
    <!-- stage 6 -->
    <_>
      <maxWeakCount>10</maxWeakCount>
      <stageThreshold>-1.0062801837921143e+00</stageThreshold>
      <weakClassifiers>
        <_>
          <internalNodes>
            0 -1 78 2.6798574253916740e-04</internalNodes>
          <leafValues>
            -3.6363637447357178e-01 5.7671958208084106e-01</leafValues></_>
        <_>
          <internalNodes>
            0 -1 2 1.5437396941706538e-03</internalNodes>
          <leafValues>
            -2.6015120744705200e-01 5.1866680383682251e-01</leafValues></_>
        <_>
          <internalNodes>
            0 -1 30 -2.2599749267101288e-02</internalNodes>
          <leafValues>
            -5.6118613481521606e-01 2.4397139251232147e-01</leafValues></_>
        <_>
          <internalNodes>
            0 -1 46 1.5868933871388435e-02</internalNodes>
          <leafValues>
            1.5264534950256348e-01 -8.9728814363479614e-01</leafValues></_>
        <_>
          <internalNodes>
            0 -1 38 8.2980294246226549e-04</internalNodes>
          <leafValues>
            -4.4511699676513672e-01 3.0284985899925232e-01</leafValues></_>
        <_>
          <internalNodes>
            0 -1 20 -1.4002780662849545e-03</internalNodes>
          <leafValues>
            -5.1104402542114258e-01 2.5837019085884094e-01</leafValues></_>
        <_>
          <internalNodes>
            0 -1 1 -2.7497804258018732e-03</internalNodes>
          <leafValues>
            2.8579413890838623e-01 -4.2325863242149353e-01</leafValues></_>
        <_>
          <internalNodes>
            0 -1 14 -4.0064025670289993e-03</internalNodes>
          <leafValues>
            2.9434689879417419e-01 -4.3633711338043213e-01</leafValues></_>
        <_>
          <internalNodes>
            0 -1 5 5.4240198805928230e-03</internalNodes>
          <leafValues>
            -2.8150939941406250e-01 5.0518333911895752e-01</leafValues></_>
        <_>
          <internalNodes>
            0 -1 3 -3.0255053192377090e-02</internalNodes>
          <leafValues>
            6.0791033506393433e-01 -2.1650277078151703e-01</leafValues></_></weakClassifiers></_>
    <!-- stage 7 -->
    <_>
      <maxWeakCount>12</maxWeakCount>
      <stageThreshold>-7.8942096233367920e-01</stageThreshold>
      <weakClassifiers>
        <_>
          <internalNodes>
            0 -1 73 -4.1910107247531414e-03</internalNodes>
          <leafValues>
            -8.4496122598648071e-01 4.6596857905387878e-01</leafValues></_>
        <_>
          <internalNodes>
            0 -1 0 2.1071445196866989e-02</internalNodes>
          <leafValues>
            -2.9010832309722900e-01 5.8577358722686768e-01</leafValues></_>
        <_>
          <internalNodes>
            0 -1 81 -3.5422220826148987e-03</internalNodes>
          <leafValues>
            4.7965604066848755e-01 -3.5262629389762878e-01</leafValues></_>
        <_>
          <internalNodes>
            0 -1 52 -3.4118771553039551e-02</internalNodes>
          <leafValues>
            4.6555274724960327e-01 -2.5296729803085327e-01</leafValues></_>
        <_>
          <internalNodes>
            0 -1 28 -2.3285515606403351e-02</internalNodes>
          <leafValues>
            -7.6403880119323730e-01 1.5735141932964325e-01</leafValues></_>
        <_>
          <internalNodes>
            0 -1 48 1.6231674700975418e-02</internalNodes>
          <leafValues>
            1.3357211649417877e-01 -8.6519730091094971e-01</leafValues></_>
        <_>
          <internalNodes>
            0 -1 50 -1.9942602142691612e-02</internalNodes>
          <leafValues>
            5.8327001333236694e-01 -2.5258466601371765e-01</leafValues></_>
        <_>
          <internalNodes>
            0 -1 37 -5.6203611893579364e-04</internalNodes>
          <leafValues>
            2.9862481355667114e-01 -4.5003017783164978e-01</leafValues></_>
        <_>
          <internalNodes>
            0 -1 7 -4.8039909452199936e-03</internalNodes>
          <leafValues>
            3.8505354523658752e-01 -3.3161142468452454e-01</leafValues></_>
        <_>
          <internalNodes>
            0 -1 92 -1.2503996491432190e-02</internalNodes>
          <leafValues>
            6.5553683042526245e-01 -1.9193758070468903e-01</leafValues></_>
        <_>
          <internalNodes>
            0 -1 65 8.7829679250717163e-04</internalNodes>
          <leafValues>
            1.8614770472049713e-01 -7.9210597276687622e-01</leafValues></_>
        <_>
          <internalNodes>
            0 -1 60 4.3624788522720337e-03</internalNodes>
          <leafValues>
            -2.4000722169876099e-01 5.5597251653671265e-01</leafValues></_></weakClassifiers></_>
    <!-- stage 8 -->
    <_>
      <maxWeakCount>13</maxWeakCount>
      <stageThreshold>-7.2649854421615601e-01</stageThreshold>
      <weakClassifiers>
        <_>
          <internalNodes>
            0 -1 59 -2.3407747503370047e-03</internalNodes>
          <leafValues>
            -7.0629370212554932e-01 4.6466431021690369e-01</leafValues></_>
        <_>
          <internalNodes>
            0 -1 83 1.1410196311771870e-03</internalNodes>
          <leafValues>
            -3.8805711269378662e-01 4.4536107778549194e-01</leafValues></_>
        <_>
          <internalNodes>
            0 -1 86 -5.8521635830402374e-02</internalNodes>
          <leafValues>
            6.8805909156799316e-01 -2.2989459335803986e-01</leafValues></_>
        <_>
          <internalNodes>
            0 -1 69 6.3589413184672594e-04</internalNodes>
          <leafValues>
            -3.7209033966064453e-01 2.9901009798049927e-01</leafValues></_>
        <_>
          <internalNodes>
            0 -1 4 5.7623279280960560e-03</internalNodes>
          <leafValues>
            -3.3944329619407654e-01 3.5901397466659546e-01</leafValues></_>
        <_>
          <internalNodes>
            0 -1 51 -4.6257618814706802e-03</internalNodes>
          <leafValues>
            -7.6138955354690552e-01 1.3593611121177673e-01</leafValues></_>
        <_>
          <internalNodes>
            0 -1 71 -4.6953409910202026e-03</internalNodes>
          <leafValues>
            3.9037048816680908e-01 -2.8122681379318237e-01</leafValues></_>
        <_>
          <internalNodes>
            0 -1 21 -1.8120400607585907e-02</internalNodes>
          <leafValues>
            -7.1107208728790283e-01 1.3849847018718719e-01</leafValues></_>
        <_>
          <internalNodes>
            0 -1 18 1.9012404605746269e-02</internalNodes>
          <leafValues>
            1.0143574327230453e-01 -9.0755993127822876e-01</leafValues></_>
        <_>
          <internalNodes>
            0 -1 43 -1.6469493508338928e-02</internalNodes>
          <leafValues>
            -8.0882817506790161e-01 1.2243072688579559e-01</leafValues></_>
        <_>
          <internalNodes>
            0 -1 35 8.8598154252395034e-04</internalNodes>
          <leafValues>
            1.4369855821132660e-01 -6.5493273735046387e-01</leafValues></_>
        <_>
          <internalNodes>
            0 -1 63 7.7105086529627442e-04</internalNodes>
          <leafValues>
            -3.7564006447792053e-01 2.7754217386245728e-01</leafValues></_>
        <_>
          <internalNodes>
            0 -1 57 1.1830436997115612e-02</internalNodes>
          <leafValues>
            -2.4033087491989136e-01 6.1779898405075073e-01</leafValues></_></weakClassifiers></_>
    <!-- stage 9 -->
    <_>
      <maxWeakCount>14</maxWeakCount>
      <stageThreshold>-9.3402862548828125e-01</stageThreshold>
      <weakClassifiers>
        <_>
          <internalNodes>
            0 -1 27 2.5261517148464918e-03</internalNodes>
          <leafValues>
            -1.2711864709854126e-01 6.0398507118225098e-01</leafValues></_>
        <_>
          <internalNodes>
            0 -1 40 1.7196331173181534e-03</internalNodes>
          <leafValues>
            -2.1874964237213135e-01 5.4523485898971558e-01</leafValues></_>
        <_>
          <internalNodes>
            0 -1 90 -4.3623698875308037e-03</internalNodes>
          <leafValues>
            6.1502903699874878e-01 -1.8364857137203217e-01</leafValues></_>
        <_>
          <internalNodes>
            0 -1 75 -8.2037283573299646e-04</internalNodes>
          <leafValues>
            5.3798335790634155e-01 -2.1523857116699219e-01</leafValues></_>
        <_>
          <internalNodes>
            0 -1 16 4.8654653131961823e-02</internalNodes>
          <leafValues>
            1.5243545174598694e-01 -7.7232098579406738e-01</leafValues></_>
        <_>
          <internalNodes>
            0 -1 80 -1.9356086850166321e-02</internalNodes>
          <leafValues>
            -7.4367225170135498e-01 1.1417229473590851e-01</leafValues></_>
        <_>
          <internalNodes>
            0 -1 61 -1.5295976772904396e-03</internalNodes>
          <leafValues>
            5.6686127185821533e-01 -2.0744183659553528e-01</leafValues></_>
        <_>
          <internalNodes>
            0 -1 19 3.6055982112884521e-02</internalNodes>
          <leafValues>
            -2.3132121562957764e-01 6.0428214073181152e-01</leafValues></_>
        <_>
          <internalNodes>
            0 -1 58 3.0759763903915882e-03</internalNodes>
          <leafValues>
            -2.9087644815444946e-01 3.7187653779983521e-01</leafValues></_>
        <_>
          <internalNodes>
            0 -1 36 -5.1262732595205307e-03</internalNodes>
          <leafValues>
            -8.1555819511413574e-01 1.1921954154968262e-01</leafValues></_>
        <_>
          <internalNodes>
            0 -1 76 -8.1506290007382631e-04</internalNodes>
          <leafValues>
            5.0838387012481689e-01 -2.1817596256732941e-01</leafValues></_>
        <_>
          <internalNodes>
            0 -1 91 4.6312124468386173e-03</internalNodes>
          <leafValues>
            -1.8706579506397247e-01 5.0897789001464844e-01</leafValues></_>
        <_>
          <internalNodes>
            0 -1 77 -1.5878023114055395e-03</internalNodes>
          <leafValues>
            4.5277148485183716e-01 -2.3151277005672455e-01</leafValues></_>
        <_>
          <internalNodes>
            0 -1 33 -1.0510601103305817e-02</internalNodes>
          <leafValues>
            -8.2057768106460571e-01 1.4934296905994415e-01</leafValues></_></weakClassifiers></_></stages>
  <features>
    <_>
      <rects>
        <_>
          0 5 15 34 -1.</_>
        <_>
          5 5 5 34 3.</_></rects>
      <tilted>0</tilted></_>
    <_>
      <rects>
        <_>
          1 28 12 6 -1.</_>
        <_>
          1 30 12 2 3.</_></rects>
      <tilted>0</tilted></_>
    <_>
      <rects>
        <_>
          2 0 8 2 -1.</_>
        <_>
          2 0 4 1 2.</_>
        <_>
          6 1 4 1 2.</_></rects>
      <tilted>0</tilted></_>
    <_>
      <rects>
        <_>
          2 2 4 23 -1.</_>
        <_>
          4 2 2 23 2.</_></rects>
      <tilted>0</tilted></_>
    <_>
      <rects>
        <_>
          2 7 8 4 -1.</_>
        <_>
          6 7 4 4 2.</_></rects>
      <tilted>0</tilted></_>
    <_>
      <rects>
        <_>
          3 14 2 10 -1.</_>
        <_>
          4 14 1 10 2.</_></rects>
      <tilted>0</tilted></_>
    <_>
      <rects>
        <_>
          3 16 2 10 -1.</_>
        <_>
          4 16 1 10 2.</_></rects>
      <tilted>0</tilted></_>
    <_>
      <rects>
        <_>
          3 29 4 7 -1.</_>
        <_>
          5 29 2 7 2.</_></rects>
      <tilted>0</tilted></_>
    <_>
      <rects>
        <_>
          3 31 4 1 -1.</_>
        <_>
          5 31 2 1 2.</_></rects>
      <tilted>0</tilted></_>
    <_>
      <rects>
        <_>
          4 3 8 30 -1.</_>
        <_>
          4 13 8 10 3.</_></rects>
      <tilted>0</tilted></_>
    <_>
      <rects>
        <_>
          4 4 8 33 -1.</_>
        <_>
          4 15 8 11 3.</_></rects>
      <tilted>0</tilted></_>
    <_>
      <rects>
        <_>
          4 7 7 30 -1.</_>
        <_>
          4 17 7 10 3.</_></rects>
      <tilted>0</tilted></_>
    <_>
      <rects>
        <_>
          4 18 2 5 -1.</_>
        <_>
          5 18 1 5 2.</_></rects>
      <tilted>0</tilted></_>
    <_>
      <rects>
        <_>
          4 32 9 4 -1.</_>
        <_>
          4 34 9 2 2.</_></rects>
      <tilted>0</tilted></_>
    <_>
      <rects>
        <_>
          5 1 7 9 -1.</_>
        <_>
          5 4 7 3 3.</_></rects>
      <tilted>0</tilted></_>
    <_>
      <rects>
        <_>
          5 2 5 2 -1.</_>
        <_>
          5 3 5 1 2.</_></rects>
      <tilted>0</tilted></_>
    <_>
      <rects>
        <_>
          5 6 5 33 -1.</_>
        <_>
          5 17 5 11 3.</_></rects>
      <tilted>0</tilted></_>
    <_>
      <rects>
        <_>
          5 9 6 23 -1.</_>
        <_>
          8 9 3 23 2.</_></rects>
      <tilted>0</tilted></_>
    <_>
      <rects>
        <_>
          5 10 6 24 -1.</_>
        <_>
          5 22 6 12 2.</_></rects>
      <tilted>0</tilted></_>
    <_>
      <rects>
        <_>
          5 15 6 15 -1.</_>
        <_>
          5 20 6 5 3.</_></rects>
      <tilted>0</tilted></_>
    <_>
      <rects>
        <_>
          5 17 4 11 -1.</_>
        <_>
          7 17 2 11 2.</_></rects>
      <tilted>0</tilted></_>
    <_>
      <rects>
        <_>
          5 31 10 6 -1.</_>
        <_>
          5 33 10 2 3.</_></rects>
      <tilted>0</tilted></_>
    <_>
      <rects>
        <_>
          5 34 7 2 -1.</_>
        <_>
          5 35 7 1 2.</_></rects>
      <tilted>0</tilted></_>
    <_>
      <rects>
        <_>
          5 38 5 2 -1.</_>
        <_>
          5 39 5 1 2.</_></rects>
      <tilted>0</tilted></_>
    <_>
      <rects>
        <_>
          6 0 4 2 -1.</_>
        <_>
          6 1 4 1 2.</_></rects>
      <tilted>0</tilted></_>
    <_>
      <rects>
        <_>
          6 2 4 2 -1.</_>
        <_>
          6 3 4 1 2.</_></rects>
      <tilted>0</tilted></_>
    <_>
      <rects>
        <_>
          6 6 5 6 -1.</_>
        <_>
          6 9 5 3 2.</_></rects>
      <tilted>0</tilted></_>
    <_>
      <rects>
        <_>
          6 7 2 6 -1.</_>
        <_>
          6 10 2 3 2.</_></rects>
      <tilted>0</tilted></_>
    <_>
      <rects>
        <_>
          6 7 2 24 -1.</_>
        <_>
          6 19 2 12 2.</_></rects>
      <tilted>0</tilted></_>
    <_>
      <rects>
        <_>
          6 9 3 30 -1.</_>
        <_>
          6 24 3 15 2.</_></rects>
      <tilted>0</tilted></_>
    <_>
      <rects>
        <_>
          6 12 4 27 -1.</_>
        <_>
          6 21 4 9 3.</_></rects>
      <tilted>0</tilted></_>
    <_>
      <rects>
        <_>
          6 16 4 13 -1.</_>
        <_>
          8 16 2 13 2.</_></rects>
      <tilted>0</tilted></_>
    <_>
      <rects>
        <_>
          6 17 6 4 -1.</_>
        <_>
          9 17 3 4 2.</_></rects>
      <tilted>0</tilted></_>
    <_>
      <rects>
        <_>
          6 19 4 12 -1.</_>
        <_>
          8 19 2 12 2.</_></rects>
      <tilted>0</tilted></_>
    <_>
      <rects>
        <_>
          6 32 1 6 -1.</_>
        <_>
          6 35 1 3 2.</_></rects>
      <tilted>0</tilted></_>
    <_>
      <rects>
        <_>
          6 33 3 3 -1.</_>
        <_>
          6 34 3 1 3.</_></rects>
      <tilted>0</tilted></_>
    <_>
      <rects>
        <_>
          6 35 10 3 -1.</_>
        <_>
          6 36 10 1 3.</_></rects>
      <tilted>0</tilted></_>
    <_>
      <rects>
        <_>
          6 36 8 2 -1.</_>
        <_>
          6 36 4 1 2.</_>
        <_>
          10 37 4 1 2.</_></rects>
      <tilted>0</tilted></_>
    <_>
      <rects>
        <_>
          6 37 4 3 -1.</_>
        <_>
          6 38 4 1 3.</_></rects>
      <tilted>0</tilted></_>
    <_>
      <rects>
        <_>
          6 38 5 2 -1.</_>
        <_>
          6 39 5 1 2.</_></rects>
      <tilted>0</tilted></_>
    <_>
      <rects>
        <_>
          7 0 3 2 -1.</_>
        <_>
          7 1 3 1 2.</_></rects>
      <tilted>0</tilted></_>
    <_>
      <rects>
        <_>
          7 3 2 34 -1.</_>
        <_>
          7 20 2 17 2.</_></rects>
      <tilted>0</tilted></_>
    <_>
      <rects>
        <_>
          7 5 1 24 -1.</_>
        <_>
          7 17 1 12 2.</_></rects>
      <tilted>0</tilted></_>
    <_>
      <rects>
        <_>
          7 5 1 32 -1.</_>
        <_>
          7 21 1 16 2.</_></rects>
      <tilted>0</tilted></_>
    <_>
      <rects>
        <_>
          7 5 1 34 -1.</_>
        <_>
          7 22 1 17 2.</_></rects>
      <tilted>0</tilted></_>
    <_>
      <rects>
        <_>
          7 6 9 4 -1.</_>
        <_>
          10 6 3 4 3.</_></rects>
      <tilted>0</tilted></_>
    <_>
      <rects>
        <_>
          7 7 3 22 -1.</_>
        <_>
          7 18 3 11 2.</_></rects>
      <tilted>0</tilted></_>
    <_>
      <rects>
        <_>
          7 9 2 8 -1.</_>
        <_>
          7 13 2 4 2.</_></rects>
      <tilted>0</tilted></_>
    <_>
      <rects>
        <_>
          7 9 4 22 -1.</_>
        <_>
          7 20 4 11 2.</_></rects>
      <tilted>0</tilted></_>
    <_>
      <rects>
        <_>
          7 10 3 30 -1.</_>
        <_>
          7 20 3 10 3.</_></rects>
      <tilted>0</tilted></_>
    <_>
      <rects>
        <_>
          7 10 4 12 -1.</_>
        <_>
          7 14 4 4 3.</_></rects>
      <tilted>0</tilted></_>
    <_>
      <rects>
        <_>
          7 11 4 4 -1.</_>
        <_>
          9 11 2 4 2.</_></rects>
      <tilted>0</tilted></_>
    <_>
      <rects>
        <_>
          7 11 4 18 -1.</_>
        <_>
          7 17 4 6 3.</_></rects>
      <tilted>0</tilted></_>
    <_>
      <rects>
        <_>
          7 13 3 26 -1.</_>
        <_>
          7 26 3 13 2.</_></rects>
      <tilted>0</tilted></_>
    <_>
      <rects>
        <_>
          7 14 2 26 -1.</_>
        <_>
          7 27 2 13 2.</_></rects>
      <tilted>0</tilted></_>
    <_>
      <rects>
        <_>
          7 19 1 6 -1.</_>
        <_>
          7 22 1 3 2.</_></rects>
      <tilted>0</tilted></_>
    <_>
      <rects>
        <_>
          7 19 2 6 -1.</_>
        <_>
          7 22 2 3 2.</_></rects>
      <tilted>0</tilted></_>
    <_>
      <rects>
        <_>
          7 20 2 18 -1.</_>
        <_>
          7 26 2 6 3.</_></rects>
      <tilted>0</tilted></_>
    <_>
      <rects>
        <_>
          7 21 3 6 -1.</_>
        <_>
          7 24 3 3 2.</_></rects>
      <tilted>0</tilted></_>
    <_>
      <rects>
        <_>
          7 22 3 3 -1.</_>
        <_>
          8 22 1 3 3.</_></rects>
      <tilted>0</tilted></_>
    <_>
      <rects>
        <_>
          7 23 2 6 -1.</_>
        <_>
          7 26 2 3 2.</_></rects>
      <tilted>0</tilted></_>
    <_>
      <rects>
        <_>
          7 28 2 2 -1.</_>
        <_>
          7 29 2 1 2.</_></rects>
      <tilted>0</tilted></_>
    <_>
      <rects>
        <_>
          7 30 2 4 -1.</_>
        <_>
          7 32 2 2 2.</_></rects>
      <tilted>0</tilted></_>
    <_>
      <rects>
        <_>
          7 31 2 4 -1.</_>
        <_>
          7 33 2 2 2.</_></rects>
      <tilted>0</tilted></_>
    <_>
      <rects>
        <_>
          7 31 2 8 -1.</_>
        <_>
          7 35 2 4 2.</_></rects>
      <tilted>0</tilted></_>
    <_>
      <rects>
        <_>
          7 32 2 3 -1.</_>
        <_>
          7 33 2 1 3.</_></rects>
      <tilted>0</tilted></_>
    <_>
      <rects>
        <_>
          7 32 4 6 -1.</_>
        <_>
          7 34 4 2 3.</_></rects>
      <tilted>0</tilted></_>
    <_>
      <rects>
        <_>
          7 33 1 3 -1.</_>
        <_>
          7 34 1 1 3.</_></rects>
      <tilted>0</tilted></_>
    <_>
      <rects>
        <_>
          7 33 1 6 -1.</_>
        <_>
          7 36 1 3 2.</_></rects>
      <tilted>0</tilted></_>
    <_>
      <rects>
        <_>
          7 35 1 4 -1.</_>
        <_>
          7 37 1 2 2.</_></rects>
      <tilted>0</tilted></_>
    <_>
      <rects>
        <_>
          8 4 1 26 -1.</_>
        <_>
          8 17 1 13 2.</_></rects>
      <tilted>0</tilted></_>
    <_>
      <rects>
        <_>
          8 5 6 5 -1.</_>
        <_>
          10 5 2 5 3.</_></rects>
      <tilted>0</tilted></_>
    <_>
      <rects>
        <_>
          8 10 8 18 -1.</_>
        <_>
          12 10 4 18 2.</_></rects>
      <tilted>0</tilted></_>
    <_>
      <rects>
        <_>
          8 13 4 12 -1.</_>
        <_>
          10 13 2 12 2.</_></rects>
      <tilted>0</tilted></_>
    <_>
      <rects>
        <_>
          8 17 4 4 -1.</_>
        <_>
          10 17 2 4 2.</_></rects>
      <tilted>0</tilted></_>
    <_>
      <rects>
        <_>
          8 22 1 2 -1.</_>
        <_>
          8 23 1 1 2.</_></rects>
      <tilted>0</tilted></_>
    <_>
      <rects>
        <_>
          8 23 1 2 -1.</_>
        <_>
          8 24 1 1 2.</_></rects>
      <tilted>0</tilted></_>
    <_>
      <rects>
        <_>
          8 24 1 6 -1.</_>
        <_>
          8 26 1 2 3.</_></rects>
      <tilted>0</tilted></_>
    <_>
      <rects>
        <_>
          8 32 1 4 -1.</_>
        <_>
          8 34 1 2 2.</_></rects>
      <tilted>0</tilted></_>
    <_>
      <rects>
        <_>
          9 5 2 4 -1.</_>
        <_>
          9 7 2 2 2.</_></rects>
      <tilted>0</tilted></_>
    <_>
      <rects>
        <_>
          9 8 1 30 -1.</_>
        <_>
          9 23 1 15 2.</_></rects>
      <tilted>0</tilted></_>
    <_>
      <rects>
        <_>
          9 17 3 3 -1.</_>
        <_>
          10 17 1 3 3.</_></rects>
      <tilted>0</tilted></_>
    <_>
      <rects>
        <_>
          9 18 3 7 -1.</_>
        <_>
          10 18 1 7 3.</_></rects>
      <tilted>0</tilted></_>
    <_>
      <rects>
        <_>
          9 19 1 6 -1.</_>
        <_>
          9 22 1 3 2.</_></rects>
      <tilted>0</tilted></_>
    <_>
      <rects>
        <_>
          9 32 3 4 -1.</_>
        <_>
          9 34 3 2 2.</_></rects>
      <tilted>0</tilted></_>
    <_>
      <rects>
        <_>
          9 34 1 4 -1.</_>
        <_>
          9 36 1 2 2.</_></rects>
      <tilted>0</tilted></_>
    <_>
      <rects>
        <_>
          10 9 6 15 -1.</_>
        <_>
          13 9 3 15 2.</_></rects>
      <tilted>0</tilted></_>
    <_>
      <rects>
        <_>
          10 13 3 10 -1.</_>
        <_>
          11 13 1 10 3.</_></rects>
      <tilted>0</tilted></_>
    <_>
      <rects>
        <_>
          10 16 2 10 -1.</_>
        <_>
          11 16 1 10 2.</_></rects>
      <tilted>0</tilted></_>
    <_>
      <rects>
        <_>
          10 19 2 1 -1.</_>
        <_>
          11 19 1 1 2.</_></rects>
      <tilted>0</tilted></_>
    <_>
      <rects>
        <_>
          11 22 2 4 -1.</_>
        <_>
          12 22 1 4 2.</_></rects>
      <tilted>0</tilted></_>
    <_>
      <rects>
        <_>
          11 26 2 8 -1.</_>
        <_>
          12 26 1 8 2.</_></rects>
      <tilted>0</tilted></_>
    <_>
      <rects>
        <_>
          12 7 2 20 -1.</_>
        <_>
          12 7 1 10 2.</_>
        <_>
          13 17 1 10 2.</_></rects>
      <tilted>0</tilted></_>
    <_>
      <rects>
        <_>
          12 30 2 3 -1.</_>
        <_>
          13 30 1 3 2.</_></rects>
      <tilted>0</tilted></_></features></cascade>
</opencv_storage>
