<?xml version="1.0"?>
<opencv_storage>
<stage5>
  <maxWeakCount>8</maxWeakCount>
  <stageThreshold>-7.0304393768310547e-01</stageThreshold>
  <weakClassifiers>
    <_>
      <internalNodes>
        0 -1 121266 1.0573223698884249e-04</internalNodes>
      <leafValues>
        -5.1968502998352051e-01 5.4554361104965210e-01</leafValues></_>
    <_>
      <internalNodes>
        0 -1 146383 2.3410986177623272e-03</internalNodes>
      <leafValues>
        -4.0198034048080444e-01 4.7389164566993713e-01</leafValues></_>
    <_>
      <internalNodes>
        0 -1 91407 -6.8113714456558228e-02</internalNodes>
      <leafValues>
        -8.2041150331497192e-01 1.6940851509571075e-01</leafValues></_>
    <_>
      <internalNodes>
        0 -1 144151 -3.5942591726779938e-02</internalNodes>
      <leafValues>
        -8.3233934640884399e-01 1.7703323066234589e-01</leafValues></_>
    <_>
      <internalNodes>
        0 -1 100108 -1.5176937449723482e-03</internalNodes>
      <leafValues>
        4.2630574107170105e-01 -3.5087448358535767e-01</leafValues></_>
    <_>
      <internalNodes>
        0 -1 149174 7.6739519136026502e-04</internalNodes>
      <leafValues>
        -3.2974186539649963e-01 4.0337187051773071e-01</leafValues></_>
    <_>
      <internalNodes>
        0 -1 149523 6.4547751098871231e-03</internalNodes>
      <leafValues>
        1.5439298748970032e-01 -8.3537894487380981e-01</leafValues></_>
    <_>
      <internalNodes>
        0 -1 142111 4.5317700132727623e-03</internalNodes>
      <leafValues>
        -3.3471068739891052e-01 4.7205242514610291e-01</leafValues></_></weakClassifiers></stage5>
</opencv_storage>
