<?xml version="1.0"?>
<opencv_storage>
<stage6>
  <maxWeakCount>10</maxWeakCount>
  <stageThreshold>-1.0062801837921143e+00</stageThreshold>
  <weakClassifiers>
    <_>
      <internalNodes>
        0 -1 161306 2.6798574253916740e-04</internalNodes>
      <leafValues>
        -3.6363637447357178e-01 5.7671958208084106e-01</leafValues></_>
    <_>
      <internalNodes>
        0 -1 47363 1.5437396941706538e-03</internalNodes>
      <leafValues>
        -2.6015120744705200e-01 5.1866680383682251e-01</leafValues></_>
    <_>
      <internalNodes>
        0 -1 129565 -2.2599749267101288e-02</internalNodes>
      <leafValues>
        -5.6118613481521606e-01 2.4397139251232147e-01</leafValues></_>
    <_>
      <internalNodes>
        0 -1 141202 1.5868933871388435e-02</internalNodes>
      <leafValues>
        1.5264534950256348e-01 -8.9728814363479614e-01</leafValues></_>
    <_>
      <internalNodes>
        0 -1 136641 8.2980294246226549e-04</internalNodes>
      <leafValues>
        -4.4511699676513672e-01 3.0284985899925232e-01</leafValues></_>
    <_>
      <internalNodes>
        0 -1 116418 -1.4002780662849545e-03</internalNodes>
      <leafValues>
        -5.1104402542114258e-01 2.5837019085884094e-01</leafValues></_>
    <_>
      <internalNodes>
        0 -1 45201 -2.7497804258018732e-03</internalNodes>
      <leafValues>
        2.8579413890838623e-01 -4.2325863242149353e-01</leafValues></_>
    <_>
      <internalNodes>
        0 -1 107107 -4.0064025670289993e-03</internalNodes>
      <leafValues>
        2.9434689879417419e-01 -4.3633711338043213e-01</leafValues></_>
    <_>
      <internalNodes>
        0 -1 79119 5.4240198805928230e-03</internalNodes>
      <leafValues>
        -2.8150939941406250e-01 5.0518333911895752e-01</leafValues></_>
    <_>
      <internalNodes>
        0 -1 49232 -3.0255053192377090e-02</internalNodes>
      <leafValues>
        6.0791033506393433e-01 -2.1650277078151703e-01</leafValues></_></weakClassifiers></stage6>
</opencv_storage>
