<?xml version="1.0"?>
<opencv_storage>
<stage9>
  <maxWeakCount>54</maxWeakCount>
  <stageThreshold>-5.0463438034057617e-01</stageThreshold>
  <weakClassifiers>
    <_>
      <internalNodes>
        0 -1 66020 -9.2804227024316788e-03</internalNodes>
      <leafValues>
        5.8104735612869263e-01 2.2866174578666687e-01</leafValues></_>
    <_>
      <internalNodes>
        0 -1 67141 2.1659452468156815e-02</internalNodes>
      <leafValues>
        -4.8427630215883255e-02 5.6319922208786011e-01</leafValues></_>
    <_>
      <internalNodes>
        0 -1 33860 -1.5255373436957598e-03</internalNodes>
      <leafValues>
        5.4596322774887085e-01 -6.6389635205268860e-02</leafValues></_>
    <_>
      <internalNodes>
        0 -1 98474 3.8999177515506744e-02</internalNodes>
      <leafValues>
        -8.5262909531593323e-02 4.7642770409584045e-01</leafValues></_>
    <_>
      <internalNodes>
        0 -1 107446 -5.2990252152085304e-04</internalNodes>
      <leafValues>
        2.3588334023952484e-01 -1.3848832249641418e-01</leafValues></_>
    <_>
      <internalNodes>
        0 -1 16150 -6.2274131923913956e-03</internalNodes>
      <leafValues>
        3.4802144765853882e-01 -8.0663368105888367e-02</leafValues></_>
    <_>
      <internalNodes>
        0 -1 101055 1.2797651812434196e-02</internalNodes>
      <leafValues>
        -7.0764131844043732e-02 4.5006895065307617e-01</leafValues></_>
    <_>
      <internalNodes>
        0 -1 76884 1.5992615371942520e-02</internalNodes>
      <leafValues>
        -8.6003810167312622e-02 2.9587888717651367e-01</leafValues></_>
    <_>
      <internalNodes>
        0 -1 77881 8.2717323675751686e-04</internalNodes>
      <leafValues>
        -5.7817030698060989e-02 4.5977517962455750e-01</leafValues></_>
    <_>
      <internalNodes>
        0 -1 82144 -7.5733158737421036e-03</internalNodes>
      <leafValues>
        6.2299853563308716e-01 -3.8720294833183289e-02</leafValues></_>
    <_>
      <internalNodes>
        0 -1 50003 -2.6971379294991493e-02</internalNodes>
      <leafValues>
        5.0123304128646851e-01 -4.9550265073776245e-02</leafValues></_>
    <_>
      <internalNodes>
        0 -1 71906 -5.8440794236958027e-04</internalNodes>
      <leafValues>
        2.2243586182594299e-01 -1.0477858781814575e-01</leafValues></_>
    <_>
      <internalNodes>
        0 -1 56490 -6.3874302431941032e-03</internalNodes>
      <leafValues>
        3.5583552718162537e-01 -6.4019612967967987e-02</leafValues></_>
    <_>
      <internalNodes>
        0 -1 68423 2.3074418306350708e-02</internalNodes>
      <leafValues>
        7.8880414366722107e-02 -3.0656522512435913e-01</leafValues></_>
    <_>
      <internalNodes>
        0 -1 102194 -7.3957651853561401e-02</internalNodes>
      <leafValues>
        7.2417360544204712e-01 -3.3217206597328186e-02</leafValues></_>
    <_>
      <internalNodes>
        0 -1 74634 -9.6811190247535706e-02</internalNodes>
      <leafValues>
        -5.8312368392944336e-01 5.2009556442499161e-02</leafValues></_>
    <_>
      <internalNodes>
        0 -1 58411 2.6713469997048378e-03</internalNodes>
      <leafValues>
        -7.6161161065101624e-02 3.1869542598724365e-01</leafValues></_>
    <_>
      <internalNodes>
        0 -1 57124 -2.7455226518213749e-04</internalNodes>
      <leafValues>
        1.8211087584495544e-01 -1.2669898569583893e-01</leafValues></_>
    <_>
      <internalNodes>
        0 -1 112144 1.5323201660066843e-04</internalNodes>
      <leafValues>
        1.1956438422203064e-01 -2.3671977221965790e-01</leafValues></_>
    <_>
      <internalNodes>
        0 -1 47808 -3.4862564643844962e-04</internalNodes>
      <leafValues>
        -2.1109038591384888e-01 1.2505207955837250e-01</leafValues></_>
    <_>
      <internalNodes>
        0 -1 105731 2.2097257897257805e-03</internalNodes>
      <leafValues>
        -9.9759675562381744e-02 2.5608906149864197e-01</leafValues></_>
    <_>
      <internalNodes>
        0 -1 90399 -1.1863380670547485e-02</internalNodes>
      <leafValues>
        2.6519632339477539e-01 -9.7046732902526855e-02</leafValues></_>
    <_>
      <internalNodes>
        0 -1 92848 1.4159634709358215e-02</internalNodes>
      <leafValues>
        -8.2559369504451752e-02 3.3455705642700195e-01</leafValues></_>
    <_>
      <internalNodes>
        0 -1 113931 1.0268870741128922e-02</internalNodes>
      <leafValues>
        -6.4790971577167511e-02 3.8009497523307800e-01</leafValues></_>
    <_>
      <internalNodes>
        0 -1 25209 6.6136755049228668e-03</internalNodes>
      <leafValues>
        4.3034598231315613e-02 -6.1217838525772095e-01</leafValues></_>
    <_>
      <internalNodes>
        0 -1 70907 1.7520439578220248e-03</internalNodes>
      <leafValues>
        -5.6675679981708527e-02 4.6672549843788147e-01</leafValues></_>
    <_>
      <internalNodes>
        0 -1 106220 -3.3087180927395821e-03</internalNodes>
      <leafValues>
        -6.0742098093032837e-01 4.5710422098636627e-02</leafValues></_>
    <_>
      <internalNodes>
        0 -1 81131 2.0936546847224236e-02</internalNodes>
      <leafValues>
        -1.0384485125541687e-01 2.3942035436630249e-01</leafValues></_>
    <_>
      <internalNodes>
        0 -1 53927 3.4871685784310102e-04</internalNodes>
      <leafValues>
        -1.5891705453395844e-01 1.6008731722831726e-01</leafValues></_>
    <_>
      <internalNodes>
        0 -1 79264 2.7347716689109802e-01</internalNodes>
      <leafValues>
        -2.5692181661725044e-02 9.3236619234085083e-01</leafValues></_>
    <_>
      <internalNodes>
        0 -1 89400 3.9260037243366241e-02</internalNodes>
      <leafValues>
        5.2095722407102585e-02 -6.0439109802246094e-01</leafValues></_>
    <_>
      <internalNodes>
        0 -1 95095 -8.1038061762228608e-04</internalNodes>
      <leafValues>
        2.6284292340278625e-01 -9.5577649772167206e-02</leafValues></_>
    <_>
      <internalNodes>
        0 -1 9555 -2.0108539611101151e-03</internalNodes>
      <leafValues>
        1.8295183777809143e-01 -1.2060923874378204e-01</leafValues></_>
    <_>
      <internalNodes>
        0 -1 113865 1.1793258599936962e-03</internalNodes>
      <leafValues>
        8.0434098839759827e-02 -3.3605417609214783e-01</leafValues></_>
    <_>
      <internalNodes>
        0 -1 111823 -5.5237039923667908e-03</internalNodes>
      <leafValues>
        4.9560219049453735e-01 -4.7292981296777725e-02</leafValues></_>
    <_>
      <internalNodes>
        0 -1 107454 -4.6688402071595192e-03</internalNodes>
      <leafValues>
        2.8608018159866333e-01 -8.8974021375179291e-02</leafValues></_>
    <_>
      <internalNodes>
        0 -1 17854 2.5831390172243118e-02</internalNodes>
      <leafValues>
        -7.1724310517311096e-02 3.4589993953704834e-01</leafValues></_>
    <_>
      <internalNodes>
        0 -1 14273 -3.4960530698299408e-02</internalNodes>
      <leafValues>
        -5.6556057929992676e-01 4.6755839139223099e-02</leafValues></_>
    <_>
      <internalNodes>
        0 -1 100608 -4.8248209059238434e-02</internalNodes>
      <leafValues>
        -6.9278597831726074e-01 3.6092974245548248e-02</leafValues></_>
    <_>
      <internalNodes>
        0 -1 112448 -2.3450986482203007e-03</internalNodes>
      <leafValues>
        -1.9818647205829620e-01 1.2482471764087677e-01</leafValues></_>
    <_>
      <internalNodes>
        0 -1 14789 -2.1295630722306669e-04</internalNodes>
      <leafValues>
        2.2904746234416962e-01 -1.0681414604187012e-01</leafValues></_>
    <_>
      <internalNodes>
        0 -1 108345 1.7079934477806091e-01</internalNodes>
      <leafValues>
        4.5057047158479691e-02 -6.2455493211746216e-01</leafValues></_>
    <_>
      <internalNodes>
        0 -1 73214 2.4579122662544250e-02</internalNodes>
      <leafValues>
        -1.0904389619827271e-01 2.8249022364616394e-01</leafValues></_>
    <_>
      <internalNodes>
        0 -1 74476 -6.9422833621501923e-03</internalNodes>
      <leafValues>
        1.9388975203037262e-01 -1.6630569100379944e-01</leafValues></_>
    <_>
      <internalNodes>
        0 -1 29757 -3.5797478631138802e-03</internalNodes>
      <leafValues>
        -2.1734972298145294e-01 1.0691233724355698e-01</leafValues></_>
    <_>
      <internalNodes>
        0 -1 42046 1.5446405857801437e-02</internalNodes>
      <leafValues>
        -5.8982476592063904e-02 3.8886648416519165e-01</leafValues></_>
    <_>
      <internalNodes>
        0 -1 93697 9.3401729827746749e-04</internalNodes>
      <leafValues>
        1.0375578701496124e-01 -2.4792470037937164e-01</leafValues></_>
    <_>
      <internalNodes>
        0 -1 67151 -1.5968340449035168e-04</internalNodes>
      <leafValues>
        -1.8887893855571747e-01 1.3726806640625000e-01</leafValues></_>
    <_>
      <internalNodes>
        0 -1 76199 3.0091488733887672e-03</internalNodes>
      <leafValues>
        -6.9423139095306396e-02 3.4506785869598389e-01</leafValues></_>
    <_>
      <internalNodes>
        0 -1 54362 4.3413545936346054e-03</internalNodes>
      <leafValues>
        8.5334517061710358e-02 -3.0393376946449280e-01</leafValues></_>
    <_>
      <internalNodes>
        0 -1 49356 -8.3629251457750797e-04</internalNodes>
      <leafValues>
        2.2812412679195404e-01 -1.1669442802667618e-01</leafValues></_>
    <_>
      <internalNodes>
        0 -1 70912 -5.8387627359479666e-04</internalNodes>
      <leafValues>
        2.5757828354835510e-01 -1.1052268743515015e-01</leafValues></_>
    <_>
      <internalNodes>
        0 -1 64954 -7.4427500367164612e-03</internalNodes>
      <leafValues>
        2.8774851560592651e-01 -8.6645722389221191e-02</leafValues></_>
    <_>
      <internalNodes>
        0 -1 62074 2.3399279452860355e-03</internalNodes>
      <leafValues>
        1.2292248010635376e-01 -2.2076737880706787e-01</leafValues></_></weakClassifiers></stage9>
</opencv_storage>
