<?xml version="1.0"?>
<opencv_storage>
<stage6>
  <maxWeakCount>48</maxWeakCount>
  <stageThreshold>-6.0208851099014282e-01</stageThreshold>
  <weakClassifiers>
    <_>
      <internalNodes>
        0 -1 7119 1.1497471481561661e-02</internalNodes>
      <leafValues>
        3.8302934169769287e-01 -3.7078651785850525e-01</leafValues></_>
    <_>
      <internalNodes>
        0 -1 44260 -8.0119203776121140e-03</internalNodes>
      <leafValues>
        5.3733891248703003e-01 -5.3349602967500687e-02</leafValues></_>
    <_>
      <internalNodes>
        0 -1 99612 2.6173599064350128e-02</internalNodes>
      <leafValues>
        -7.1851782500743866e-02 4.8663887381553650e-01</leafValues></_>
    <_>
      <internalNodes>
        0 -1 57226 2.7473725378513336e-02</internalNodes>
      <leafValues>
        -8.5014671087265015e-02 3.8676822185516357e-01</leafValues></_>
    <_>
      <internalNodes>
        0 -1 57856 -1.2220866978168488e-02</internalNodes>
      <leafValues>
        3.1074991822242737e-01 -1.3317728042602539e-01</leafValues></_>
    <_>
      <internalNodes>
        0 -1 39517 3.8518509827554226e-03</internalNodes>
      <leafValues>
        5.3166218101978302e-02 -5.5699115991592407e-01</leafValues></_>
    <_>
      <internalNodes>
        0 -1 116073 -2.7018317952752113e-02</internalNodes>
      <leafValues>
        5.8541291952133179e-01 -6.5084792673587799e-02</leafValues></_>
    <_>
      <internalNodes>
        0 -1 49938 -1.1310912668704987e-02</internalNodes>
      <leafValues>
        3.5905534029006958e-01 -7.4641041457653046e-02</leafValues></_>
    <_>
      <internalNodes>
        0 -1 83880 -4.3755043298006058e-02</internalNodes>
      <leafValues>
        2.6261639595031738e-01 -1.2249626219272614e-01</leafValues></_>
    <_>
      <internalNodes>
        0 -1 85239 5.4343910887837410e-03</internalNodes>
      <leafValues>
        7.7916234731674194e-02 -4.5770770311355591e-01</leafValues></_>
    <_>
      <internalNodes>
        0 -1 104210 5.0254408270120621e-03</internalNodes>
      <leafValues>
        -7.6160550117492676e-02 3.9208623766899109e-01</leafValues></_>
    <_>
      <internalNodes>
        0 -1 102529 7.5205862522125244e-03</internalNodes>
      <leafValues>
        -4.5856501907110214e-02 6.8914246559143066e-01</leafValues></_>
    <_>
      <internalNodes>
        0 -1 68680 -4.6843634918332100e-03</internalNodes>
      <leafValues>
        -4.2607584595680237e-01 7.3537878692150116e-02</leafValues></_>
    <_>
      <internalNodes>
        0 -1 104250 2.8522722423076630e-02</internalNodes>
      <leafValues>
        -5.5430356413125992e-02 5.7578533887863159e-01</leafValues></_>
    <_>
      <internalNodes>
        0 -1 101521 2.5274842046201229e-03</internalNodes>
      <leafValues>
        6.2896259129047394e-02 -4.8096877336502075e-01</leafValues></_>
    <_>
      <internalNodes>
        0 -1 52345 -2.1605651825666428e-02</internalNodes>
      <leafValues>
        6.6961210966110229e-01 -4.3802101165056229e-02</leafValues></_>
    <_>
      <internalNodes>
        0 -1 73319 -1.6944598406553268e-02</internalNodes>
      <leafValues>
        4.1092711687088013e-01 -6.0985267162322998e-02</leafValues></_>
    <_>
      <internalNodes>
        0 -1 38072 1.3454123400151730e-03</internalNodes>
      <leafValues>
        1.1103115230798721e-01 -2.5660949945449829e-01</leafValues></_>
    <_>
      <internalNodes>
        0 -1 3504 3.0886299908161163e-02</internalNodes>
      <leafValues>
        -3.4452788531780243e-02 7.5650256872177124e-01</leafValues></_>
    <_>
      <internalNodes>
        0 -1 82162 -2.2097520530223846e-02</internalNodes>
      <leafValues>
        4.8751854896545410e-01 -5.0853490829467773e-02</leafValues></_>
    <_>
      <internalNodes>
        0 -1 85525 1.5050459187477827e-03</internalNodes>
      <leafValues>
        6.1276361346244812e-02 -5.5200809240341187e-01</leafValues></_>
    <_>
      <internalNodes>
        0 -1 108851 1.9259668886661530e-02</internalNodes>
      <leafValues>
        3.8056604564189911e-02 -7.1051478385925293e-01</leafValues></_>
    <_>
      <internalNodes>
        0 -1 103963 3.9685978554189205e-03</internalNodes>
      <leafValues>
        -1.0286334902048111e-01 3.0373102426528931e-01</leafValues></_>
    <_>
      <internalNodes>
        0 -1 38683 -4.2664040811359882e-03</internalNodes>
      <leafValues>
        -4.2445638775825500e-01 8.2786560058593750e-02</leafValues></_>
    <_>
      <internalNodes>
        0 -1 116965 -5.8076828718185425e-03</internalNodes>
      <leafValues>
        4.5377001166343689e-01 -6.8327762186527252e-02</leafValues></_>
    <_>
      <internalNodes>
        0 -1 236 2.7683924417942762e-04</internalNodes>
      <leafValues>
        1.7107185721397400e-01 -1.6667209565639496e-01</leafValues></_>
    <_>
      <internalNodes>
        0 -1 29838 1.4571996871381998e-04</internalNodes>
      <leafValues>
        -1.4708030223846436e-01 2.1069970726966858e-01</leafValues></_>
    <_>
      <internalNodes>
        0 -1 115795 -1.7695240676403046e-02</internalNodes>
      <leafValues>
        4.3822455406188965e-01 -6.0680866241455078e-02</leafValues></_>
    <_>
      <internalNodes>
        0 -1 15998 -1.1832970194518566e-02</internalNodes>
      <leafValues>
        -6.5182745456695557e-01 4.7171391546726227e-02</leafValues></_>
    <_>
      <internalNodes>
        0 -1 105513 -3.8514569401741028e-02</internalNodes>
      <leafValues>
        9.1051894426345825e-01 -3.4763373434543610e-02</leafValues></_>
    <_>
      <internalNodes>
        0 -1 348 3.0204607173800468e-03</internalNodes>
      <leafValues>
        7.8020699322223663e-02 -4.1176581382751465e-01</leafValues></_>
    <_>
      <internalNodes>
        0 -1 27770 -1.7078343778848648e-02</internalNodes>
      <leafValues>
        3.4920901060104370e-01 -7.5015932321548462e-02</leafValues></_>
    <_>
      <internalNodes>
        0 -1 103446 -1.7659616423770785e-04</internalNodes>
      <leafValues>
        -1.7918148636817932e-01 1.5036550164222717e-01</leafValues></_>
    <_>
      <internalNodes>
        0 -1 105375 1.1535165831446648e-02</internalNodes>
      <leafValues>
        1.0632192343473434e-01 -2.9064327478408813e-01</leafValues></_>
    <_>
      <internalNodes>
        0 -1 44053 -6.4593153074383736e-03</internalNodes>
      <leafValues>
        5.6011122465133667e-01 -4.5968212187290192e-02</leafValues></_>
    <_>
      <internalNodes>
        0 -1 12306 1.6865857178345323e-03</internalNodes>
      <leafValues>
        5.9989571571350098e-02 -4.4451734423637390e-01</leafValues></_>
    <_>
      <internalNodes>
        0 -1 107392 7.2820829227566719e-03</internalNodes>
      <leafValues>
        -5.5986274033784866e-02 5.2260714769363403e-01</leafValues></_>
    <_>
      <internalNodes>
        0 -1 45000 6.1049626674503088e-04</internalNodes>
      <leafValues>
        -8.1356532871723175e-02 3.0405569076538086e-01</leafValues></_>
    <_>
      <internalNodes>
        0 -1 63616 -6.7231468856334686e-03</internalNodes>
      <leafValues>
        -6.7310279607772827e-01 4.5753072947263718e-02</leafValues></_>
    <_>
      <internalNodes>
        0 -1 58812 3.2707944512367249e-02</internalNodes>
      <leafValues>
        -5.3019151091575623e-02 6.2454652786254883e-01</leafValues></_>
    <_>
      <internalNodes>
        0 -1 113124 6.7424646113067865e-04</internalNodes>
      <leafValues>
        9.3843236565589905e-02 -3.7826117873191833e-01</leafValues></_>
    <_>
      <internalNodes>
        0 -1 95430 -5.2701082313433290e-04</internalNodes>
      <leafValues>
        2.4625191092491150e-01 -1.2581440806388855e-01</leafValues></_>
    <_>
      <internalNodes>
        0 -1 62320 -5.5453032255172729e-03</internalNodes>
      <leafValues>
        4.3309941887855530e-01 -6.3722021877765656e-02</leafValues></_>
    <_>
      <internalNodes>
        0 -1 115660 -2.4883165024220943e-03</internalNodes>
      <leafValues>
        3.5331618785858154e-01 -7.8826732933521271e-02</leafValues></_>
    <_>
      <internalNodes>
        0 -1 3465 -3.3967240597121418e-04</internalNodes>
      <leafValues>
        -2.8765600919723511e-01 1.0786251723766327e-01</leafValues></_>
    <_>
      <internalNodes>
        0 -1 10435 1.0661518201231956e-02</internalNodes>
      <leafValues>
        5.3080335259437561e-02 -5.9929990768432617e-01</leafValues></_>
    <_>
      <internalNodes>
        0 -1 348 -2.7583756018429995e-03</internalNodes>
      <leafValues>
        -3.8859286904335022e-01 7.0412427186965942e-02</leafValues></_>
    <_>
      <internalNodes>
        0 -1 86041 -1.3907824177294970e-03</internalNodes>
      <leafValues>
        2.4441142380237579e-01 -1.2155073136091232e-01</leafValues></_></weakClassifiers></stage6>
</opencv_storage>
