<?xml version="1.0"?>
<opencv_storage>
<stage5>
  <maxWeakCount>46</maxWeakCount>
  <stageThreshold>-6.5293622016906738e-01</stageThreshold>
  <weakClassifiers>
    <_>
      <internalNodes>
        0 -1 69941 -3.3487077802419662e-02</internalNodes>
      <leafValues>
        7.9487180709838867e-01 2.5541126728057861e-01</leafValues></_>
    <_>
      <internalNodes>
        0 -1 93561 -2.3392364382743835e-02</internalNodes>
      <leafValues>
        5.4307937622070312e-01 -5.1998250186443329e-02</leafValues></_>
    <_>
      <internalNodes>
        0 -1 90027 3.4879762679338455e-02</internalNodes>
      <leafValues>
        -8.1903740763664246e-02 5.9059333801269531e-01</leafValues></_>
    <_>
      <internalNodes>
        0 -1 97462 2.1037723869085312e-02</internalNodes>
      <leafValues>
        -9.2131100594997406e-02 5.3631299734115601e-01</leafValues></_>
    <_>
      <internalNodes>
        0 -1 6598 -4.1150994598865509e-02</internalNodes>
      <leafValues>
        6.0689926147460938e-01 -7.4391253292560577e-02</leafValues></_>
    <_>
      <internalNodes>
        0 -1 7267 1.5893995761871338e-02</internalNodes>
      <leafValues>
        -1.1245962232351303e-01 4.5027360320091248e-01</leafValues></_>
    <_>
      <internalNodes>
        0 -1 51415 -9.4717126339673996e-03</internalNodes>
      <leafValues>
        5.0201058387756348e-01 -5.2697144448757172e-02</leafValues></_>
    <_>
      <internalNodes>
        0 -1 41257 -2.4984899908304214e-02</internalNodes>
      <leafValues>
        9.5071601867675781e-01 -2.9575698077678680e-02</leafValues></_>
    <_>
      <internalNodes>
        0 -1 111740 1.7904844135046005e-02</internalNodes>
      <leafValues>
        -4.7246437519788742e-02 5.3088533878326416e-01</leafValues></_>
    <_>
      <internalNodes>
        0 -1 67942 -3.9409413002431393e-03</internalNodes>
      <leafValues>
        2.1165229380130768e-01 -1.4854393899440765e-01</leafValues></_>
    <_>
      <internalNodes>
        0 -1 106976 1.4565148390829563e-02</internalNodes>
      <leafValues>
        -6.6345840692520142e-02 4.7792324423789978e-01</leafValues></_>
    <_>
      <internalNodes>
        0 -1 115002 1.5356903895735741e-03</internalNodes>
      <leafValues>
        -1.3058979809284210e-01 2.3720362782478333e-01</leafValues></_>
    <_>
      <internalNodes>
        0 -1 57791 -8.2036610692739487e-03</internalNodes>
      <leafValues>
        3.4103977680206299e-01 -8.2165986299514771e-02</leafValues></_>
    <_>
      <internalNodes>
        0 -1 2219 -5.7526221498847008e-03</internalNodes>
      <leafValues>
        -5.7675027847290039e-01 5.0032302737236023e-02</leafValues></_>
    <_>
      <internalNodes>
        0 -1 114742 -1.2878964189440012e-03</internalNodes>
      <leafValues>
        3.2674753665924072e-01 -9.6645571291446686e-02</leafValues></_>
    <_>
      <internalNodes>
        0 -1 23319 -2.2046975791454315e-03</internalNodes>
      <leafValues>
        2.4738988280296326e-01 -1.1852332949638367e-01</leafValues></_>
    <_>
      <internalNodes>
        0 -1 73918 1.3008950650691986e-01</internalNodes>
      <leafValues>
        6.8309120833873749e-02 -4.5387315750122070e-01</leafValues></_>
    <_>
      <internalNodes>
        0 -1 66436 -2.4544096086174250e-03</internalNodes>
      <leafValues>
        -3.9986097812652588e-01 7.3297537863254547e-02</leafValues></_>
    <_>
      <internalNodes>
        0 -1 95383 1.6726006288081408e-03</internalNodes>
      <leafValues>
        -1.2141992151737213e-01 2.7952986955642700e-01</leafValues></_>
    <_>
      <internalNodes>
        0 -1 26469 2.6569804176688194e-03</internalNodes>
      <leafValues>
        4.1158877313137054e-02 -7.4521452188491821e-01</leafValues></_>
    <_>
      <internalNodes>
        0 -1 15141 -6.8660080432891846e-04</internalNodes>
      <leafValues>
        -1.8877366185188293e-01 1.3864687085151672e-01</leafValues></_>
    <_>
      <internalNodes>
        0 -1 101870 -1.3318382203578949e-02</internalNodes>
      <leafValues>
        -2.5806719064712524e-01 1.1121324449777603e-01</leafValues></_>
    <_>
      <internalNodes>
        0 -1 56146 3.1450362876057625e-03</internalNodes>
      <leafValues>
        -4.2282916605472565e-02 6.7823898792266846e-01</leafValues></_>
    <_>
      <internalNodes>
        0 -1 104922 2.8736021369695663e-02</internalNodes>
      <leafValues>
        -4.0082424879074097e-02 6.0436093807220459e-01</leafValues></_>
    <_>
      <internalNodes>
        0 -1 8457 -2.3754239082336426e-03</internalNodes>
      <leafValues>
        -2.5389403104782104e-01 1.1427494138479233e-01</leafValues></_>
    <_>
      <internalNodes>
        0 -1 113130 2.7770979795604944e-03</internalNodes>
      <leafValues>
        -5.5095721036195755e-02 4.9310243129730225e-01</leafValues></_>
    <_>
      <internalNodes>
        0 -1 112161 -1.1572659714147449e-03</internalNodes>
      <leafValues>
        -3.8793048262596130e-01 7.2478808462619781e-02</leafValues></_>
    <_>
      <internalNodes>
        0 -1 115566 -4.1484031826257706e-03</internalNodes>
      <leafValues>
        3.8036108016967773e-01 -7.9633332788944244e-02</leafValues></_>
    <_>
      <internalNodes>
        0 -1 87455 9.5158512704074383e-04</internalNodes>
      <leafValues>
        -1.0257725417613983e-01 2.7128976583480835e-01</leafValues></_>
    <_>
      <internalNodes>
        0 -1 95783 3.1127382069826126e-02</internalNodes>
      <leafValues>
        8.7315961718559265e-02 -3.2312887907028198e-01</leafValues></_>
    <_>
      <internalNodes>
        0 -1 73275 -3.9461064152419567e-03</internalNodes>
      <leafValues>
        4.5189604163169861e-01 -6.4365886151790619e-02</leafValues></_>
    <_>
      <internalNodes>
        0 -1 16079 2.7677479665726423e-03</internalNodes>
      <leafValues>
        -7.7281415462493896e-02 3.4759518504142761e-01</leafValues></_>
    <_>
      <internalNodes>
        0 -1 3942 -6.1366921290755272e-03</internalNodes>
      <leafValues>
        -5.6473487615585327e-01 4.9100484699010849e-02</leafValues></_>
    <_>
      <internalNodes>
        0 -1 47716 -3.1679552048444748e-03</internalNodes>
      <leafValues>
        2.4935492873191833e-01 -1.1725214868783951e-01</leafValues></_>
    <_>
      <internalNodes>
        0 -1 21104 6.0669155791401863e-03</internalNodes>
      <leafValues>
        4.4076573103666306e-02 -5.9139853715896606e-01</leafValues></_>
    <_>
      <internalNodes>
        0 -1 23745 2.1778962109237909e-03</internalNodes>
      <leafValues>
        8.2632429897785187e-02 -3.2445526123046875e-01</leafValues></_>
    <_>
      <internalNodes>
        0 -1 37562 3.5725599154829979e-03</internalNodes>
      <leafValues>
        -1.0790405422449112e-01 2.8138419985771179e-01</leafValues></_>
    <_>
      <internalNodes>
        0 -1 62742 -3.3201312180608511e-04</internalNodes>
      <leafValues>
        1.8731738626956940e-01 -1.5687032043933868e-01</leafValues></_>
    <_>
      <internalNodes>
        0 -1 104486 -1.1490049771964550e-02</internalNodes>
      <leafValues>
        2.8609448671340942e-01 -9.0361766517162323e-02</leafValues></_>
    <_>
      <internalNodes>
        0 -1 50898 -1.0612933896481991e-02</internalNodes>
      <leafValues>
        -6.3201534748077393e-01 4.1266404092311859e-02</leafValues></_>
    <_>
      <internalNodes>
        0 -1 4184 8.8728498667478561e-03</internalNodes>
      <leafValues>
        4.5797374099493027e-02 -5.2335989475250244e-01</leafValues></_>
    <_>
      <internalNodes>
        0 -1 112170 -4.1758278384804726e-03</internalNodes>
      <leafValues>
        4.0880733728408813e-01 -7.5179748237133026e-02</leafValues></_>
    <_>
      <internalNodes>
        0 -1 5077 9.6212364733219147e-03</internalNodes>
      <leafValues>
        -6.2339883297681808e-02 4.0582281351089478e-01</leafValues></_>
    <_>
      <internalNodes>
        0 -1 26071 4.8799091018736362e-05</internalNodes>
      <leafValues>
        1.6578781604766846e-01 -1.8083952367305756e-01</leafValues></_>
    <_>
      <internalNodes>
        0 -1 44871 -2.0406474359333515e-03</internalNodes>
      <leafValues>
        -1.9140857458114624e-01 1.5347391366958618e-01</leafValues></_>
    <_>
      <internalNodes>
        0 -1 116621 -6.4501655288040638e-05</internalNodes>
      <leafValues>
        1.7925857007503510e-01 -1.6285371780395508e-01</leafValues></_></weakClassifiers></stage5>
</opencv_storage>
