<?xml version="1.0"?>
<opencv_storage>
<cascade>
  <stageType>BOOST</stageType>
  <featureType>HAAR</featureType>
  <height>32</height>
  <width>14</width>
  <stageParams>
    <boostType>GAB</boostType>
    <minHitRate>9.9500000476837158e-01</minHitRate>
    <maxFalseAlarm>5.0000000000000000e-01</maxFalseAlarm>
    <weightTrimRate>9.4999999999999996e-01</weightTrimRate>
    <maxDepth>1</maxDepth>
    <maxWeakCount>100</maxWeakCount></stageParams>
  <featureParams>
    <maxCatCount>0</maxCatCount>
    <featSize>1</featSize>
    <mode>BASIC</mode></featureParams>
  <stageNum>10</stageNum>
  <stages>
    <!-- stage 0 -->
    <_>
      <maxWeakCount>16</maxWeakCount>
      <stageThreshold>-6.6959285736083984e-01</stageThreshold>
      <weakClassifiers>
        <_>
          <internalNodes>
            0 -1 92 -1.6428604722023010e-03</internalNodes>
          <leafValues>
            7.3205739259719849e-01 -1.2448132969439030e-02</leafValues></_>
        <_>
          <internalNodes>
            0 -1 37 1.5147608704864979e-02</internalNodes>
          <leafValues>
            -1.4399093389511108e-01 6.4731705188751221e-01</leafValues></_>
        <_>
          <internalNodes>
            0 -1 118 1.3779844157397747e-03</internalNodes>
          <leafValues>
            -1.6182006895542145e-01 5.8584773540496826e-01</leafValues></_>
        <_>
          <internalNodes>
            0 -1 96 -2.7044201269745827e-03</internalNodes>
          <leafValues>
            6.1011993885040283e-01 -2.4035969376564026e-01</leafValues></_>
        <_>
          <internalNodes>
            0 -1 44 -6.7626610398292542e-03</internalNodes>
          <leafValues>
            5.7868903875350952e-01 -1.8458998203277588e-01</leafValues></_>
        <_>
          <internalNodes>
            0 -1 156 -9.0371789410710335e-03</internalNodes>
          <leafValues>
            6.1072772741317749e-01 -1.3543714582920074e-01</leafValues></_>
        <_>
          <internalNodes>
            0 -1 153 8.0135613679885864e-03</internalNodes>
          <leafValues>
            -1.8372091650962830e-01 6.3078945875167847e-01</leafValues></_>
        <_>
          <internalNodes>
            0 -1 93 7.8463915269821882e-04</internalNodes>
          <leafValues>
            -1.8190203607082367e-01 4.8390993475914001e-01</leafValues></_>
        <_>
          <internalNodes>
            0 -1 109 1.4924550428986549e-02</internalNodes>
          <leafValues>
            -1.2580285966396332e-01 6.6367298364639282e-01</leafValues></_>
        <_>
          <internalNodes>
            0 -1 75 -1.1685256322380155e-04</internalNodes>
          <leafValues>
            -3.5900104045867920e-01 2.5075471401214600e-01</leafValues></_>
        <_>
          <internalNodes>
            0 -1 138 -2.8049591928720474e-03</internalNodes>
          <leafValues>
            4.5160093903541565e-01 -1.8861557543277740e-01</leafValues></_>
        <_>
          <internalNodes>
            0 -1 140 3.4921988844871521e-03</internalNodes>
          <leafValues>
            -1.9010701775550842e-01 4.7623440623283386e-01</leafValues></_>
        <_>
          <internalNodes>
            0 -1 72 -6.1395962256938219e-04</internalNodes>
          <leafValues>
            3.1995418667793274e-01 -2.5379845499992371e-01</leafValues></_>
        <_>
          <internalNodes>
            0 -1 77 2.2854527924209833e-04</internalNodes>
          <leafValues>
            2.0137090981006622e-01 -3.8936799764633179e-01</leafValues></_>
        <_>
          <internalNodes>
            0 -1 157 -3.4181829541921616e-03</internalNodes>
          <leafValues>
            4.2016211152076721e-01 -1.8958754837512970e-01</leafValues></_>
        <_>
          <internalNodes>
            0 -1 160 1.5069128945469856e-02</internalNodes>
          <leafValues>
            -1.6251802444458008e-01 5.7832473516464233e-01</leafValues></_></weakClassifiers></_>
    <!-- stage 1 -->
    <_>
      <maxWeakCount>17</maxWeakCount>
      <stageThreshold>-7.1775317192077637e-01</stageThreshold>
      <weakClassifiers>
        <_>
          <internalNodes>
            0 -1 112 2.2142443049233407e-04</internalNodes>
          <leafValues>
            5.2929687500000000e-01 -2.8220859169960022e-01</leafValues></_>
        <_>
          <internalNodes>
            0 -1 112 -2.0846974803134799e-04</internalNodes>
          <leafValues>
            -6.0998904705047607e-01 3.2297170162200928e-01</leafValues></_>
        <_>
          <internalNodes>
            0 -1 97 -2.9399003833532333e-03</internalNodes>
          <leafValues>
            5.1043570041656494e-01 -2.4358668923377991e-01</leafValues></_>
        <_>
          <internalNodes>
            0 -1 92 -2.6884081307798624e-03</internalNodes>
          <leafValues>
            4.0076249837875366e-01 -2.1696518361568451e-01</leafValues></_>
        <_>
          <internalNodes>
            0 -1 94 -1.2533287517726421e-03</internalNodes>
          <leafValues>
            4.2260980606079102e-01 -2.0182697474956512e-01</leafValues></_>
        <_>
          <internalNodes>
            0 -1 90 -8.3162369264755398e-05</internalNodes>
          <leafValues>
            -3.6298716068267822e-01 2.0376406610012054e-01</leafValues></_>
        <_>
          <internalNodes>
            0 -1 90 1.5464512398466468e-04</internalNodes>
          <leafValues>
            2.1261590719223022e-01 -4.4898480176925659e-01</leafValues></_>
        <_>
          <internalNodes>
            0 -1 25 -1.0670751333236694e-02</internalNodes>
          <leafValues>
            4.8041796684265137e-01 -1.5618571639060974e-01</leafValues></_>
        <_>
          <internalNodes>
            0 -1 6 -7.6727680861949921e-03</internalNodes>
          <leafValues>
            4.1299992799758911e-01 -2.0242610573768616e-01</leafValues></_>
        <_>
          <internalNodes>
            0 -1 46 -6.5563330426812172e-03</internalNodes>
          <leafValues>
            4.8112720251083374e-01 -1.4245024323463440e-01</leafValues></_>
        <_>
          <internalNodes>
            0 -1 7 3.3574983477592468e-02</internalNodes>
          <leafValues>
            -1.4572922885417938e-01 5.5324357748031616e-01</leafValues></_>
        <_>
          <internalNodes>
            0 -1 8 6.8784486502408981e-03</internalNodes>
          <leafValues>
            -1.7957344651222229e-01 5.1291543245315552e-01</leafValues></_>
        <_>
          <internalNodes>
            0 -1 55 4.1954750195145607e-03</internalNodes>
          <leafValues>
            1.3411580026149750e-01 -6.4184635877609253e-01</leafValues></_>
        <_>
          <internalNodes>
            0 -1 115 1.7686596838757396e-03</internalNodes>
          <leafValues>
            7.0936098694801331e-02 -7.8895831108093262e-01</leafValues></_>
        <_>
          <internalNodes>
            0 -1 132 -2.1202026982791722e-04</internalNodes>
          <leafValues>
            -4.3462756276130676e-01 1.7787212133407593e-01</leafValues></_>
        <_>
          <internalNodes>
            0 -1 132 1.5242365770973265e-04</internalNodes>
          <leafValues>
            2.0938187837600708e-01 -4.4622996449470520e-01</leafValues></_>
        <_>
          <internalNodes>
            0 -1 4 -3.8530778139829636e-02</internalNodes>
          <leafValues>
            5.3225439786911011e-01 -1.6887804865837097e-01</leafValues></_></weakClassifiers></_>
    <!-- stage 2 -->
    <_>
      <maxWeakCount>20</maxWeakCount>
      <stageThreshold>-8.2943969964981079e-01</stageThreshold>
      <weakClassifiers>
        <_>
          <internalNodes>
            0 -1 34 1.5605558641254902e-02</internalNodes>
          <leafValues>
            1.0851808637380600e-01 7.2413790225982666e-01</leafValues></_>
        <_>
          <internalNodes>
            0 -1 94 3.5791187547147274e-03</internalNodes>
          <leafValues>
            -1.1528975516557693e-01 6.0065406560897827e-01</leafValues></_>
        <_>
          <internalNodes>
            0 -1 116 9.0426474343985319e-04</internalNodes>
          <leafValues>
            -2.0575878024101257e-01 3.6486038565635681e-01</leafValues></_>
        <_>
          <internalNodes>
            0 -1 59 1.8912118393927813e-03</internalNodes>
          <leafValues>
            -2.1784816682338715e-01 5.6684279441833496e-01</leafValues></_>
        <_>
          <internalNodes>
            0 -1 149 -1.2026783078908920e-02</internalNodes>
          <leafValues>
            -5.9221750497817993e-01 1.4883434772491455e-01</leafValues></_>
        <_>
          <internalNodes>
            0 -1 146 -2.9870022088289261e-02</internalNodes>
          <leafValues>
            8.5761457681655884e-01 -9.1430351138114929e-02</leafValues></_>
        <_>
          <internalNodes>
            0 -1 142 -8.3490349352359772e-03</internalNodes>
          <leafValues>
            5.7380908727645874e-01 -1.4647908508777618e-01</leafValues></_>
        <_>
          <internalNodes>
            0 -1 128 3.5801515914499760e-03</internalNodes>
          <leafValues>
            -1.6540141403675079e-01 4.6030673384666443e-01</leafValues></_>
        <_>
          <internalNodes>
            0 -1 132 -1.2415376841090620e-04</internalNodes>
          <leafValues>
            -3.9095667004585266e-01 1.9344064593315125e-01</leafValues></_>
        <_>
          <internalNodes>
            0 -1 132 9.8774209618568420e-05</internalNodes>
          <leafValues>
            2.1754479408264160e-01 -4.5170432329177856e-01</leafValues></_>
        <_>
          <internalNodes>
            0 -1 20 4.8473477363586426e-03</internalNodes>
          <leafValues>
            -2.1627078950405121e-01 3.9393079280853271e-01</leafValues></_>
        <_>
          <internalNodes>
            0 -1 103 -9.3849189579486847e-03</internalNodes>
          <leafValues>
            4.8814141750335693e-01 -1.5923023223876953e-01</leafValues></_>
        <_>
          <internalNodes>
            0 -1 105 1.2321278452873230e-02</internalNodes>
          <leafValues>
            -1.3996736705303192e-01 5.8900105953216553e-01</leafValues></_>
        <_>
          <internalNodes>
            0 -1 169 -4.4978582300245762e-03</internalNodes>
          <leafValues>
            5.8911246061325073e-01 -1.1487834900617599e-01</leafValues></_>
        <_>
          <internalNodes>
            0 -1 171 -9.9546164274215698e-03</internalNodes>
          <leafValues>
            5.3829503059387207e-01 -1.2913052737712860e-01</leafValues></_>
        <_>
          <internalNodes>
            0 -1 101 1.5028866007924080e-02</internalNodes>
          <leafValues>
            -1.5066242218017578e-01 4.6171203255653381e-01</leafValues></_>
        <_>
          <internalNodes>
            0 -1 69 -6.0042075347155333e-04</internalNodes>
          <leafValues>
            4.1975414752960205e-01 -1.8676535785198212e-01</leafValues></_>
        <_>
          <internalNodes>
            0 -1 76 -1.2401150166988373e-01</internalNodes>
          <leafValues>
            -5.4129785299301147e-01 1.5065775811672211e-01</leafValues></_>
        <_>
          <internalNodes>
            0 -1 50 1.7534434795379639e-01</internalNodes>
          <leafValues>
            7.6827354729175568e-02 -7.6323908567428589e-01</leafValues></_>
        <_>
          <internalNodes>
            0 -1 88 1.5138623712118715e-04</internalNodes>
          <leafValues>
            1.9313748180866241e-01 -3.7695774435997009e-01</leafValues></_></weakClassifiers></_>
    <!-- stage 3 -->
    <_>
      <maxWeakCount>20</maxWeakCount>
      <stageThreshold>-8.4624010324478149e-01</stageThreshold>
      <weakClassifiers>
        <_>
          <internalNodes>
            0 -1 90 -1.0617477528285235e-04</internalNodes>
          <leafValues>
            -2.1994134783744812e-01 5.2031713724136353e-01</leafValues></_>
        <_>
          <internalNodes>
            0 -1 58 -4.1481778025627136e-03</internalNodes>
          <leafValues>
            5.2323371171951294e-01 -1.8677784502506256e-01</leafValues></_>
        <_>
          <internalNodes>
            0 -1 90 1.1812218872364610e-04</internalNodes>
          <leafValues>
            2.4428802728652954e-01 -4.1749933362007141e-01</leafValues></_>
        <_>
          <internalNodes>
            0 -1 130 -9.0948029537685215e-05</internalNodes>
          <leafValues>
            -4.2690336704254150e-01 1.9336479902267456e-01</leafValues></_>
        <_>
          <internalNodes>
            0 -1 130 8.3482816989999264e-05</internalNodes>
          <leafValues>
            1.9474251568317413e-01 -4.2173331975936890e-01</leafValues></_>
        <_>
          <internalNodes>
            0 -1 129 -5.7678027078509331e-03</internalNodes>
          <leafValues>
            5.4211705923080444e-01 -1.4692489802837372e-01</leafValues></_>
        <_>
          <internalNodes>
            0 -1 159 7.5505375862121582e-03</internalNodes>
          <leafValues>
            -1.5188056230545044e-01 4.4816759228706360e-01</leafValues></_>
        <_>
          <internalNodes>
            0 -1 19 3.3303988166153431e-03</internalNodes>
          <leafValues>
            -1.1418992280960083e-01 5.3531706333160400e-01</leafValues></_>
        <_>
          <internalNodes>
            0 -1 17 -8.6729601025581360e-03</internalNodes>
          <leafValues>
            4.3770727515220642e-01 -1.8705265223979950e-01</leafValues></_>
        <_>
          <internalNodes>
            0 -1 155 -1.6730213537812233e-02</internalNodes>
          <leafValues>
            6.1013084650039673e-01 -1.1293090879917145e-01</leafValues></_>
        <_>
          <internalNodes>
            0 -1 0 5.6411407887935638e-02</internalNodes>
          <leafValues>
            -9.4041168689727783e-02 6.3805419206619263e-01</leafValues></_>
        <_>
          <internalNodes>
            0 -1 57 -1.9150926964357495e-03</internalNodes>
          <leafValues>
            -5.0543725490570068e-01 1.3428193330764771e-01</leafValues></_>
        <_>
          <internalNodes>
            0 -1 86 -1.9936423748731613e-02</internalNodes>
          <leafValues>
            6.1383754014968872e-01 -1.0925739258527756e-01</leafValues></_>
        <_>
          <internalNodes>
            0 -1 147 -9.6808616071939468e-03</internalNodes>
          <leafValues>
            -6.8277740478515625e-01 1.1479585617780685e-01</leafValues></_>
        <_>
          <internalNodes>
            0 -1 168 -1.9985041581094265e-03</internalNodes>
          <leafValues>
            3.4738975763320923e-01 -1.9895331561565399e-01</leafValues></_>
        <_>
          <internalNodes>
            0 -1 135 3.0454574152827263e-03</internalNodes>
          <leafValues>
            -1.1746735870838165e-01 5.6695288419723511e-01</leafValues></_>
        <_>
          <internalNodes>
            0 -1 136 -3.2228571362793446e-03</internalNodes>
          <leafValues>
            4.3161121010780334e-01 -1.6743756830692291e-01</leafValues></_>
        <_>
          <internalNodes>
            0 -1 113 2.2464207722805440e-04</internalNodes>
          <leafValues>
            1.5194135904312134e-01 -4.7079139947891235e-01</leafValues></_>
        <_>
          <internalNodes>
            0 -1 32 2.3288875818252563e-03</internalNodes>
          <leafValues>
            1.0579726099967957e-01 -6.8178725242614746e-01</leafValues></_>
        <_>
          <internalNodes>
            0 -1 29 -5.1757683977484703e-03</internalNodes>
          <leafValues>
            4.1541296243667603e-01 -1.8308866024017334e-01</leafValues></_></weakClassifiers></_>
    <!-- stage 4 -->
    <_>
      <maxWeakCount>25</maxWeakCount>
      <stageThreshold>-9.5588088035583496e-01</stageThreshold>
      <weakClassifiers>
        <_>
          <internalNodes>
            0 -1 119 2.0922886324115098e-04</internalNodes>
          <leafValues>
            4.6969696879386902e-01 -1.5646257996559143e-01</leafValues></_>
        <_>
          <internalNodes>
            0 -1 117 -9.7323133377358317e-04</internalNodes>
          <leafValues>
            3.2499998807907104e-01 -2.2331166267395020e-01</leafValues></_>
        <_>
          <internalNodes>
            0 -1 112 -1.1133504449389875e-04</internalNodes>
          <leafValues>
            -4.0543830394744873e-01 1.7944753170013428e-01</leafValues></_>
        <_>
          <internalNodes>
            0 -1 112 8.5574734839610755e-05</internalNodes>
          <leafValues>
            2.1229985356330872e-01 -4.4896748661994934e-01</leafValues></_>
        <_>
          <internalNodes>
            0 -1 10 -3.6133923567831516e-03</internalNodes>
          <leafValues>
            3.7313744425773621e-01 -1.8119473755359650e-01</leafValues></_>
        <_>
          <internalNodes>
            0 -1 9 1.9978582859039307e-02</internalNodes>
          <leafValues>
            -1.5351326763629913e-01 4.8512223362922668e-01</leafValues></_>
        <_>
          <internalNodes>
            0 -1 47 -2.6137655600905418e-02</internalNodes>
          <leafValues>
            5.6472468376159668e-01 -8.6613982915878296e-02</leafValues></_>
        <_>
          <internalNodes>
            0 -1 43 3.6543200258165598e-03</internalNodes>
          <leafValues>
            7.7079631388187408e-02 -7.2533929347991943e-01</leafValues></_>
        <_>
          <internalNodes>
            0 -1 62 1.2715469114482403e-02</internalNodes>
          <leafValues>
            -1.0618671029806137e-01 7.0479583740234375e-01</leafValues></_>
        <_>
          <internalNodes>
            0 -1 58 4.2303400114178658e-03</internalNodes>
          <leafValues>
            -1.4647358655929565e-01 4.3871882557868958e-01</leafValues></_>
        <_>
          <internalNodes>
            0 -1 164 1.2762546539306641e-03</internalNodes>
          <leafValues>
            1.2631925940513611e-01 -6.3576090335845947e-01</leafValues></_>
        <_>
          <internalNodes>
            0 -1 158 -6.2717809341847897e-03</internalNodes>
          <leafValues>
            4.4989427924156189e-01 -1.8307809531688690e-01</leafValues></_>
        <_>
          <internalNodes>
            0 -1 161 1.4654906699433923e-03</internalNodes>
          <leafValues>
            -1.8356007337570190e-01 5.5986762046813965e-01</leafValues></_>
        <_>
          <internalNodes>
            0 -1 127 -8.3567565307021141e-03</internalNodes>
          <leafValues>
            4.3458533287048340e-01 -1.4979033172130585e-01</leafValues></_>
        <_>
          <internalNodes>
            0 -1 124 2.0903401076793671e-02</internalNodes>
          <leafValues>
            -1.0598462074995041e-01 6.0898882150650024e-01</leafValues></_>
        <_>
          <internalNodes>
            0 -1 170 -6.3007739372551441e-03</internalNodes>
          <leafValues>
            5.1561224460601807e-01 -1.2010887265205383e-01</leafValues></_>
        <_>
          <internalNodes>
            0 -1 35 3.6683832295238972e-03</internalNodes>
          <leafValues>
            9.1896325349807739e-02 -7.8169751167297363e-01</leafValues></_>
        <_>
          <internalNodes>
            0 -1 133 -2.7810186147689819e-03</internalNodes>
          <leafValues>
            3.3362483978271484e-01 -2.1758534014225006e-01</leafValues></_>
        <_>
          <internalNodes>
            0 -1 132 -1.1390223517082632e-04</internalNodes>
          <leafValues>
            -3.5103201866149902e-01 1.9239178299903870e-01</leafValues></_>
        <_>
          <internalNodes>
            0 -1 91 1.8079229630529881e-03</internalNodes>
          <leafValues>
            -2.0362965762615204e-01 3.5828545689582825e-01</leafValues></_>
        <_>
          <internalNodes>
            0 -1 166 1.0755939409136772e-02</internalNodes>
          <leafValues>
            -1.1983335763216019e-01 5.3740471601486206e-01</leafValues></_>
        <_>
          <internalNodes>
            0 -1 79 9.2618409544229507e-03</internalNodes>
          <leafValues>
            -7.7012687921524048e-02 7.3064774274826050e-01</leafValues></_>
        <_>
          <internalNodes>
            0 -1 30 -7.4486909434199333e-03</internalNodes>
          <leafValues>
            5.0367909669876099e-01 -1.2246209383010864e-01</leafValues></_>
        <_>
          <internalNodes>
            0 -1 22 6.6732720006257296e-04</internalNodes>
          <leafValues>
            -1.5199622511863708e-01 4.1333121061325073e-01</leafValues></_>
        <_>
          <internalNodes>
            0 -1 134 7.1639902889728546e-02</internalNodes>
          <leafValues>
            1.5016958117485046e-01 -4.5279839634895325e-01</leafValues></_></weakClassifiers></_>
    <!-- stage 5 -->
    <_>
      <maxWeakCount>26</maxWeakCount>
      <stageThreshold>-8.0640709400177002e-01</stageThreshold>
      <weakClassifiers>
        <_>
          <internalNodes>
            0 -1 71 4.3689133599400520e-03</internalNodes>
          <leafValues>
            1.1262798309326172e-01 7.4522292613983154e-01</leafValues></_>
        <_>
          <internalNodes>
            0 -1 165 2.8126209508627653e-03</internalNodes>
          <leafValues>
            1.2933349609375000e-01 -8.2692533731460571e-01</leafValues></_>
        <_>
          <internalNodes>
            0 -1 24 -3.9534713141620159e-03</internalNodes>
          <leafValues>
            3.9749726653099060e-01 -1.8262790143489838e-01</leafValues></_>
        <_>
          <internalNodes>
            0 -1 112 1.9634878844954073e-04</internalNodes>
          <leafValues>
            1.2696799635887146e-01 -5.0815004110336304e-01</leafValues></_>
        <_>
          <internalNodes>
            0 -1 112 -1.9478684407658875e-05</internalNodes>
          <leafValues>
            -3.7600412964820862e-01 2.2614178061485291e-01</leafValues></_>
        <_>
          <internalNodes>
            0 -1 15 -8.6734239012002945e-03</internalNodes>
          <leafValues>
            4.6198537945747375e-01 -1.5800307691097260e-01</leafValues></_>
        <_>
          <internalNodes>
            0 -1 26 -1.1337783187627792e-02</internalNodes>
          <leafValues>
            4.8224854469299316e-01 -1.5976716578006744e-01</leafValues></_>
        <_>
          <internalNodes>
            0 -1 2 1.0106174275279045e-02</internalNodes>
          <leafValues>
            -1.1366227269172668e-01 4.5211941003799438e-01</leafValues></_>
        <_>
          <internalNodes>
            0 -1 145 7.7849708031862974e-04</internalNodes>
          <leafValues>
            -1.1355915665626526e-01 4.6225470304489136e-01</leafValues></_>
        <_>
          <internalNodes>
            0 -1 167 -1.2263730168342590e-03</internalNodes>
          <leafValues>
            -6.1391061544418335e-01 9.1103136539459229e-02</leafValues></_>
        <_>
          <internalNodes>
            0 -1 80 1.4566521160304546e-02</internalNodes>
          <leafValues>
            -1.2789781391620636e-01 4.3544200062751770e-01</leafValues></_>
        <_>
          <internalNodes>
            0 -1 82 3.3337685745209455e-03</internalNodes>
          <leafValues>
            -1.6105695068836212e-01 4.3293502926826477e-01</leafValues></_>
        <_>
          <internalNodes>
            0 -1 154 9.7030587494373322e-04</internalNodes>
          <leafValues>
            1.8627817928791046e-01 -3.3941081166267395e-01</leafValues></_>
        <_>
          <internalNodes>
            0 -1 48 -1.1137009132653475e-03</internalNodes>
          <leafValues>
            3.6274975538253784e-01 -1.7086550593376160e-01</leafValues></_>
        <_>
          <internalNodes>
            0 -1 45 9.0625528246164322e-03</internalNodes>
          <leafValues>
            -6.5259985625743866e-02 7.3151218891143799e-01</leafValues></_>
        <_>
          <internalNodes>
            0 -1 152 -3.4729488193988800e-02</internalNodes>
          <leafValues>
            4.1167524456977844e-01 -1.4624595642089844e-01</leafValues></_>
        <_>
          <internalNodes>
            0 -1 63 1.1647557839751244e-02</internalNodes>
          <leafValues>
            -1.1537680029869080e-01 4.8408049345016479e-01</leafValues></_>
        <_>
          <internalNodes>
            0 -1 65 -1.9004212226718664e-03</internalNodes>
          <leafValues>
            4.1639181971549988e-01 -1.9484500586986542e-01</leafValues></_>
        <_>
          <internalNodes>
            0 -1 53 4.1182404384016991e-03</internalNodes>
          <leafValues>
            1.0647960007190704e-01 -6.4345061779022217e-01</leafValues></_>
        <_>
          <internalNodes>
            0 -1 132 -3.8313759432639927e-05</internalNodes>
          <leafValues>
            -3.0669647455215454e-01 1.9220939278602600e-01</leafValues></_>
        <_>
          <internalNodes>
            0 -1 95 -6.2204082496464252e-04</internalNodes>
          <leafValues>
            2.6972362399101257e-01 -2.1780008077621460e-01</leafValues></_>
        <_>
          <internalNodes>
            0 -1 71 -5.2031995728611946e-03</internalNodes>
          <leafValues>
            4.6556305885314941e-01 -1.2264891713857651e-01</leafValues></_>
        <_>
          <internalNodes>
            0 -1 112 3.9373102481476963e-05</internalNodes>
          <leafValues>
            2.1425746381282806e-01 -2.9103022813796997e-01</leafValues></_>
        <_>
          <internalNodes>
            0 -1 87 6.2063252553343773e-03</internalNodes>
          <leafValues>
            -1.3369581103324890e-01 5.1261949539184570e-01</leafValues></_>
        <_>
          <internalNodes>
            0 -1 151 -2.1593824494630098e-03</internalNodes>
          <leafValues>
            4.8376971483230591e-01 -1.3549654185771942e-01</leafValues></_>
        <_>
          <internalNodes>
            0 -1 40 1.1999127455055714e-03</internalNodes>
          <leafValues>
            1.3356944918632507e-01 -5.6953763961791992e-01</leafValues></_></weakClassifiers></_>
    <!-- stage 6 -->
    <_>
      <maxWeakCount>22</maxWeakCount>
      <stageThreshold>-7.8459197282791138e-01</stageThreshold>
      <weakClassifiers>
        <_>
          <internalNodes>
            0 -1 114 -2.3043202236294746e-04</internalNodes>
          <leafValues>
            -2.3127035796642303e-01 4.9952059984207153e-01</leafValues></_>
        <_>
          <internalNodes>
            0 -1 99 1.4473870396614075e-03</internalNodes>
          <leafValues>
            1.5961256623268127e-01 -5.8321654796600342e-01</leafValues></_>
        <_>
          <internalNodes>
            0 -1 73 2.2362271323800087e-02</internalNodes>
          <leafValues>
            -1.2731610238552094e-01 5.6140631437301636e-01</leafValues></_>
        <_>
          <internalNodes>
            0 -1 107 -6.0038520023226738e-03</internalNodes>
          <leafValues>
            5.1835757493972778e-01 -1.2204242497682571e-01</leafValues></_>
        <_>
          <internalNodes>
            0 -1 85 -7.8218579292297363e-03</internalNodes>
          <leafValues>
            4.1288793087005615e-01 -1.8373109400272369e-01</leafValues></_>
        <_>
          <internalNodes>
            0 -1 84 -1.4228531159460545e-02</internalNodes>
          <leafValues>
            4.8236125707626343e-01 -1.3704833388328552e-01</leafValues></_>
        <_>
          <internalNodes>
            0 -1 54 4.8790662549436092e-03</internalNodes>
          <leafValues>
            1.3330873847007751e-01 -5.8998966217041016e-01</leafValues></_>
        <_>
          <internalNodes>
            0 -1 90 1.5463825548067689e-04</internalNodes>
          <leafValues>
            1.4054550230503082e-01 -3.9228302240371704e-01</leafValues></_>
        <_>
          <internalNodes>
            0 -1 90 -3.8118407246656716e-05</internalNodes>
          <leafValues>
            -3.6598515510559082e-01 1.9185362756252289e-01</leafValues></_>
        <_>
          <internalNodes>
            0 -1 12 -3.0112173408269882e-02</internalNodes>
          <leafValues>
            5.2836620807647705e-01 -1.1623772233724594e-01</leafValues></_>
        <_>
          <internalNodes>
            0 -1 78 -3.2921711681410670e-04</internalNodes>
          <leafValues>
            -3.4633716940879822e-01 1.8495303392410278e-01</leafValues></_>
        <_>
          <internalNodes>
            0 -1 83 3.5390537232160568e-03</internalNodes>
          <leafValues>
            -1.1418785154819489e-01 5.8062142133712769e-01</leafValues></_>
        <_>
          <internalNodes>
            0 -1 52 -4.0978658944368362e-03</internalNodes>
          <leafValues>
            -6.0942763090133667e-01 1.2902508676052094e-01</leafValues></_>
        <_>
          <internalNodes>
            0 -1 123 -2.8441275935620070e-03</internalNodes>
          <leafValues>
            3.8437193632125854e-01 -1.6500435769557953e-01</leafValues></_>
        <_>
          <internalNodes>
            0 -1 126 -2.6968577876687050e-03</internalNodes>
          <leafValues>
            4.9761536717414856e-01 -1.5600070357322693e-01</leafValues></_>
        <_>
          <internalNodes>
            0 -1 74 -5.5136829614639282e-02</internalNodes>
          <leafValues>
            -7.2739940881729126e-01 1.1222010850906372e-01</leafValues></_>
        <_>
          <internalNodes>
            0 -1 121 7.8135192394256592e-02</internalNodes>
          <leafValues>
            1.0492399334907532e-01 -4.9049305915832520e-01</leafValues></_>
        <_>
          <internalNodes>
            0 -1 139 2.6610624045133591e-03</internalNodes>
          <leafValues>
            -1.7691218852996826e-01 3.6689189076423645e-01</leafValues></_>
        <_>
          <internalNodes>
            0 -1 163 -2.9546516016125679e-03</internalNodes>
          <leafValues>
            -6.8182104825973511e-01 1.0161702334880829e-01</leafValues></_>
        <_>
          <internalNodes>
            0 -1 172 -8.1329308450222015e-03</internalNodes>
          <leafValues>
            4.4275221228599548e-01 -1.4425396919250488e-01</leafValues></_>
        <_>
          <internalNodes>
            0 -1 3 1.6970215365290642e-03</internalNodes>
          <leafValues>
            1.0764160752296448e-01 -6.1036950349807739e-01</leafValues></_>
        <_>
          <internalNodes>
            0 -1 110 4.7925678081810474e-03</internalNodes>
          <leafValues>
            -1.4416240155696869e-01 4.2380744218826294e-01</leafValues></_></weakClassifiers></_>
    <!-- stage 7 -->
    <_>
      <maxWeakCount>21</maxWeakCount>
      <stageThreshold>-6.0030138492584229e-01</stageThreshold>
      <weakClassifiers>
        <_>
          <internalNodes>
            0 -1 132 9.7523225122131407e-05</internalNodes>
          <leafValues>
            4.8338082432746887e-01 -1.9865319132804871e-01</leafValues></_>
        <_>
          <internalNodes>
            0 -1 132 -7.7791133662685752e-05</internalNodes>
          <leafValues>
            -3.5412669181823730e-01 2.4773944914340973e-01</leafValues></_>
        <_>
          <internalNodes>
            0 -1 49 1.0688337497413158e-02</internalNodes>
          <leafValues>
            -2.2456648945808411e-01 4.4878977537155151e-01</leafValues></_>
        <_>
          <internalNodes>
            0 -1 111 2.9850481078028679e-03</internalNodes>
          <leafValues>
            -1.8409553170204163e-01 3.7183895707130432e-01</leafValues></_>
        <_>
          <internalNodes>
            0 -1 90 2.7697480982169509e-04</internalNodes>
          <leafValues>
            1.1502414941787720e-01 -4.1524022817611694e-01</leafValues></_>
        <_>
          <internalNodes>
            0 -1 90 -2.9970350442454219e-04</internalNodes>
          <leafValues>
            -4.9325898289680481e-01 1.2115047127008438e-01</leafValues></_>
        <_>
          <internalNodes>
            0 -1 70 -1.4051489997655153e-03</internalNodes>
          <leafValues>
            4.1534873843193054e-01 -1.7246218025684357e-01</leafValues></_>
        <_>
          <internalNodes>
            0 -1 64 9.4330534338951111e-03</internalNodes>
          <leafValues>
            -1.7668843269348145e-01 3.5032904148101807e-01</leafValues></_>
        <_>
          <internalNodes>
            0 -1 115 -2.9976181685924530e-03</internalNodes>
          <leafValues>
            -9.0033131837844849e-01 8.1225015223026276e-02</leafValues></_>
        <_>
          <internalNodes>
            0 -1 56 -2.6283821091055870e-02</internalNodes>
          <leafValues>
            3.1018683314323425e-01 -2.0142734050750732e-01</leafValues></_>
        <_>
          <internalNodes>
            0 -1 164 -1.7476691864430904e-03</internalNodes>
          <leafValues>
            -6.7919331789016724e-01 9.3710422515869141e-02</leafValues></_>
        <_>
          <internalNodes>
            0 -1 39 4.4621702283620834e-02</internalNodes>
          <leafValues>
            7.0496387779712677e-02 -7.4464631080627441e-01</leafValues></_>
        <_>
          <internalNodes>
            0 -1 41 -1.8337775254622102e-03</internalNodes>
          <leafValues>
            -5.8958429098129272e-01 8.4948442876338959e-02</leafValues></_>
        <_>
          <internalNodes>
            0 -1 23 -7.2197383269667625e-04</internalNodes>
          <leafValues>
            3.5426262021064758e-01 -1.6581343114376068e-01</leafValues></_>
        <_>
          <internalNodes>
            0 -1 137 -4.9334308132529259e-03</internalNodes>
          <leafValues>
            4.2759835720062256e-01 -1.3694117963314056e-01</leafValues></_>
        <_>
          <internalNodes>
            0 -1 5 -2.7697042096406221e-03</internalNodes>
          <leafValues>
            3.4232190251350403e-01 -1.7614726722240448e-01</leafValues></_>
        <_>
          <internalNodes>
            0 -1 21 5.7955406373366714e-04</internalNodes>
          <leafValues>
            -1.7667938768863678e-01 3.2433152198791504e-01</leafValues></_>
        <_>
          <internalNodes>
            0 -1 18 -1.1218238621950150e-02</internalNodes>
          <leafValues>
            4.8840385675430298e-01 -1.4684562385082245e-01</leafValues></_>
        <_>
          <internalNodes>
            0 -1 98 -3.0987831996753812e-04</internalNodes>
          <leafValues>
            -4.0644302964210510e-01 1.5528632700443268e-01</leafValues></_>
        <_>
          <internalNodes>
            0 -1 98 2.7052516816183925e-04</internalNodes>
          <leafValues>
            1.7001856863498688e-01 -4.4427484273910522e-01</leafValues></_>
        <_>
          <internalNodes>
            0 -1 67 -1.1433050036430359e-02</internalNodes>
          <leafValues>
            3.9808052778244019e-01 -1.6507974267005920e-01</leafValues></_></weakClassifiers></_>
    <!-- stage 8 -->
    <_>
      <maxWeakCount>25</maxWeakCount>
      <stageThreshold>-7.2280132770538330e-01</stageThreshold>
      <weakClassifiers>
        <_>
          <internalNodes>
            0 -1 98 -4.6351185301318765e-04</internalNodes>
          <leafValues>
            -1.9230769574642181e-01 4.5871558785438538e-01</leafValues></_>
        <_>
          <internalNodes>
            0 -1 162 -2.7970708906650543e-03</internalNodes>
          <leafValues>
            4.5687240362167358e-01 -1.6384984552860260e-01</leafValues></_>
        <_>
          <internalNodes>
            0 -1 98 2.8910441324114799e-04</internalNodes>
          <leafValues>
            1.7403751611709595e-01 -4.9177646636962891e-01</leafValues></_>
        <_>
          <internalNodes>
            0 -1 60 -4.1019967757165432e-03</internalNodes>
          <leafValues>
            4.3169099092483521e-01 -1.4460343122482300e-01</leafValues></_>
        <_>
          <internalNodes>
            0 -1 81 2.3077020421624184e-02</internalNodes>
          <leafValues>
            -1.5297423303127289e-01 5.3169053792953491e-01</leafValues></_>
        <_>
          <internalNodes>
            0 -1 14 -5.5898460559546947e-03</internalNodes>
          <leafValues>
            3.2795736193656921e-01 -1.6967144608497620e-01</leafValues></_>
        <_>
          <internalNodes>
            0 -1 150 -3.4448022488504648e-03</internalNodes>
          <leafValues>
            -6.2679541110992432e-01 8.8728800415992737e-02</leafValues></_>
        <_>
          <internalNodes>
            0 -1 68 -2.9365899972617626e-03</internalNodes>
          <leafValues>
            4.2684355378150940e-01 -1.3007520139217377e-01</leafValues></_>
        <_>
          <internalNodes>
            0 -1 106 7.6412549242377281e-03</internalNodes>
          <leafValues>
            -1.4958105981349945e-01 3.5804191231727600e-01</leafValues></_>
        <_>
          <internalNodes>
            0 -1 108 -6.9684111513197422e-03</internalNodes>
          <leafValues>
            4.0135806798934937e-01 -1.3839963078498840e-01</leafValues></_>
        <_>
          <internalNodes>
            0 -1 1 2.9039710760116577e-02</internalNodes>
          <leafValues>
            -1.1776431649923325e-01 4.5774462819099426e-01</leafValues></_>
        <_>
          <internalNodes>
            0 -1 16 -3.6347392015159130e-03</internalNodes>
          <leafValues>
            3.4159189462661743e-01 -1.6195729374885559e-01</leafValues></_>
        <_>
          <internalNodes>
            0 -1 144 -1.9228747114539146e-02</internalNodes>
          <leafValues>
            5.5668962001800537e-01 -1.0423650592565536e-01</leafValues></_>
        <_>
          <internalNodes>
            0 -1 66 -3.9523694431409240e-04</internalNodes>
          <leafValues>
            -3.9309772849082947e-01 1.6050815582275391e-01</leafValues></_>
        <_>
          <internalNodes>
            0 -1 42 9.7385875880718231e-02</internalNodes>
          <leafValues>
            8.5120253264904022e-02 -6.5741884708404541e-01</leafValues></_>
        <_>
          <internalNodes>
            0 -1 90 1.5266816262737848e-05</internalNodes>
          <leafValues>
            1.9589485228061676e-01 -2.9671683907508850e-01</leafValues></_>
        <_>
          <internalNodes>
            0 -1 33 -7.1930602192878723e-02</internalNodes>
          <leafValues>
            -7.3883616924285889e-01 8.0091841518878937e-02</leafValues></_>
        <_>
          <internalNodes>
            0 -1 104 1.7780628986656666e-03</internalNodes>
          <leafValues>
            -1.7648868262767792e-01 3.1851488351821899e-01</leafValues></_>
        <_>
          <internalNodes>
            0 -1 102 -5.7491697371006012e-03</internalNodes>
          <leafValues>
            3.8585156202316284e-01 -1.5620619058609009e-01</leafValues></_>
        <_>
          <internalNodes>
            0 -1 13 -1.1790874414145947e-02</internalNodes>
          <leafValues>
            -6.6070151329040527e-01 9.6832580864429474e-02</leafValues></_>
        <_>
          <internalNodes>
            0 -1 90 -9.1052359493914992e-05</internalNodes>
          <leafValues>
            -4.0338709950447083e-01 1.3364933431148529e-01</leafValues></_>
        <_>
          <internalNodes>
            0 -1 38 3.2297549769282341e-03</internalNodes>
          <leafValues>
            6.8625479936599731e-02 -7.0210963487625122e-01</leafValues></_>
        <_>
          <internalNodes>
            0 -1 143 9.8987144883722067e-04</internalNodes>
          <leafValues>
            -2.1310041844844818e-01 2.8611823916435242e-01</leafValues></_>
        <_>
          <internalNodes>
            0 -1 125 -1.6784323379397392e-03</internalNodes>
          <leafValues>
            3.0991294980049133e-01 -1.6819255053997040e-01</leafValues></_>
        <_>
          <internalNodes>
            0 -1 120 -5.5383211001753807e-03</internalNodes>
          <leafValues>
            3.9663273096084595e-01 -1.4177703857421875e-01</leafValues></_></weakClassifiers></_>
    <!-- stage 9 -->
    <_>
      <maxWeakCount>20</maxWeakCount>
      <stageThreshold>-5.4525941610336304e-01</stageThreshold>
      <weakClassifiers>
        <_>
          <internalNodes>
            0 -1 131 -4.4597772648558021e-04</internalNodes>
          <leafValues>
            -3.3678755164146423e-01 4.4511666893959045e-01</leafValues></_>
        <_>
          <internalNodes>
            0 -1 61 -5.0788600929081440e-03</internalNodes>
          <leafValues>
            4.0509933233261108e-01 -1.3872778415679932e-01</leafValues></_>
        <_>
          <internalNodes>
            0 -1 98 -2.1353238844312727e-04</internalNodes>
          <leafValues>
            -3.9604187011718750e-01 1.5689249336719513e-01</leafValues></_>
        <_>
          <internalNodes>
            0 -1 98 1.6573410539422184e-04</internalNodes>
          <leafValues>
            1.8869292736053467e-01 -4.5596677064895630e-01</leafValues></_>
        <_>
          <internalNodes>
            0 -1 11 1.9115835428237915e-02</internalNodes>
          <leafValues>
            -1.3045786321163177e-01 4.9204638600349426e-01</leafValues></_>
        <_>
          <internalNodes>
            0 -1 86 2.2189533337950706e-02</internalNodes>
          <leafValues>
            -1.2615941464900970e-01 5.7293790578842163e-01</leafValues></_>
        <_>
          <internalNodes>
            0 -1 36 -1.1466655880212784e-02</internalNodes>
          <leafValues>
            -5.7345795631408691e-01 1.0402351617813110e-01</leafValues></_>
        <_>
          <internalNodes>
            0 -1 51 1.0572222992777824e-02</internalNodes>
          <leafValues>
            -1.1944660544395447e-01 4.7749111056327820e-01</leafValues></_>
        <_>
          <internalNodes>
            0 -1 141 -3.2964553683996201e-03</internalNodes>
          <leafValues>
            4.4676786661148071e-01 -1.2290830165147781e-01</leafValues></_>
        <_>
          <internalNodes>
            0 -1 118 7.4508471880108118e-04</internalNodes>
          <leafValues>
            -1.8281422555446625e-01 3.1041565537452698e-01</leafValues></_>
        <_>
          <internalNodes>
            0 -1 119 -1.1570672504603863e-03</internalNodes>
          <leafValues>
            -4.7675931453704834e-01 1.3099412620067596e-01</leafValues></_>
        <_>
          <internalNodes>
            0 -1 122 4.3769050389528275e-03</internalNodes>
          <leafValues>
            -1.4280693233013153e-01 4.1069489717483521e-01</leafValues></_>
        <_>
          <internalNodes>
            0 -1 28 4.6100285835564137e-03</internalNodes>
          <leafValues>
            -1.3137735426425934e-01 4.3184322118759155e-01</leafValues></_>
        <_>
          <internalNodes>
            0 -1 100 5.3556766360998154e-03</internalNodes>
          <leafValues>
            -1.5523175895214081e-01 3.8706728816032410e-01</leafValues></_>
        <_>
          <internalNodes>
            0 -1 115 -1.7199353314936161e-03</internalNodes>
          <leafValues>
            -6.5925145149230957e-01 1.1309798806905746e-01</leafValues></_>
        <_>
          <internalNodes>
            0 -1 89 -4.0627242997288704e-03</internalNodes>
          <leafValues>
            -8.3531540632247925e-01 5.3297020494937897e-02</leafValues></_>
        <_>
          <internalNodes>
            0 -1 148 -4.2984969913959503e-03</internalNodes>
          <leafValues>
            -7.9625952243804932e-01 4.6706121414899826e-02</leafValues></_>
        <_>
          <internalNodes>
            0 -1 27 -2.1164307370781898e-02</internalNodes>
          <leafValues>
            4.7129449248313904e-01 -1.1322802305221558e-01</leafValues></_>
        <_>
          <internalNodes>
            0 -1 31 1.1892997659742832e-02</internalNodes>
          <leafValues>
            -1.1082141846418381e-01 5.6826615333557129e-01</leafValues></_>
        <_>
          <internalNodes>
            0 -1 53 3.1146323308348656e-03</internalNodes>
          <leafValues>
            1.1461869627237320e-01 -5.0001317262649536e-01</leafValues></_></weakClassifiers></_></stages>
  <features>
    <_>
      <rects>
        <_>
          0 1 4 17 -1.</_>
        <_>
          2 1 2 17 2.</_></rects>
      <tilted>0</tilted></_>
    <_>
      <rects>
        <_>
          0 23 4 8 -1.</_>
        <_>
          2 23 2 8 2.</_></rects>
      <tilted>0</tilted></_>
    <_>
      <rects>
        <_>
          0 27 4 3 -1.</_>
        <_>
          2 27 2 3 2.</_></rects>
      <tilted>0</tilted></_>
    <_>
      <rects>
        <_>
          1 0 1 2 -1.</_>
        <_>
          1 1 1 1 2.</_></rects>
      <tilted>0</tilted></_>
    <_>
      <rects>
        <_>
          1 1 3 30 -1.</_>
        <_>
          2 1 1 30 3.</_></rects>
      <tilted>0</tilted></_>
    <_>
      <rects>
        <_>
          1 2 6 1 -1.</_>
        <_>
          3 2 2 1 3.</_></rects>
      <tilted>0</tilted></_>
    <_>
      <rects>
        <_>
          1 8 6 3 -1.</_>
        <_>
          3 8 2 3 3.</_></rects>
      <tilted>0</tilted></_>
    <_>
      <rects>
        <_>
          1 10 4 9 -1.</_>
        <_>
          3 10 2 9 2.</_></rects>
      <tilted>0</tilted></_>
    <_>
      <rects>
        <_>
          1 14 3 4 -1.</_>
        <_>
          2 14 1 4 3.</_></rects>
      <tilted>0</tilted></_>
    <_>
      <rects>
        <_>
          1 16 3 10 -1.</_>
        <_>
          2 16 1 10 3.</_></rects>
      <tilted>0</tilted></_>
    <_>
      <rects>
        <_>
          1 17 3 3 -1.</_>
        <_>
          2 17 1 3 3.</_></rects>
      <tilted>0</tilted></_>
    <_>
      <rects>
        <_>
          1 24 6 6 -1.</_>
        <_>
          1 24 3 3 2.</_>
        <_>
          4 27 3 3 2.</_></rects>
      <tilted>0</tilted></_>
    <_>
      <rects>
        <_>
          2 4 1 22 -1.</_>
        <_>
          2 15 1 11 2.</_></rects>
      <tilted>0</tilted></_>
    <_>
      <rects>
        <_>
          2 4 11 3 -1.</_>
        <_>
          2 5 11 1 3.</_></rects>
      <tilted>0</tilted></_>
    <_>
      <rects>
        <_>
          2 6 3 6 -1.</_>
        <_>
          3 6 1 6 3.</_></rects>
      <tilted>0</tilted></_>
    <_>
      <rects>
        <_>
          2 8 3 6 -1.</_>
        <_>
          3 8 1 6 3.</_></rects>
      <tilted>0</tilted></_>
    <_>
      <rects>
        <_>
          2 9 2 10 -1.</_>
        <_>
          2 9 1 5 2.</_>
        <_>
          3 14 1 5 2.</_></rects>
      <tilted>0</tilted></_>
    <_>
      <rects>
        <_>
          2 11 2 8 -1.</_>
        <_>
          3 11 1 8 2.</_></rects>
      <tilted>0</tilted></_>
    <_>
      <rects>
        <_>
          2 13 2 8 -1.</_>
        <_>
          3 13 1 8 2.</_></rects>
      <tilted>0</tilted></_>
    <_>
      <rects>
        <_>
          2 14 2 2 -1.</_>
        <_>
          3 14 1 2 2.</_></rects>
      <tilted>0</tilted></_>
    <_>
      <rects>
        <_>
          2 14 2 10 -1.</_>
        <_>
          2 14 1 5 2.</_>
        <_>
          3 19 1 5 2.</_></rects>
      <tilted>0</tilted></_>
    <_>
      <rects>
        <_>
          2 16 2 1 -1.</_>
        <_>
          3 16 1 1 2.</_></rects>
      <tilted>0</tilted></_>
    <_>
      <rects>
        <_>
          2 28 2 1 -1.</_>
        <_>
          3 28 1 1 2.</_></rects>
      <tilted>0</tilted></_>
    <_>
      <rects>
        <_>
          2 29 3 1 -1.</_>
        <_>
          3 29 1 1 3.</_></rects>
      <tilted>0</tilted></_>
    <_>
      <rects>
        <_>
          2 30 8 2 -1.</_>
        <_>
          2 30 4 1 2.</_>
        <_>
          6 31 4 1 2.</_></rects>
      <tilted>0</tilted></_>
    <_>
      <rects>
        <_>
          3 0 4 8 -1.</_>
        <_>
          3 0 2 4 2.</_>
        <_>
          5 4 2 4 2.</_></rects>
      <tilted>0</tilted></_>
    <_>
      <rects>
        <_>
          3 6 3 5 -1.</_>
        <_>
          4 6 1 5 3.</_></rects>
      <tilted>0</tilted></_>
    <_>
      <rects>
        <_>
          3 6 2 20 -1.</_>
        <_>
          3 6 1 10 2.</_>
        <_>
          4 16 1 10 2.</_></rects>
      <tilted>0</tilted></_>
    <_>
      <rects>
        <_>
          3 6 6 1 -1.</_>
        <_>
          5 6 2 1 3.</_></rects>
      <tilted>0</tilted></_>
    <_>
      <rects>
        <_>
          3 7 2 7 -1.</_>
        <_>
          4 7 1 7 2.</_></rects>
      <tilted>0</tilted></_>
    <_>
      <rects>
        <_>
          3 7 4 2 -1.</_>
        <_>
          5 7 2 2 2.</_></rects>
      <tilted>0</tilted></_>
    <_>
      <rects>
        <_>
          3 10 2 10 -1.</_>
        <_>
          3 10 1 5 2.</_>
        <_>
          4 15 1 5 2.</_></rects>
      <tilted>0</tilted></_>
    <_>
      <rects>
        <_>
          3 11 2 3 -1.</_>
        <_>
          3 12 2 1 3.</_></rects>
      <tilted>0</tilted></_>
    <_>
      <rects>
        <_>
          3 11 8 7 -1.</_>
        <_>
          7 11 4 7 2.</_></rects>
      <tilted>0</tilted></_>
    <_>
      <rects>
        <_>
          3 12 3 10 -1.</_>
        <_>
          4 12 1 10 3.</_></rects>
      <tilted>0</tilted></_>
    <_>
      <rects>
        <_>
          3 12 2 3 -1.</_>
        <_>
          3 13 2 1 3.</_></rects>
      <tilted>0</tilted></_>
    <_>
      <rects>
        <_>
          3 12 2 9 -1.</_>
        <_>
          3 15 2 3 3.</_></rects>
      <tilted>0</tilted></_>
    <_>
      <rects>
        <_>
          3 13 3 9 -1.</_>
        <_>
          4 13 1 9 3.</_></rects>
      <tilted>0</tilted></_>
    <_>
      <rects>
        <_>
          3 16 2 3 -1.</_>
        <_>
          3 17 2 1 3.</_></rects>
      <tilted>0</tilted></_>
    <_>
      <rects>
        <_>
          3 16 8 4 -1.</_>
        <_>
          7 16 4 4 2.</_></rects>
      <tilted>0</tilted></_>
    <_>
      <rects>
        <_>
          3 17 1 3 -1.</_>
        <_>
          3 18 1 1 3.</_></rects>
      <tilted>0</tilted></_>
    <_>
      <rects>
        <_>
          3 17 2 2 -1.</_>
        <_>
          3 18 2 1 2.</_></rects>
      <tilted>0</tilted></_>
    <_>
      <rects>
        <_>
          3 17 7 14 -1.</_>
        <_>
          3 24 7 7 2.</_></rects>
      <tilted>0</tilted></_>
    <_>
      <rects>
        <_>
          3 18 2 3 -1.</_>
        <_>
          3 19 2 1 3.</_></rects>
      <tilted>0</tilted></_>
    <_>
      <rects>
        <_>
          3 19 3 4 -1.</_>
        <_>
          4 19 1 4 3.</_></rects>
      <tilted>0</tilted></_>
    <_>
      <rects>
        <_>
          3 21 2 3 -1.</_>
        <_>
          4 21 1 3 2.</_></rects>
      <tilted>0</tilted></_>
    <_>
      <rects>
        <_>
          3 22 3 4 -1.</_>
        <_>
          4 22 1 4 3.</_></rects>
      <tilted>0</tilted></_>
    <_>
      <rects>
        <_>
          3 22 6 4 -1.</_>
        <_>
          5 22 2 4 3.</_></rects>
      <tilted>0</tilted></_>
    <_>
      <rects>
        <_>
          4 0 2 2 -1.</_>
        <_>
          5 0 1 2 2.</_></rects>
      <tilted>0</tilted></_>
    <_>
      <rects>
        <_>
          4 0 8 4 -1.</_>
        <_>
          4 2 8 2 2.</_></rects>
      <tilted>0</tilted></_>
    <_>
      <rects>
        <_>
          4 2 5 30 -1.</_>
        <_>
          4 17 5 15 2.</_></rects>
      <tilted>0</tilted></_>
    <_>
      <rects>
        <_>
          4 4 2 14 -1.</_>
        <_>
          4 4 1 7 2.</_>
        <_>
          5 11 1 7 2.</_></rects>
      <tilted>0</tilted></_>
    <_>
      <rects>
        <_>
          4 11 1 6 -1.</_>
        <_>
          4 14 1 3 2.</_></rects>
      <tilted>0</tilted></_>
    <_>
      <rects>
        <_>
          4 12 1 6 -1.</_>
        <_>
          4 15 1 3 2.</_></rects>
      <tilted>0</tilted></_>
    <_>
      <rects>
        <_>
          4 12 1 8 -1.</_>
        <_>
          4 16 1 4 2.</_></rects>
      <tilted>0</tilted></_>
    <_>
      <rects>
        <_>
          4 13 1 6 -1.</_>
        <_>
          4 16 1 3 2.</_></rects>
      <tilted>0</tilted></_>
    <_>
      <rects>
        <_>
          4 13 6 14 -1.</_>
        <_>
          6 13 2 14 3.</_></rects>
      <tilted>0</tilted></_>
    <_>
      <rects>
        <_>
          4 14 1 4 -1.</_>
        <_>
          4 16 1 2 2.</_></rects>
      <tilted>0</tilted></_>
    <_>
      <rects>
        <_>
          4 14 2 4 -1.</_>
        <_>
          5 14 1 4 2.</_></rects>
      <tilted>0</tilted></_>
    <_>
      <rects>
        <_>
          4 15 2 1 -1.</_>
        <_>
          5 15 1 1 2.</_></rects>
      <tilted>0</tilted></_>
    <_>
      <rects>
        <_>
          4 16 2 2 -1.</_>
        <_>
          5 16 1 2 2.</_></rects>
      <tilted>0</tilted></_>
    <_>
      <rects>
        <_>
          4 16 2 4 -1.</_>
        <_>
          5 16 1 4 2.</_></rects>
      <tilted>0</tilted></_>
    <_>
      <rects>
        <_>
          4 16 2 8 -1.</_>
        <_>
          4 16 1 4 2.</_>
        <_>
          5 20 1 4 2.</_></rects>
      <tilted>0</tilted></_>
    <_>
      <rects>
        <_>
          4 16 2 10 -1.</_>
        <_>
          4 16 1 5 2.</_>
        <_>
          5 21 1 5 2.</_></rects>
      <tilted>0</tilted></_>
    <_>
      <rects>
        <_>
          4 23 6 3 -1.</_>
        <_>
          6 23 2 3 3.</_></rects>
      <tilted>0</tilted></_>
    <_>
      <rects>
        <_>
          4 24 2 3 -1.</_>
        <_>
          5 24 1 3 2.</_></rects>
      <tilted>0</tilted></_>
    <_>
      <rects>
        <_>
          4 26 1 3 -1.</_>
        <_>
          4 27 1 1 3.</_></rects>
      <tilted>0</tilted></_>
    <_>
      <rects>
        <_>
          4 28 7 4 -1.</_>
        <_>
          4 30 7 2 2.</_></rects>
      <tilted>0</tilted></_>
    <_>
      <rects>
        <_>
          4 30 4 2 -1.</_>
        <_>
          4 30 2 1 2.</_>
        <_>
          6 31 2 1 2.</_></rects>
      <tilted>0</tilted></_>
    <_>
      <rects>
        <_>
          5 0 1 2 -1.</_>
        <_>
          5 1 1 1 2.</_></rects>
      <tilted>0</tilted></_>
    <_>
      <rects>
        <_>
          5 0 2 2 -1.</_>
        <_>
          6 0 1 2 2.</_></rects>
      <tilted>0</tilted></_>
    <_>
      <rects>
        <_>
          5 0 4 2 -1.</_>
        <_>
          5 1 4 1 2.</_></rects>
      <tilted>0</tilted></_>
    <_>
      <rects>
        <_>
          5 0 4 3 -1.</_>
        <_>
          5 1 4 1 3.</_></rects>
      <tilted>0</tilted></_>
    <_>
      <rects>
        <_>
          5 0 4 6 -1.</_>
        <_>
          5 2 4 2 3.</_></rects>
      <tilted>0</tilted></_>
    <_>
      <rects>
        <_>
          5 1 3 14 -1.</_>
        <_>
          5 8 3 7 2.</_></rects>
      <tilted>0</tilted></_>
    <_>
      <rects>
        <_>
          5 2 2 1 -1.</_>
        <_>
          6 2 1 1 2.</_></rects>
      <tilted>0</tilted></_>
    <_>
      <rects>
        <_>
          5 2 4 30 -1.</_>
        <_>
          5 17 4 15 2.</_></rects>
      <tilted>0</tilted></_>
    <_>
      <rects>
        <_>
          5 3 2 1 -1.</_>
        <_>
          6 3 1 1 2.</_></rects>
      <tilted>0</tilted></_>
    <_>
      <rects>
        <_>
          5 3 3 1 -1.</_>
        <_>
          6 3 1 1 3.</_></rects>
      <tilted>0</tilted></_>
    <_>
      <rects>
        <_>
          5 6 3 3 -1.</_>
        <_>
          6 6 1 3 3.</_></rects>
      <tilted>0</tilted></_>
    <_>
      <rects>
        <_>
          5 8 2 12 -1.</_>
        <_>
          5 12 2 4 3.</_></rects>
      <tilted>0</tilted></_>
    <_>
      <rects>
        <_>
          5 11 2 12 -1.</_>
        <_>
          5 15 2 4 3.</_></rects>
      <tilted>0</tilted></_>
    <_>
      <rects>
        <_>
          5 13 1 6 -1.</_>
        <_>
          5 16 1 3 2.</_></rects>
      <tilted>0</tilted></_>
    <_>
      <rects>
        <_>
          5 14 1 4 -1.</_>
        <_>
          5 16 1 2 2.</_></rects>
      <tilted>0</tilted></_>
    <_>
      <rects>
        <_>
          5 14 4 6 -1.</_>
        <_>
          5 16 4 2 3.</_></rects>
      <tilted>0</tilted></_>
    <_>
      <rects>
        <_>
          5 16 4 6 -1.</_>
        <_>
          5 18 4 2 3.</_></rects>
      <tilted>0</tilted></_>
    <_>
      <rects>
        <_>
          5 23 4 8 -1.</_>
        <_>
          5 23 2 4 2.</_>
        <_>
          7 27 2 4 2.</_></rects>
      <tilted>0</tilted></_>
    <_>
      <rects>
        <_>
          5 25 4 4 -1.</_>
        <_>
          5 25 2 2 2.</_>
        <_>
          7 27 2 2 2.</_></rects>
      <tilted>0</tilted></_>
    <_>
      <rects>
        <_>
          5 28 2 2 -1.</_>
        <_>
          6 28 1 2 2.</_></rects>
      <tilted>0</tilted></_>
    <_>
      <rects>
        <_>
          5 28 2 3 -1.</_>
        <_>
          5 29 2 1 3.</_></rects>
      <tilted>0</tilted></_>
    <_>
      <rects>
        <_>
          5 29 2 1 -1.</_>
        <_>
          6 29 1 1 2.</_></rects>
      <tilted>0</tilted></_>
    <_>
      <rects>
        <_>
          5 30 6 2 -1.</_>
        <_>
          5 30 3 1 2.</_>
        <_>
          8 31 3 1 2.</_></rects>
      <tilted>0</tilted></_>
    <_>
      <rects>
        <_>
          5 30 4 2 -1.</_>
        <_>
          5 31 4 1 2.</_></rects>
      <tilted>0</tilted></_>
    <_>
      <rects>
        <_>
          6 0 1 2 -1.</_>
        <_>
          6 1 1 1 2.</_></rects>
      <tilted>0</tilted></_>
    <_>
      <rects>
        <_>
          6 0 2 2 -1.</_>
        <_>
          6 1 2 1 2.</_></rects>
      <tilted>0</tilted></_>
    <_>
      <rects>
        <_>
          6 0 4 2 -1.</_>
        <_>
          6 0 2 1 2.</_>
        <_>
          8 1 2 1 2.</_></rects>
      <tilted>0</tilted></_>
    <_>
      <rects>
        <_>
          6 0 3 2 -1.</_>
        <_>
          6 1 3 1 2.</_></rects>
      <tilted>0</tilted></_>
    <_>
      <rects>
        <_>
          6 0 6 2 -1.</_>
        <_>
          6 0 3 1 2.</_>
        <_>
          9 1 3 1 2.</_></rects>
      <tilted>0</tilted></_>
    <_>
      <rects>
        <_>
          6 2 2 1 -1.</_>
        <_>
          7 2 1 1 2.</_></rects>
      <tilted>0</tilted></_>
    <_>
      <rects>
        <_>
          6 2 2 2 -1.</_>
        <_>
          6 3 2 1 2.</_></rects>
      <tilted>0</tilted></_>
    <_>
      <rects>
        <_>
          6 3 3 5 -1.</_>
        <_>
          7 3 1 5 3.</_></rects>
      <tilted>0</tilted></_>
    <_>
      <rects>
        <_>
          6 7 6 4 -1.</_>
        <_>
          8 7 2 4 3.</_></rects>
      <tilted>0</tilted></_>
    <_>
      <rects>
        <_>
          6 9 1 9 -1.</_>
        <_>
          6 12 1 3 3.</_></rects>
      <tilted>0</tilted></_>
    <_>
      <rects>
        <_>
          6 9 2 9 -1.</_>
        <_>
          6 12 2 3 3.</_></rects>
      <tilted>0</tilted></_>
    <_>
      <rects>
        <_>
          6 10 1 6 -1.</_>
        <_>
          6 12 1 2 3.</_></rects>
      <tilted>0</tilted></_>
    <_>
      <rects>
        <_>
          6 10 3 6 -1.</_>
        <_>
          6 12 3 2 3.</_></rects>
      <tilted>0</tilted></_>
    <_>
      <rects>
        <_>
          6 17 2 9 -1.</_>
        <_>
          6 20 2 3 3.</_></rects>
      <tilted>0</tilted></_>
    <_>
      <rects>
        <_>
          6 18 2 4 -1.</_>
        <_>
          6 20 2 2 2.</_></rects>
      <tilted>0</tilted></_>
    <_>
      <rects>
        <_>
          6 18 2 6 -1.</_>
        <_>
          6 20 2 2 3.</_></rects>
      <tilted>0</tilted></_>
    <_>
      <rects>
        <_>
          6 20 2 9 -1.</_>
        <_>
          6 23 2 3 3.</_></rects>
      <tilted>0</tilted></_>
    <_>
      <rects>
        <_>
          6 23 2 4 -1.</_>
        <_>
          7 23 1 4 2.</_></rects>
      <tilted>0</tilted></_>
    <_>
      <rects>
        <_>
          6 25 2 4 -1.</_>
        <_>
          6 27 2 2 2.</_></rects>
      <tilted>0</tilted></_>
    <_>
      <rects>
        <_>
          6 29 2 1 -1.</_>
        <_>
          7 29 1 1 2.</_></rects>
      <tilted>0</tilted></_>
    <_>
      <rects>
        <_>
          6 29 1 2 -1.</_>
        <_>
          6 30 1 1 2.</_></rects>
      <tilted>0</tilted></_>
    <_>
      <rects>
        <_>
          6 29 3 1 -1.</_>
        <_>
          7 29 1 1 3.</_></rects>
      <tilted>0</tilted></_>
    <_>
      <rects>
        <_>
          6 29 2 2 -1.</_>
        <_>
          6 30 2 1 2.</_></rects>
      <tilted>0</tilted></_>
    <_>
      <rects>
        <_>
          6 29 2 3 -1.</_>
        <_>
          6 30 2 1 3.</_></rects>
      <tilted>0</tilted></_>
    <_>
      <rects>
        <_>
          6 30 2 2 -1.</_>
        <_>
          6 31 2 1 2.</_></rects>
      <tilted>0</tilted></_>
    <_>
      <rects>
        <_>
          7 0 1 2 -1.</_>
        <_>
          7 1 1 1 2.</_></rects>
      <tilted>0</tilted></_>
    <_>
      <rects>
        <_>
          7 2 2 1 -1.</_>
        <_>
          8 2 1 1 2.</_></rects>
      <tilted>0</tilted></_>
    <_>
      <rects>
        <_>
          7 2 6 1 -1.</_>
        <_>
          10 2 3 1 2.</_></rects>
      <tilted>0</tilted></_>
    <_>
      <rects>
        <_>
          7 2 4 28 -1.</_>
        <_>
          7 16 4 14 2.</_></rects>
      <tilted>0</tilted></_>
    <_>
      <rects>
        <_>
          7 6 3 2 -1.</_>
        <_>
          8 6 1 2 3.</_></rects>
      <tilted>0</tilted></_>
    <_>
      <rects>
        <_>
          7 6 1 6 -1.</_>
        <_>
          7 8 1 2 3.</_></rects>
      <tilted>0</tilted></_>
    <_>
      <rects>
        <_>
          7 6 3 14 -1.</_>
        <_>
          8 6 1 14 3.</_></rects>
      <tilted>0</tilted></_>
    <_>
      <rects>
        <_>
          7 7 1 6 -1.</_>
        <_>
          7 9 1 2 3.</_></rects>
      <tilted>0</tilted></_>
    <_>
      <rects>
        <_>
          7 8 1 4 -1.</_>
        <_>
          7 10 1 2 2.</_></rects>
      <tilted>0</tilted></_>
    <_>
      <rects>
        <_>
          7 12 3 7 -1.</_>
        <_>
          8 12 1 7 3.</_></rects>
      <tilted>0</tilted></_>
    <_>
      <rects>
        <_>
          7 24 1 6 -1.</_>
        <_>
          7 27 1 3 2.</_></rects>
      <tilted>0</tilted></_>
    <_>
      <rects>
        <_>
          7 27 4 4 -1.</_>
        <_>
          7 27 2 2 2.</_>
        <_>
          9 29 2 2 2.</_></rects>
      <tilted>0</tilted></_>
    <_>
      <rects>
        <_>
          7 28 1 2 -1.</_>
        <_>
          7 29 1 1 2.</_></rects>
      <tilted>0</tilted></_>
    <_>
      <rects>
        <_>
          7 28 1 3 -1.</_>
        <_>
          7 29 1 1 3.</_></rects>
      <tilted>0</tilted></_>
    <_>
      <rects>
        <_>
          7 29 2 1 -1.</_>
        <_>
          8 29 1 1 2.</_></rects>
      <tilted>0</tilted></_>
    <_>
      <rects>
        <_>
          7 30 4 2 -1.</_>
        <_>
          9 30 2 2 2.</_></rects>
      <tilted>0</tilted></_>
    <_>
      <rects>
        <_>
          8 0 4 30 -1.</_>
        <_>
          8 10 4 10 3.</_></rects>
      <tilted>0</tilted></_>
    <_>
      <rects>
        <_>
          8 6 2 2 -1.</_>
        <_>
          9 6 1 2 2.</_></rects>
      <tilted>0</tilted></_>
    <_>
      <rects>
        <_>
          8 7 3 2 -1.</_>
        <_>
          9 7 1 2 3.</_></rects>
      <tilted>0</tilted></_>
    <_>
      <rects>
        <_>
          8 9 2 8 -1.</_>
        <_>
          8 9 1 4 2.</_>
        <_>
          9 13 1 4 2.</_></rects>
      <tilted>0</tilted></_>
    <_>
      <rects>
        <_>
          8 14 2 3 -1.</_>
        <_>
          9 14 1 3 2.</_></rects>
      <tilted>0</tilted></_>
    <_>
      <rects>
        <_>
          8 14 1 6 -1.</_>
        <_>
          8 17 1 3 2.</_></rects>
      <tilted>0</tilted></_>
    <_>
      <rects>
        <_>
          8 14 2 4 -1.</_>
        <_>
          9 14 1 4 2.</_></rects>
      <tilted>0</tilted></_>
    <_>
      <rects>
        <_>
          8 15 1 6 -1.</_>
        <_>
          8 17 1 2 3.</_></rects>
      <tilted>0</tilted></_>
    <_>
      <rects>
        <_>
          8 21 3 4 -1.</_>
        <_>
          9 21 1 4 3.</_></rects>
      <tilted>0</tilted></_>
    <_>
      <rects>
        <_>
          8 23 2 6 -1.</_>
        <_>
          8 23 1 3 2.</_>
        <_>
          9 26 1 3 2.</_></rects>
      <tilted>0</tilted></_>
    <_>
      <rects>
        <_>
          8 24 4 8 -1.</_>
        <_>
          8 24 2 4 2.</_>
        <_>
          10 28 2 4 2.</_></rects>
      <tilted>0</tilted></_>
    <_>
      <rects>
        <_>
          9 1 2 1 -1.</_>
        <_>
          10 1 1 1 2.</_></rects>
      <tilted>0</tilted></_>
    <_>
      <rects>
        <_>
          9 4 2 22 -1.</_>
        <_>
          9 4 1 11 2.</_>
        <_>
          10 15 1 11 2.</_></rects>
      <tilted>0</tilted></_>
    <_>
      <rects>
        <_>
          9 10 2 6 -1.</_>
        <_>
          9 12 2 2 3.</_></rects>
      <tilted>0</tilted></_>
    <_>
      <rects>
        <_>
          9 12 2 3 -1.</_>
        <_>
          9 13 2 1 3.</_></rects>
      <tilted>0</tilted></_>
    <_>
      <rects>
        <_>
          9 13 2 8 -1.</_>
        <_>
          9 17 2 4 2.</_></rects>
      <tilted>0</tilted></_>
    <_>
      <rects>
        <_>
          9 17 2 3 -1.</_>
        <_>
          9 18 2 1 3.</_></rects>
      <tilted>0</tilted></_>
    <_>
      <rects>
        <_>
          9 31 3 1 -1.</_>
        <_>
          10 31 1 1 3.</_></rects>
      <tilted>0</tilted></_>
    <_>
      <rects>
        <_>
          10 3 4 17 -1.</_>
        <_>
          12 3 2 17 2.</_></rects>
      <tilted>0</tilted></_>
    <_>
      <rects>
        <_>
          10 11 2 5 -1.</_>
        <_>
          11 11 1 5 2.</_></rects>
      <tilted>0</tilted></_>
    <_>
      <rects>
        <_>
          10 12 3 3 -1.</_>
        <_>
          10 13 3 1 3.</_></rects>
      <tilted>0</tilted></_>
    <_>
      <rects>
        <_>
          10 13 3 6 -1.</_>
        <_>
          11 13 1 6 3.</_></rects>
      <tilted>0</tilted></_>
    <_>
      <rects>
        <_>
          10 13 2 8 -1.</_>
        <_>
          11 13 1 8 2.</_></rects>
      <tilted>0</tilted></_>
    <_>
      <rects>
        <_>
          10 14 3 3 -1.</_>
        <_>
          11 14 1 3 3.</_></rects>
      <tilted>0</tilted></_>
    <_>
      <rects>
        <_>
          10 14 2 4 -1.</_>
        <_>
          11 14 1 4 2.</_></rects>
      <tilted>0</tilted></_>
    <_>
      <rects>
        <_>
          10 14 3 5 -1.</_>
        <_>
          11 14 1 5 3.</_></rects>
      <tilted>0</tilted></_>
    <_>
      <rects>
        <_>
          10 14 3 7 -1.</_>
        <_>
          11 14 1 7 3.</_></rects>
      <tilted>0</tilted></_>
    <_>
      <rects>
        <_>
          10 15 2 1 -1.</_>
        <_>
          11 15 1 1 2.</_></rects>
      <tilted>0</tilted></_>
    <_>
      <rects>
        <_>
          10 15 2 2 -1.</_>
        <_>
          11 15 1 2 2.</_></rects>
      <tilted>0</tilted></_>
    <_>
      <rects>
        <_>
          10 15 2 3 -1.</_>
        <_>
          10 16 2 1 3.</_></rects>
      <tilted>0</tilted></_>
    <_>
      <rects>
        <_>
          10 16 1 3 -1.</_>
        <_>
          10 17 1 1 3.</_></rects>
      <tilted>0</tilted></_>
    <_>
      <rects>
        <_>
          10 17 1 3 -1.</_>
        <_>
          10 18 1 1 3.</_></rects>
      <tilted>0</tilted></_>
    <_>
      <rects>
        <_>
          10 17 3 4 -1.</_>
        <_>
          11 17 1 4 3.</_></rects>
      <tilted>0</tilted></_>
    <_>
      <rects>
        <_>
          10 26 1 3 -1.</_>
        <_>
          10 27 1 1 3.</_></rects>
      <tilted>0</tilted></_>
    <_>
      <rects>
        <_>
          10 28 4 1 -1.</_>
        <_>
          12 28 2 1 2.</_></rects>
      <tilted>0</tilted></_>
    <_>
      <rects>
        <_>
          11 9 3 2 -1.</_>
        <_>
          12 9 1 2 3.</_></rects>
      <tilted>0</tilted></_>
    <_>
      <rects>
        <_>
          11 17 2 10 -1.</_>
        <_>
          11 17 1 5 2.</_>
        <_>
          12 22 1 5 2.</_></rects>
      <tilted>0</tilted></_>
    <_>
      <rects>
        <_>
          12 0 2 11 -1.</_>
        <_>
          13 0 1 11 2.</_></rects>
      <tilted>0</tilted></_>
    <_>
      <rects>
        <_>
          12 24 2 8 -1.</_>
        <_>
          13 24 1 8 2.</_></rects>
      <tilted>0</tilted></_></features></cascade>
</opencv_storage>
