<?xml version="1.0"?>
<opencv_storage>
<stage9>
  <maxWeakCount>20</maxWeakCount>
  <stageThreshold>-5.4525941610336304e-01</stageThreshold>
  <weakClassifiers>
    <_>
      <internalNodes>
        0 -1 79823 -4.4597772648558021e-04</internalNodes>
      <leafValues>
        -3.3678755164146423e-01 4.4511666893959045e-01</leafValues></_>
    <_>
      <internalNodes>
        0 -1 55067 -5.0788600929081440e-03</internalNodes>
      <leafValues>
        4.0509933233261108e-01 -1.3872778415679932e-01</leafValues></_>
    <_>
      <internalNodes>
        0 -1 66919 -2.1353238844312727e-04</internalNodes>
      <leafValues>
        -3.9604187011718750e-01 1.5689249336719513e-01</leafValues></_>
    <_>
      <internalNodes>
        0 -1 66919 1.6573410539422184e-04</internalNodes>
      <leafValues>
        1.8869292736053467e-01 -4.5596677064895630e-01</leafValues></_>
    <_>
      <internalNodes>
        0 -1 25067 1.9115835428237915e-02</internalNodes>
      <leafValues>
        -1.3045786321163177e-01 4.9204638600349426e-01</leafValues></_>
    <_>
      <internalNodes>
        0 -1 65373 2.2189533337950706e-02</internalNodes>
      <leafValues>
        -1.2615941464900970e-01 5.7293790578842163e-01</leafValues></_>
    <_>
      <internalNodes>
        0 -1 43892 -1.1466655880212784e-02</internalNodes>
      <leafValues>
        -5.7345795631408691e-01 1.0402351617813110e-01</leafValues></_>
    <_>
      <internalNodes>
        0 -1 50086 1.0572222992777824e-02</internalNodes>
      <leafValues>
        -1.1944660544395447e-01 4.7749111056327820e-01</leafValues></_>
    <_>
      <internalNodes>
        0 -1 84183 -3.2964553683996201e-03</internalNodes>
      <leafValues>
        4.4676786661148071e-01 -1.2290830165147781e-01</leafValues></_>
    <_>
      <internalNodes>
        0 -1 73570 7.4508471880108118e-04</internalNodes>
      <leafValues>
        -1.8281422555446625e-01 3.1041565537452698e-01</leafValues></_>
    <_>
      <internalNodes>
        0 -1 74334 -1.1570672504603863e-03</internalNodes>
      <leafValues>
        -4.7675931453704834e-01 1.3099412620067596e-01</leafValues></_>
    <_>
      <internalNodes>
        0 -1 75730 4.3769050389528275e-03</internalNodes>
      <leafValues>
        -1.4280693233013153e-01 4.1069489717483521e-01</leafValues></_>
    <_>
      <internalNodes>
        0 -1 41174 4.6100285835564137e-03</internalNodes>
      <leafValues>
        -1.3137735426425934e-01 4.3184322118759155e-01</leafValues></_>
    <_>
      <internalNodes>
        0 -1 67381 5.3556766360998154e-03</internalNodes>
      <leafValues>
        -1.5523175895214081e-01 3.8706728816032410e-01</leafValues></_>
    <_>
      <internalNodes>
        0 -1 73511 -1.7199353314936161e-03</internalNodes>
      <leafValues>
        -6.5925145149230957e-01 1.1309798806905746e-01</leafValues></_>
    <_>
      <internalNodes>
        0 -1 65885 -4.0627242997288704e-03</internalNodes>
      <leafValues>
        -8.3531540632247925e-01 5.3297020494937897e-02</leafValues></_>
    <_>
      <internalNodes>
        0 -1 88482 -4.2984969913959503e-03</internalNodes>
      <leafValues>
        -7.9625952243804932e-01 4.6706121414899826e-02</leafValues></_>
    <_>
      <internalNodes>
        0 -1 41133 -2.1164307370781898e-02</internalNodes>
      <leafValues>
        4.7129449248313904e-01 -1.1322802305221558e-01</leafValues></_>
    <_>
      <internalNodes>
        0 -1 43003 1.1892997659742832e-02</internalNodes>
      <leafValues>
        -1.1082141846418381e-01 5.6826615333557129e-01</leafValues></_>
    <_>
      <internalNodes>
        0 -1 53701 3.1146323308348656e-03</internalNodes>
      <leafValues>
        1.1461869627237320e-01 -5.0001317262649536e-01</leafValues></_></weakClassifiers></stage9>
</opencv_storage>
