<?xml version="1.0"?>
<opencv_storage>
<stage1>
  <maxWeakCount>17</maxWeakCount>
  <stageThreshold>-7.1775317192077637e-01</stageThreshold>
  <weakClassifiers>
    <_>
      <internalNodes>
        0 -1 73501 2.2142443049233407e-04</internalNodes>
      <leafValues>
        5.2929687500000000e-01 -2.8220859169960022e-01</leafValues></_>
    <_>
      <internalNodes>
        0 -1 73501 -2.0846974803134799e-04</internalNodes>
      <leafValues>
        -6.0998904705047607e-01 3.2297170162200928e-01</leafValues></_>
    <_>
      <internalNodes>
        0 -1 66224 -2.9399003833532333e-03</internalNodes>
      <leafValues>
        5.1043570041656494e-01 -2.4358668923377991e-01</leafValues></_>
    <_>
      <internalNodes>
        0 -1 65994 -2.6884081307798624e-03</internalNodes>
      <leafValues>
        4.0076249837875366e-01 -2.1696518361568451e-01</leafValues></_>
    <_>
      <internalNodes>
        0 -1 66116 -1.2533287517726421e-03</internalNodes>
      <leafValues>
        4.2260980606079102e-01 -2.0182697474956512e-01</leafValues></_>
    <_>
      <internalNodes>
        0 -1 65932 -8.3162369264755398e-05</internalNodes>
      <leafValues>
        -3.6298716068267822e-01 2.0376406610012054e-01</leafValues></_>
    <_>
      <internalNodes>
        0 -1 65932 1.5464512398466468e-04</internalNodes>
      <leafValues>
        2.1261590719223022e-01 -4.4898480176925659e-01</leafValues></_>
    <_>
      <internalNodes>
        0 -1 37776 -1.0670751333236694e-02</internalNodes>
      <leafValues>
        4.8041796684265137e-01 -1.5618571639060974e-01</leafValues></_>
    <_>
      <internalNodes>
        0 -1 18943 -7.6727680861949921e-03</internalNodes>
      <leafValues>
        4.1299992799758911e-01 -2.0242610573768616e-01</leafValues></_>
    <_>
      <internalNodes>
        0 -1 46798 -6.5563330426812172e-03</internalNodes>
      <leafValues>
        4.8112720251083374e-01 -1.4245024323463440e-01</leafValues></_>
    <_>
      <internalNodes>
        0 -1 20065 3.3574983477592468e-02</internalNodes>
      <leafValues>
        -1.4572922885417938e-01 5.5324357748031616e-01</leafValues></_>
    <_>
      <internalNodes>
        0 -1 21888 6.8784486502408981e-03</internalNodes>
      <leafValues>
        -1.7957344651222229e-01 5.1291543245315552e-01</leafValues></_>
    <_>
      <internalNodes>
        0 -1 54071 4.1954750195145607e-03</internalNodes>
      <leafValues>
        1.3411580026149750e-01 -6.4184635877609253e-01</leafValues></_>
    <_>
      <internalNodes>
        0 -1 73511 1.7686596838757396e-03</internalNodes>
      <leafValues>
        7.0936098694801331e-02 -7.8895831108093262e-01</leafValues></_>
    <_>
      <internalNodes>
        0 -1 79867 -2.1202026982791722e-04</internalNodes>
      <leafValues>
        -4.3462756276130676e-01 1.7787212133407593e-01</leafValues></_>
    <_>
      <internalNodes>
        0 -1 79867 1.5242365770973265e-04</internalNodes>
      <leafValues>
        2.0938187837600708e-01 -4.4622996449470520e-01</leafValues></_>
    <_>
      <internalNodes>
        0 -1 14347 -3.8530778139829636e-02</internalNodes>
      <leafValues>
        5.3225439786911011e-01 -1.6887804865837097e-01</leafValues></_></weakClassifiers></stage1>
</opencv_storage>
