<?xml version="1.0"?>
<opencv_storage>
<cascade>
  <stageType>BOOST</stageType>
  <featureType>HAAR</featureType>
  <height>30</height>
  <width>13</width>
  <stageParams>
    <boostType>GAB</boostType>
    <minHitRate>9.9500000476837158e-01</minHitRate>
    <maxFalseAlarm>5.0000000000000000e-01</maxFalseAlarm>
    <weightTrimRate>9.4999999999999996e-01</weightTrimRate>
    <maxDepth>1</maxDepth>
    <maxWeakCount>100</maxWeakCount></stageParams>
  <featureParams>
    <maxCatCount>0</maxCatCount>
    <featSize>1</featSize>
    <mode>BASIC</mode></featureParams>
  <stageNum>10</stageNum>
  <stages>
    <!-- stage 0 -->
    <_>
      <maxWeakCount>20</maxWeakCount>
      <stageThreshold>-6.7341947555541992e-01</stageThreshold>
      <weakClassifiers>
        <_>
          <internalNodes>
            0 -1 204 1.1695573106408119e-02</internalNodes>
          <leafValues>
            1.7158469557762146e-01 7.4444442987442017e-01</leafValues></_>
        <_>
          <internalNodes>
            0 -1 207 -7.3671527206897736e-03</internalNodes>
          <leafValues>
            6.0794770717620850e-01 -1.0800062119960785e-01</leafValues></_>
        <_>
          <internalNodes>
            0 -1 34 -1.3605838641524315e-02</internalNodes>
          <leafValues>
            5.5882745981216431e-01 -1.4504095911979675e-01</leafValues></_>
        <_>
          <internalNodes>
            0 -1 35 2.8057377785444260e-03</internalNodes>
          <leafValues>
            -2.2640176117420197e-01 4.6818473935127258e-01</leafValues></_>
        <_>
          <internalNodes>
            0 -1 92 -4.9842232838273048e-03</internalNodes>
          <leafValues>
            5.8065849542617798e-01 -1.4981570839881897e-01</leafValues></_>
        <_>
          <internalNodes>
            0 -1 113 5.7327293325215578e-04</internalNodes>
          <leafValues>
            -2.6577490568161011e-01 4.2723298072814941e-01</leafValues></_>
        <_>
          <internalNodes>
            0 -1 149 -9.4048259779810905e-03</internalNodes>
          <leafValues>
            5.5112230777740479e-01 -1.4400210976600647e-01</leafValues></_>
        <_>
          <internalNodes>
            0 -1 79 -1.7939072102308273e-02</internalNodes>
          <leafValues>
            4.2669031023979187e-01 -1.9810740649700165e-01</leafValues></_>
        <_>
          <internalNodes>
            0 -1 33 9.7219478338956833e-03</internalNodes>
          <leafValues>
            -1.3270612061023712e-01 5.4085624217987061e-01</leafValues></_>
        <_>
          <internalNodes>
            0 -1 220 -1.0533330030739307e-02</internalNodes>
          <leafValues>
            5.9192872047424316e-01 -1.2888005375862122e-01</leafValues></_>
        <_>
          <internalNodes>
            0 -1 112 2.8604210820049047e-03</internalNodes>
          <leafValues>
            -1.4813993871212006e-01 5.1699340343475342e-01</leafValues></_>
        <_>
          <internalNodes>
            0 -1 139 -1.0868799872696400e-03</internalNodes>
          <leafValues>
            4.4994679093360901e-01 -2.1280385553836823e-01</leafValues></_>
        <_>
          <internalNodes>
            0 -1 81 5.0006476230919361e-03</internalNodes>
          <leafValues>
            -1.5101806819438934e-01 4.3968200683593750e-01</leafValues></_>
        <_>
          <internalNodes>
            0 -1 62 -6.9536805152893066e-02</internalNodes>
          <leafValues>
            -5.4635977745056152e-01 1.4581824839115143e-01</leafValues></_>
        <_>
          <internalNodes>
            0 -1 130 -1.2625758536159992e-03</internalNodes>
          <leafValues>
            4.4078028202056885e-01 -1.7131201922893524e-01</leafValues></_>
        <_>
          <internalNodes>
            0 -1 130 1.5823214780539274e-03</internalNodes>
          <leafValues>
            -1.4767324924468994e-01 5.0575000047683716e-01</leafValues></_>
        <_>
          <internalNodes>
            0 -1 167 -5.6937243789434433e-03</internalNodes>
          <leafValues>
            -5.8604216575622559e-01 1.3489469885826111e-01</leafValues></_>
        <_>
          <internalNodes>
            0 -1 20 2.3380968719720840e-02</internalNodes>
          <leafValues>
            -1.5684068202972412e-01 5.4123866558074951e-01</leafValues></_>
        <_>
          <internalNodes>
            0 -1 206 -1.3491498539224267e-03</internalNodes>
          <leafValues>
            -6.3688659667968750e-01 1.3629359006881714e-01</leafValues></_>
        <_>
          <internalNodes>
            0 -1 206 2.6949446182698011e-03</internalNodes>
          <leafValues>
            5.3265843540430069e-02 -7.9584270715713501e-01</leafValues></_></weakClassifiers></_>
    <!-- stage 1 -->
    <_>
      <maxWeakCount>19</maxWeakCount>
      <stageThreshold>-6.3809406757354736e-01</stageThreshold>
      <weakClassifiers>
        <_>
          <internalNodes>
            0 -1 145 8.6039111018180847e-02</internalNodes>
          <leafValues>
            4.1408935189247131e-01 -5.1351350545883179e-01</leafValues></_>
        <_>
          <internalNodes>
            0 -1 60 -1.4865857083350420e-03</internalNodes>
          <leafValues>
            -5.9950566291809082e-01 1.7491424083709717e-01</leafValues></_>
        <_>
          <internalNodes>
            0 -1 210 1.1443127878010273e-02</internalNodes>
          <leafValues>
            -1.4274738729000092e-01 7.7545255422592163e-01</leafValues></_>
        <_>
          <internalNodes>
            0 -1 211 -2.7901637367904186e-03</internalNodes>
          <leafValues>
            3.3100333809852600e-01 -2.4934977293014526e-01</leafValues></_>
        <_>
          <internalNodes>
            0 -1 91 5.5734375491738319e-03</internalNodes>
          <leafValues>
            -5.5118650197982788e-02 6.8776661157608032e-01</leafValues></_>
        <_>
          <internalNodes>
            0 -1 72 -2.4388851597905159e-03</internalNodes>
          <leafValues>
            4.5824220776557922e-01 -2.5062921643257141e-01</leafValues></_>
        <_>
          <internalNodes>
            0 -1 195 1.6280056443065405e-03</internalNodes>
          <leafValues>
            1.1349832266569138e-01 -7.2490495443344116e-01</leafValues></_>
        <_>
          <internalNodes>
            0 -1 5 -5.9373557567596436e-02</internalNodes>
          <leafValues>
            5.7374727725982666e-01 -1.4139245450496674e-01</leafValues></_>
        <_>
          <internalNodes>
            0 -1 64 -2.4870203342288733e-03</internalNodes>
          <leafValues>
            -8.5890543460845947e-01 8.5335679352283478e-02</leafValues></_>
        <_>
          <internalNodes>
            0 -1 114 1.4421904925256968e-03</internalNodes>
          <leafValues>
            -1.7238718271255493e-01 3.8698485493659973e-01</leafValues></_>
        <_>
          <internalNodes>
            0 -1 168 4.7523386776447296e-02</internalNodes>
          <leafValues>
            -1.0614181309938431e-01 6.3554441928863525e-01</leafValues></_>
        <_>
          <internalNodes>
            0 -1 177 2.1430499851703644e-02</internalNodes>
          <leafValues>
            1.0768666863441467e-01 -7.6847618818283081e-01</leafValues></_>
        <_>
          <internalNodes>
            0 -1 189 1.9082718063145876e-03</internalNodes>
          <leafValues>
            8.5083074867725372e-02 -6.6977685689926147e-01</leafValues></_>
        <_>
          <internalNodes>
            0 -1 103 -6.7587597295641899e-03</internalNodes>
          <leafValues>
            4.6526008844375610e-01 -1.5712179243564606e-01</leafValues></_>
        <_>
          <internalNodes>
            0 -1 102 2.0648237317800522e-02</internalNodes>
          <leafValues>
            -1.4514805376529694e-01 4.9871486425399780e-01</leafValues></_>
        <_>
          <internalNodes>
            0 -1 177 -1.8821664154529572e-02</internalNodes>
          <leafValues>
            -7.2466081380844116e-01 9.9244348704814911e-02</leafValues></_>
        <_>
          <internalNodes>
            0 -1 43 -7.3539172299206257e-03</internalNodes>
          <leafValues>
            3.9977574348449707e-01 -1.7257343232631683e-01</leafValues></_>
        <_>
          <internalNodes>
            0 -1 133 -4.4639171101152897e-03</internalNodes>
          <leafValues>
            -6.0356628894805908e-01 1.2162080407142639e-01</leafValues></_>
        <_>
          <internalNodes>
            0 -1 13 -1.0080846026539803e-02</internalNodes>
          <leafValues>
            3.6098766326904297e-01 -2.0096832513809204e-01</leafValues></_></weakClassifiers></_>
    <!-- stage 2 -->
    <_>
      <maxWeakCount>19</maxWeakCount>
      <stageThreshold>-6.6491782665252686e-01</stageThreshold>
      <weakClassifiers>
        <_>
          <internalNodes>
            0 -1 113 -7.4048573151230812e-04</internalNodes>
          <leafValues>
            7.0192307233810425e-01 1.5483120083808899e-01</leafValues></_>
        <_>
          <internalNodes>
            0 -1 184 1.4794986695051193e-02</internalNodes>
          <leafValues>
            -9.7900383174419403e-02 6.1145454645156860e-01</leafValues></_>
        <_>
          <internalNodes>
            0 -1 187 -1.0177595540881157e-02</internalNodes>
          <leafValues>
            4.7401356697082520e-01 -2.2085115313529968e-01</leafValues></_>
        <_>
          <internalNodes>
            0 -1 40 -4.8037106171250343e-03</internalNodes>
          <leafValues>
            4.6228566765785217e-01 -1.4773124456405640e-01</leafValues></_>
        <_>
          <internalNodes>
            0 -1 38 4.5054331421852112e-03</internalNodes>
          <leafValues>
            -1.8079352378845215e-01 4.9956223368644714e-01</leafValues></_>
        <_>
          <internalNodes>
            0 -1 203 9.9966628476977348e-03</internalNodes>
          <leafValues>
            -1.5636019408702850e-01 4.9613240361213684e-01</leafValues></_>
        <_>
          <internalNodes>
            0 -1 31 1.7723917961120605e-02</internalNodes>
          <leafValues>
            -1.3871416449546814e-01 5.8017569780349731e-01</leafValues></_>
        <_>
          <internalNodes>
            0 -1 22 -1.8340863753110170e-03</internalNodes>
          <leafValues>
            4.6010294556617737e-01 -1.5100111067295074e-01</leafValues></_>
        <_>
          <internalNodes>
            0 -1 86 6.5163606777787209e-03</internalNodes>
          <leafValues>
            -8.9413732290267944e-02 7.7439755201339722e-01</leafValues></_>
        <_>
          <internalNodes>
            0 -1 113 1.0188601445406675e-03</internalNodes>
          <leafValues>
            -1.7601926624774933e-01 4.1048559546470642e-01</leafValues></_>
        <_>
          <internalNodes>
            0 -1 90 -2.6136918459087610e-03</internalNodes>
          <leafValues>
            5.4788911342620850e-01 -1.5757547318935394e-01</leafValues></_>
        <_>
          <internalNodes>
            0 -1 137 -5.4718041792511940e-04</internalNodes>
          <leafValues>
            3.7174996733665466e-01 -1.7479145526885986e-01</leafValues></_>
        <_>
          <internalNodes>
            0 -1 14 -1.5745051205158234e-02</internalNodes>
          <leafValues>
            5.5152618885040283e-01 -1.2716619670391083e-01</leafValues></_>
        <_>
          <internalNodes>
            0 -1 174 -2.4187296628952026e-02</internalNodes>
          <leafValues>
            -6.4194679260253906e-01 1.3166052103042603e-01</leafValues></_>
        <_>
          <internalNodes>
            0 -1 214 -1.6923514194786549e-03</internalNodes>
          <leafValues>
            -6.5614569187164307e-01 9.0326845645904541e-02</leafValues></_>
        <_>
          <internalNodes>
            0 -1 106 -2.7157012373209000e-03</internalNodes>
          <leafValues>
            4.7621408104896545e-01 -1.6587573289871216e-01</leafValues></_>
        <_>
          <internalNodes>
            0 -1 41 3.2781781628727913e-03</internalNodes>
          <leafValues>
            1.1046788841485977e-01 -7.3499929904937744e-01</leafValues></_>
        <_>
          <internalNodes>
            0 -1 192 1.4614354819059372e-02</internalNodes>
          <leafValues>
            -1.7299205064773560e-01 4.1401234269142151e-01</leafValues></_>
        <_>
          <internalNodes>
            0 -1 191 -1.1306137777864933e-02</internalNodes>
          <leafValues>
            4.1847655177116394e-01 -1.4327526092529297e-01</leafValues></_></weakClassifiers></_>
    <!-- stage 3 -->
    <_>
      <maxWeakCount>23</maxWeakCount>
      <stageThreshold>-7.4421161413192749e-01</stageThreshold>
      <weakClassifiers>
        <_>
          <internalNodes>
            0 -1 121 1.1108392849564552e-02</internalNodes>
          <leafValues>
            2.2456814348697662e-01 8.1974250078201294e-01</leafValues></_>
        <_>
          <internalNodes>
            0 -1 121 -6.6915759816765785e-03</internalNodes>
          <leafValues>
            4.9480029940605164e-01 -1.3522389531135559e-01</leafValues></_>
        <_>
          <internalNodes>
            0 -1 17 2.4661134928464890e-02</internalNodes>
          <leafValues>
            -1.1275135725736618e-01 6.1517763137817383e-01</leafValues></_>
        <_>
          <internalNodes>
            0 -1 19 -7.8697176650166512e-03</internalNodes>
          <leafValues>
            4.1144052147865295e-01 -2.4619561433792114e-01</leafValues></_>
        <_>
          <internalNodes>
            0 -1 32 -7.3731601238250732e-02</internalNodes>
          <leafValues>
            -6.7263591289520264e-01 1.2022177875041962e-01</leafValues></_>
        <_>
          <internalNodes>
            0 -1 26 -2.8667386621236801e-02</internalNodes>
          <leafValues>
            6.6645371913909912e-01 -9.6545860171318054e-02</leafValues></_>
        <_>
          <internalNodes>
            0 -1 143 -5.2023530006408691e-03</internalNodes>
          <leafValues>
            3.8341778516769409e-01 -1.6801756620407104e-01</leafValues></_>
        <_>
          <internalNodes>
            0 -1 163 2.6610847562551498e-02</internalNodes>
          <leafValues>
            -1.3284483551979065e-01 5.8976411819458008e-01</leafValues></_>
        <_>
          <internalNodes>
            0 -1 159 5.6974086910486221e-03</internalNodes>
          <leafValues>
            -1.1602447181940079e-01 5.8957469463348389e-01</leafValues></_>
        <_>
          <internalNodes>
            0 -1 12 -6.6326051950454712e-02</internalNodes>
          <leafValues>
            6.3842236995697021e-01 -7.5434908270835876e-02</leafValues></_>
        <_>
          <internalNodes>
            0 -1 158 -5.8066640049219131e-03</internalNodes>
          <leafValues>
            4.1381189227104187e-01 -1.4536763727664948e-01</leafValues></_>
        <_>
          <internalNodes>
            0 -1 96 -5.3288312628865242e-03</internalNodes>
          <leafValues>
            4.2944249510765076e-01 -1.4175593852996826e-01</leafValues></_>
        <_>
          <internalNodes>
            0 -1 37 -3.7059560418128967e-03</internalNodes>
          <leafValues>
            4.0262061357498169e-01 -1.5453715622425079e-01</leafValues></_>
        <_>
          <internalNodes>
            0 -1 42 4.7123245894908905e-03</internalNodes>
          <leafValues>
            -1.2743480503559113e-01 4.7965008020401001e-01</leafValues></_>
        <_>
          <internalNodes>
            0 -1 100 6.1064995825290680e-03</internalNodes>
          <leafValues>
            -1.5672896802425385e-01 4.3537896871566772e-01</leafValues></_>
        <_>
          <internalNodes>
            0 -1 98 -3.6983559839427471e-03</internalNodes>
          <leafValues>
            3.9100408554077148e-01 -2.0796440541744232e-01</leafValues></_>
        <_>
          <internalNodes>
            0 -1 179 -1.9997220486402512e-02</internalNodes>
          <leafValues>
            5.2163416147232056e-01 -1.1079693585634232e-01</leafValues></_>
        <_>
          <internalNodes>
            0 -1 202 -9.3138506636023521e-03</internalNodes>
          <leafValues>
            5.2084279060363770e-01 -1.4698687195777893e-01</leafValues></_>
        <_>
          <internalNodes>
            0 -1 194 -3.2033172901719809e-03</internalNodes>
          <leafValues>
            3.7759065628051758e-01 -1.9932194054126740e-01</leafValues></_>
        <_>
          <internalNodes>
            0 -1 67 -1.9337998237460852e-03</internalNodes>
          <leafValues>
            -6.6349500417709351e-01 1.0099013149738312e-01</leafValues></_>
        <_>
          <internalNodes>
            0 -1 48 -1.3705339282751083e-02</internalNodes>
          <leafValues>
            4.6364483237266541e-01 -1.4417088031768799e-01</leafValues></_>
        <_>
          <internalNodes>
            0 -1 47 3.3335328102111816e-02</internalNodes>
          <leafValues>
            -1.2554359436035156e-01 6.8952387571334839e-01</leafValues></_>
        <_>
          <internalNodes>
            0 -1 23 -5.5088549852371216e-03</internalNodes>
          <leafValues>
            3.8463544845581055e-01 -1.5407049655914307e-01</leafValues></_></weakClassifiers></_>
    <!-- stage 4 -->
    <_>
      <maxWeakCount>22</maxWeakCount>
      <stageThreshold>-5.6162780523300171e-01</stageThreshold>
      <weakClassifiers>
        <_>
          <internalNodes>
            0 -1 199 2.2004947531968355e-03</internalNodes>
          <leafValues>
            3.9565944671630859e-01 -6.3636362552642822e-01</leafValues></_>
        <_>
          <internalNodes>
            0 -1 152 -2.0714197307825089e-03</internalNodes>
          <leafValues>
            4.9274259805679321e-01 -1.0277749598026276e-01</leafValues></_>
        <_>
          <internalNodes>
            0 -1 170 -2.2860318422317505e-02</internalNodes>
          <leafValues>
            -6.2657582759857178e-01 9.1543510556221008e-02</leafValues></_>
        <_>
          <internalNodes>
            0 -1 165 1.8490562215447426e-02</internalNodes>
          <leafValues>
            -9.8201729357242584e-02 6.7055821418762207e-01</leafValues></_>
        <_>
          <internalNodes>
            0 -1 163 3.3655360341072083e-02</internalNodes>
          <leafValues>
            -1.3483043015003204e-01 5.9150522947311401e-01</leafValues></_>
        <_>
          <internalNodes>
            0 -1 84 -5.3211888298392296e-03</internalNodes>
          <leafValues>
            4.3830999732017517e-01 -1.3568179309368134e-01</leafValues></_>
        <_>
          <internalNodes>
            0 -1 201 1.3587055727839470e-02</internalNodes>
          <leafValues>
            -1.1440735310316086e-01 5.6155049800872803e-01</leafValues></_>
        <_>
          <internalNodes>
            0 -1 205 1.6955579631030560e-03</internalNodes>
          <leafValues>
            9.1454520821571350e-02 -6.8076521158218384e-01</leafValues></_>
        <_>
          <internalNodes>
            0 -1 219 3.3215987496078014e-03</internalNodes>
          <leafValues>
            -1.4271013438701630e-01 4.2102721333503723e-01</leafValues></_>
        <_>
          <internalNodes>
            0 -1 65 -1.1757705360651016e-02</internalNodes>
          <leafValues>
            4.7945567965507507e-01 -1.1413431912660599e-01</leafValues></_>
        <_>
          <internalNodes>
            0 -1 58 -1.1105051264166832e-02</internalNodes>
          <leafValues>
            -5.0902718305587769e-01 1.4109301567077637e-01</leafValues></_>
        <_>
          <internalNodes>
            0 -1 60 2.5620013475418091e-03</internalNodes>
          <leafValues>
            7.4079476296901703e-02 -8.3352458477020264e-01</leafValues></_>
        <_>
          <internalNodes>
            0 -1 180 -1.8701270455494523e-03</internalNodes>
          <leafValues>
            3.2289445400238037e-01 -1.9221128523349762e-01</leafValues></_>
        <_>
          <internalNodes>
            0 -1 50 1.2607999145984650e-02</internalNodes>
          <leafValues>
            -1.5380318462848663e-01 4.1052973270416260e-01</leafValues></_>
        <_>
          <internalNodes>
            0 -1 178 -5.6301527656614780e-03</internalNodes>
          <leafValues>
            -5.8201164007186890e-01 1.1130110919475555e-01</leafValues></_>
        <_>
          <internalNodes>
            0 -1 2 2.2503636777400970e-02</internalNodes>
          <leafValues>
            -1.2656697630882263e-01 4.7783577442169189e-01</leafValues></_>
        <_>
          <internalNodes>
            0 -1 0 -1.6958475112915039e-02</internalNodes>
          <leafValues>
            4.6960797905921936e-01 -1.6825069487094879e-01</leafValues></_>
        <_>
          <internalNodes>
            0 -1 61 9.7271818667650223e-03</internalNodes>
          <leafValues>
            -1.1398941278457642e-01 5.2196419239044189e-01</leafValues></_>
        <_>
          <internalNodes>
            0 -1 4 -6.0774087905883789e-03</internalNodes>
          <leafValues>
            -6.0598838329315186e-01 1.0624629259109497e-01</leafValues></_>
        <_>
          <internalNodes>
            0 -1 61 -7.7209877781569958e-03</internalNodes>
          <leafValues>
            4.7678032517433167e-01 -1.3654696941375732e-01</leafValues></_>
        <_>
          <internalNodes>
            0 -1 53 2.2682566195726395e-02</internalNodes>
          <leafValues>
            8.3660542964935303e-02 -7.9799389839172363e-01</leafValues></_>
        <_>
          <internalNodes>
            0 -1 150 8.1730000674724579e-03</internalNodes>
          <leafValues>
            -1.6007868945598602e-01 4.1257631778717041e-01</leafValues></_></weakClassifiers></_>
    <!-- stage 5 -->
    <_>
      <maxWeakCount>27</maxWeakCount>
      <stageThreshold>-5.6225198507308960e-01</stageThreshold>
      <weakClassifiers>
        <_>
          <internalNodes>
            0 -1 71 -1.2375764548778534e-02</internalNodes>
          <leafValues>
            -5.7142859697341919e-01 3.8589212298393250e-01</leafValues></_>
        <_>
          <internalNodes>
            0 -1 190 -7.7715781517326832e-03</internalNodes>
          <leafValues>
            -4.7945320606231689e-01 1.5199188888072968e-01</leafValues></_>
        <_>
          <internalNodes>
            0 -1 116 -6.2916511669754982e-03</internalNodes>
          <leafValues>
            5.2501022815704346e-01 -1.2955938279628754e-01</leafValues></_>
        <_>
          <internalNodes>
            0 -1 116 2.2107786498963833e-03</internalNodes>
          <leafValues>
            -1.5440608561038971e-01 3.9853599667549133e-01</leafValues></_>
        <_>
          <internalNodes>
            0 -1 36 -1.7475396394729614e-02</internalNodes>
          <leafValues>
            6.0532563924789429e-01 -8.1629961729049683e-02</leafValues></_>
        <_>
          <internalNodes>
            0 -1 39 2.6886947453022003e-03</internalNodes>
          <leafValues>
            -1.6243916749954224e-01 4.9146375060081482e-01</leafValues></_>
        <_>
          <internalNodes>
            0 -1 74 -3.8310274481773376e-02</internalNodes>
          <leafValues>
            5.9040313959121704e-01 -6.1351716518402100e-02</leafValues></_>
        <_>
          <internalNodes>
            0 -1 122 7.1856365539133549e-03</internalNodes>
          <leafValues>
            -1.5617175400257111e-01 3.6000707745552063e-01</leafValues></_>
        <_>
          <internalNodes>
            0 -1 8 1.7187155783176422e-02</internalNodes>
          <leafValues>
            -8.2767136394977570e-02 4.9739512801170349e-01</leafValues></_>
        <_>
          <internalNodes>
            0 -1 95 4.4024987146258354e-03</internalNodes>
          <leafValues>
            -1.2668994069099426e-01 3.8983041048049927e-01</leafValues></_>
        <_>
          <internalNodes>
            0 -1 136 7.9835988581180573e-03</internalNodes>
          <leafValues>
            -1.5613433718681335e-01 3.5402509570121765e-01</leafValues></_>
        <_>
          <internalNodes>
            0 -1 188 -1.8135022372007370e-02</internalNodes>
          <leafValues>
            4.5548900961875916e-01 -1.0921471565961838e-01</leafValues></_>
        <_>
          <internalNodes>
            0 -1 196 7.9122278839349747e-03</internalNodes>
          <leafValues>
            -1.3252471387386322e-01 4.2489215731620789e-01</leafValues></_>
        <_>
          <internalNodes>
            0 -1 108 1.8471411895006895e-03</internalNodes>
          <leafValues>
            -1.4349365234375000e-01 3.7786459922790527e-01</leafValues></_>
        <_>
          <internalNodes>
            0 -1 209 -2.4038567207753658e-03</internalNodes>
          <leafValues>
            -7.2044175863265991e-01 8.5652582347393036e-02</leafValues></_>
        <_>
          <internalNodes>
            0 -1 45 -2.5216323137283325e-01</internalNodes>
          <leafValues>
            -9.0293735265731812e-01 4.1592396795749664e-02</leafValues></_>
        <_>
          <internalNodes>
            0 -1 109 -1.1355651542544365e-02</internalNodes>
          <leafValues>
            4.3114691972732544e-01 -1.2253321707248688e-01</leafValues></_>
        <_>
          <internalNodes>
            0 -1 156 6.2730000354349613e-04</internalNodes>
          <leafValues>
            -1.2393959611654282e-01 3.8859042525291443e-01</leafValues></_>
        <_>
          <internalNodes>
            0 -1 157 -6.1042618472129107e-04</internalNodes>
          <leafValues>
            3.2246798276901245e-01 -1.7537601292133331e-01</leafValues></_>
        <_>
          <internalNodes>
            0 -1 64 2.6397965848445892e-03</internalNodes>
          <leafValues>
            7.4283510446548462e-02 -7.7139997482299805e-01</leafValues></_>
        <_>
          <internalNodes>
            0 -1 7 -1.7906123772263527e-02</internalNodes>
          <leafValues>
            4.8662281036376953e-01 -1.1663087457418442e-01</leafValues></_>
        <_>
          <internalNodes>
            0 -1 138 -1.9132199231535196e-03</internalNodes>
          <leafValues>
            3.5672453045845032e-01 -1.3354460895061493e-01</leafValues></_>
        <_>
          <internalNodes>
            0 -1 1 7.4077327735722065e-03</internalNodes>
          <leafValues>
            -1.1171463131904602e-01 4.9257090687751770e-01</leafValues></_>
        <_>
          <internalNodes>
            0 -1 43 9.8876189440488815e-03</internalNodes>
          <leafValues>
            -1.0260047018527985e-01 4.5355540513992310e-01</leafValues></_>
        <_>
          <internalNodes>
            0 -1 10 -2.5045969523489475e-03</internalNodes>
          <leafValues>
            -5.8629208803176880e-01 9.2561736702919006e-02</leafValues></_>
        <_>
          <internalNodes>
            0 -1 120 2.7295622974634171e-02</internalNodes>
          <leafValues>
            9.8424516618251801e-02 -5.2782088518142700e-01</leafValues></_>
        <_>
          <internalNodes>
            0 -1 117 -1.0303200781345367e-01</internalNodes>
          <leafValues>
            -7.7976548671722412e-01 5.5172104388475418e-02</leafValues></_></weakClassifiers></_>
    <!-- stage 6 -->
    <_>
      <maxWeakCount>28</maxWeakCount>
      <stageThreshold>-6.6985213756561279e-01</stageThreshold>
      <weakClassifiers>
        <_>
          <internalNodes>
            0 -1 51 7.5862020254135132e-02</internalNodes>
          <leafValues>
            3.7581700086593628e-01 -6.8627452850341797e-01</leafValues></_>
        <_>
          <internalNodes>
            0 -1 199 8.2936568651348352e-04</internalNodes>
          <leafValues>
            1.4091755449771881e-01 -4.3777889013290405e-01</leafValues></_>
        <_>
          <internalNodes>
            0 -1 141 -1.8958235159516335e-03</internalNodes>
          <leafValues>
            3.5360112786293030e-01 -1.4232307672500610e-01</leafValues></_>
        <_>
          <internalNodes>
            0 -1 83 -3.9061461575329304e-03</internalNodes>
          <leafValues>
            4.3914854526519775e-01 -1.2348832935094833e-01</leafValues></_>
        <_>
          <internalNodes>
            0 -1 57 -8.5597243160009384e-03</internalNodes>
          <leafValues>
            -5.2022802829742432e-01 8.8729858398437500e-02</leafValues></_>
        <_>
          <internalNodes>
            0 -1 85 1.0813564294949174e-03</internalNodes>
          <leafValues>
            -1.6048413515090942e-01 3.1512078642845154e-01</leafValues></_>
        <_>
          <internalNodes>
            0 -1 127 -1.3731179758906364e-02</internalNodes>
          <leafValues>
            6.2859022617340088e-01 -8.5208110511302948e-02</leafValues></_>
        <_>
          <internalNodes>
            0 -1 105 -1.4217846095561981e-02</internalNodes>
          <leafValues>
            4.0705978870391846e-01 -1.4187201857566833e-01</leafValues></_>
        <_>
          <internalNodes>
            0 -1 193 1.3135258341208100e-03</internalNodes>
          <leafValues>
            1.1831180751323700e-01 -5.2260780334472656e-01</leafValues></_>
        <_>
          <internalNodes>
            0 -1 218 1.3672770932316780e-02</internalNodes>
          <leafValues>
            -1.2746219336986542e-01 4.4079166650772095e-01</leafValues></_>
        <_>
          <internalNodes>
            0 -1 217 -3.3213458955287933e-02</internalNodes>
          <leafValues>
            4.4598209857940674e-01 -9.6582747995853424e-02</leafValues></_>
        <_>
          <internalNodes>
            0 -1 216 3.8862270303070545e-03</internalNodes>
          <leafValues>
            -1.6606797277927399e-01 3.3517438173294067e-01</leafValues></_>
        <_>
          <internalNodes>
            0 -1 54 -8.8269166648387909e-02</internalNodes>
          <leafValues>
            -6.6152518987655640e-01 8.3848424255847931e-02</leafValues></_>
        <_>
          <internalNodes>
            0 -1 101 -2.6791333220899105e-03</internalNodes>
          <leafValues>
            3.8902693986892700e-01 -1.3265022635459900e-01</leafValues></_>
        <_>
          <internalNodes>
            0 -1 124 -2.0462102256715298e-03</internalNodes>
          <leafValues>
            3.1430029869079590e-01 -1.6543525457382202e-01</leafValues></_>
        <_>
          <internalNodes>
            0 -1 52 -1.3981654774397612e-03</internalNodes>
          <leafValues>
            -4.7075304388999939e-01 1.0665271431207657e-01</leafValues></_>
        <_>
          <internalNodes>
            0 -1 176 -1.5385068953037262e-02</internalNodes>
          <leafValues>
            -8.6840051412582397e-01 5.6154273450374603e-02</leafValues></_>
        <_>
          <internalNodes>
            0 -1 153 5.8350907638669014e-03</internalNodes>
          <leafValues>
            -1.0798089206218719e-01 5.5987673997879028e-01</leafValues></_>
        <_>
          <internalNodes>
            0 -1 75 1.0082353837788105e-02</internalNodes>
          <leafValues>
            8.4854893386363983e-02 -6.2263762950897217e-01</leafValues></_>
        <_>
          <internalNodes>
            0 -1 76 -5.3777694702148438e-03</internalNodes>
          <leafValues>
            3.9087435603141785e-01 -1.3765351474285126e-01</leafValues></_>
        <_>
          <internalNodes>
            0 -1 29 1.3901665806770325e-01</internalNodes>
          <leafValues>
            6.7692227661609650e-02 -8.4538888931274414e-01</leafValues></_>
        <_>
          <internalNodes>
            0 -1 46 -1.5484998002648354e-02</internalNodes>
          <leafValues>
            3.7331977486610413e-01 -1.4248737692832947e-01</leafValues></_>
        <_>
          <internalNodes>
            0 -1 27 -9.0222842991352081e-03</internalNodes>
          <leafValues>
            6.1001563072204590e-01 -7.9021655023097992e-02</leafValues></_>
        <_>
          <internalNodes>
            0 -1 181 -4.6382243745028973e-03</internalNodes>
          <leafValues>
            -5.8579832315444946e-01 9.0343065559864044e-02</leafValues></_>
        <_>
          <internalNodes>
            0 -1 123 -8.6258593946695328e-03</internalNodes>
          <leafValues>
            4.6516245603561401e-01 -1.1446357518434525e-01</leafValues></_>
        <_>
          <internalNodes>
            0 -1 68 3.2281482126563787e-03</internalNodes>
          <leafValues>
            -1.6784745454788208e-01 3.0639940500259399e-01</leafValues></_>
        <_>
          <internalNodes>
            0 -1 93 -3.9239455945789814e-03</internalNodes>
          <leafValues>
            3.6411041021347046e-01 -1.6047926247119904e-01</leafValues></_>
        <_>
          <internalNodes>
            0 -1 88 5.0292862579226494e-04</internalNodes>
          <leafValues>
            -1.7986786365509033e-01 3.4919500350952148e-01</leafValues></_></weakClassifiers></_>
    <!-- stage 7 -->
    <_>
      <maxWeakCount>27</maxWeakCount>
      <stageThreshold>-5.4307824373245239e-01</stageThreshold>
      <weakClassifiers>
        <_>
          <internalNodes>
            0 -1 77 -2.1580997854471207e-02</internalNodes>
          <leafValues>
            -7.0967739820480347e-01 3.8664469122886658e-01</leafValues></_>
        <_>
          <internalNodes>
            0 -1 69 -8.5854809731245041e-03</internalNodes>
          <leafValues>
            5.3217560052871704e-01 -6.5593913197517395e-02</leafValues></_>
        <_>
          <internalNodes>
            0 -1 213 -1.5183584764599800e-03</internalNodes>
          <leafValues>
            -5.7066267728805542e-01 7.5332418084144592e-02</leafValues></_>
        <_>
          <internalNodes>
            0 -1 147 7.0083457976579666e-03</internalNodes>
          <leafValues>
            -1.3810631632804871e-01 3.7818428874015808e-01</leafValues></_>
        <_>
          <internalNodes>
            0 -1 146 -1.6834416892379522e-03</internalNodes>
          <leafValues>
            3.2313275337219238e-01 -1.6959281265735626e-01</leafValues></_>
        <_>
          <internalNodes>
            0 -1 69 5.0624781288206577e-03</internalNodes>
          <leafValues>
            -1.7823642492294312e-01 2.8754028677940369e-01</leafValues></_>
        <_>
          <internalNodes>
            0 -1 212 1.1185863986611366e-02</internalNodes>
          <leafValues>
            -1.1179959774017334e-01 4.2719376087188721e-01</leafValues></_>
        <_>
          <internalNodes>
            0 -1 197 -5.4588615894317627e-03</internalNodes>
          <leafValues>
            3.3791851997375488e-01 -1.6363295912742615e-01</leafValues></_>
        <_>
          <internalNodes>
            0 -1 119 -2.3143298923969269e-02</internalNodes>
          <leafValues>
            6.6616493463516235e-01 -7.2439000010490417e-02</leafValues></_>
        <_>
          <internalNodes>
            0 -1 186 7.8015634790062904e-03</internalNodes>
          <leafValues>
            -1.2737636268138885e-01 3.7111908197402954e-01</leafValues></_>
        <_>
          <internalNodes>
            0 -1 166 -3.3654943108558655e-02</internalNodes>
          <leafValues>
            6.8034136295318604e-01 -6.7324437201023102e-02</leafValues></_>
        <_>
          <internalNodes>
            0 -1 144 -6.1057563871145248e-03</internalNodes>
          <leafValues>
            -5.1188397407531738e-01 1.0468728840351105e-01</leafValues></_>
        <_>
          <internalNodes>
            0 -1 73 -7.3919882997870445e-03</internalNodes>
          <leafValues>
            2.5863632559776306e-01 -1.8894323706626892e-01</leafValues></_>
        <_>
          <internalNodes>
            0 -1 125 3.4479042515158653e-03</internalNodes>
          <leafValues>
            -1.3053312897682190e-01 3.9096322655677795e-01</leafValues></_>
        <_>
          <internalNodes>
            0 -1 129 -8.9748878963291645e-04</internalNodes>
          <leafValues>
            3.1393015384674072e-01 -1.5873304009437561e-01</leafValues></_>
        <_>
          <internalNodes>
            0 -1 18 -3.8669306784868240e-02</internalNodes>
          <leafValues>
            3.3930790424346924e-01 -1.3520784676074982e-01</leafValues></_>
        <_>
          <internalNodes>
            0 -1 30 1.1061212047934532e-02</internalNodes>
          <leafValues>
            -1.3560828566551208e-01 3.7173679471015930e-01</leafValues></_>
        <_>
          <internalNodes>
            0 -1 16 1.5093972906470299e-02</internalNodes>
          <leafValues>
            -1.1979665607213974e-01 3.7860694527626038e-01</leafValues></_>
        <_>
          <internalNodes>
            0 -1 215 9.0618710964918137e-04</internalNodes>
          <leafValues>
            1.7557117342948914e-01 -2.6594820618629456e-01</leafValues></_>
        <_>
          <internalNodes>
            0 -1 9 6.7711323499679565e-03</internalNodes>
          <leafValues>
            -1.5496273338794708e-01 2.9177096486091614e-01</leafValues></_>
        <_>
          <internalNodes>
            0 -1 80 1.5939984470605850e-02</internalNodes>
          <leafValues>
            -1.1763750016689301e-01 3.6798939108848572e-01</leafValues></_>
        <_>
          <internalNodes>
            0 -1 55 1.8827660009264946e-02</internalNodes>
          <leafValues>
            8.4929935634136200e-02 -6.4327716827392578e-01</leafValues></_>
        <_>
          <internalNodes>
            0 -1 128 4.0291654877364635e-03</internalNodes>
          <leafValues>
            -1.6624689102172852e-01 3.4064483642578125e-01</leafValues></_>
        <_>
          <internalNodes>
            0 -1 112 -3.2726190984249115e-03</internalNodes>
          <leafValues>
            3.4287968277931213e-01 -1.2744106352329254e-01</leafValues></_>
        <_>
          <internalNodes>
            0 -1 140 -1.8612549174576998e-03</internalNodes>
          <leafValues>
            3.3513858914375305e-01 -1.3598243892192841e-01</leafValues></_>
        <_>
          <internalNodes>
            0 -1 160 -5.9921247884631157e-03</internalNodes>
          <leafValues>
            -8.5776537656784058e-01 5.6460760533809662e-02</leafValues></_>
        <_>
          <internalNodes>
            0 -1 3 -2.6903666555881500e-02</internalNodes>
          <leafValues>
            5.7114732265472412e-01 -8.9840017259120941e-02</leafValues></_></weakClassifiers></_>
    <!-- stage 8 -->
    <_>
      <maxWeakCount>30</maxWeakCount>
      <stageThreshold>-5.8694452047348022e-01</stageThreshold>
      <weakClassifiers>
        <_>
          <internalNodes>
            0 -1 59 -2.2590882144868374e-03</internalNodes>
          <leafValues>
            -3.9024388790130615e-01 3.8306790590286255e-01</leafValues></_>
        <_>
          <internalNodes>
            0 -1 151 4.2938040569424629e-03</internalNodes>
          <leafValues>
            -6.1373885720968246e-02 5.2330672740936279e-01</leafValues></_>
        <_>
          <internalNodes>
            0 -1 49 -2.1318523213267326e-02</internalNodes>
          <leafValues>
            5.4560959339141846e-01 -1.1128189414739609e-01</leafValues></_>
        <_>
          <internalNodes>
            0 -1 99 1.2466572225093842e-03</internalNodes>
          <leafValues>
            -1.5171876549720764e-01 2.8999391198158264e-01</leafValues></_>
        <_>
          <internalNodes>
            0 -1 137 -7.5135141378268600e-04</internalNodes>
          <leafValues>
            2.7257305383682251e-01 -1.8959917128086090e-01</leafValues></_>
        <_>
          <internalNodes>
            0 -1 111 1.9848702941089869e-03</internalNodes>
          <leafValues>
            -1.7261204123497009e-01 4.4645565748214722e-01</leafValues></_>
        <_>
          <internalNodes>
            0 -1 133 2.9856329783797264e-03</internalNodes>
          <leafValues>
            1.1351780593395233e-01 -5.1151585578918457e-01</leafValues></_>
        <_>
          <internalNodes>
            0 -1 131 -1.9239664543420076e-03</internalNodes>
          <leafValues>
            2.5282809138298035e-01 -1.9215264916419983e-01</leafValues></_>
        <_>
          <internalNodes>
            0 -1 162 -4.3255280703306198e-02</internalNodes>
          <leafValues>
            -3.5194721817970276e-01 1.3385318219661713e-01</leafValues></_>
        <_>
          <internalNodes>
            0 -1 175 7.0034479722380638e-03</internalNodes>
          <leafValues>
            9.3423664569854736e-02 -5.3183645009994507e-01</leafValues></_>
        <_>
          <internalNodes>
            0 -1 135 -1.9153320463374257e-03</internalNodes>
          <leafValues>
            -4.7318524122238159e-01 9.8054781556129456e-02</leafValues></_>
        <_>
          <internalNodes>
            0 -1 183 7.3087718337774277e-03</internalNodes>
          <leafValues>
            -1.2756569683551788e-01 3.4221917390823364e-01</leafValues></_>
        <_>
          <internalNodes>
            0 -1 115 -5.7478286325931549e-03</internalNodes>
          <leafValues>
            3.4953978657722473e-01 -1.5141317248344421e-01</leafValues></_>
        <_>
          <internalNodes>
            0 -1 94 1.0016435384750366e-01</internalNodes>
          <leafValues>
            9.7869306802749634e-02 -4.7283449769020081e-01</leafValues></_>
        <_>
          <internalNodes>
            0 -1 118 -1.4072334393858910e-02</internalNodes>
          <leafValues>
            -6.9106429815292358e-01 6.8126924335956573e-02</leafValues></_>
        <_>
          <internalNodes>
            0 -1 161 4.2579858563840389e-04</internalNodes>
          <leafValues>
            -1.6713418066501617e-01 2.8037908673286438e-01</leafValues></_>
        <_>
          <internalNodes>
            0 -1 198 -1.0627137497067451e-02</internalNodes>
          <leafValues>
            3.6976113915443420e-01 -1.0686812549829483e-01</leafValues></_>
        <_>
          <internalNodes>
            0 -1 6 1.4207808300852776e-02</internalNodes>
          <leafValues>
            -7.2913438081741333e-02 6.1160224676132202e-01</leafValues></_>
        <_>
          <internalNodes>
            0 -1 97 -2.8451982885599136e-02</internalNodes>
          <leafValues>
            5.1395815610885620e-01 -8.1186644732952118e-02</leafValues></_>
        <_>
          <internalNodes>
            0 -1 78 1.6469161957502365e-02</internalNodes>
          <leafValues>
            -8.5669890046119690e-02 5.1895540952682495e-01</leafValues></_>
        <_>
          <internalNodes>
            0 -1 104 5.5519104003906250e-02</internalNodes>
          <leafValues>
            -5.9148255735635757e-02 6.7721605300903320e-01</leafValues></_>
        <_>
          <internalNodes>
            0 -1 44 -1.9012878183275461e-03</internalNodes>
          <leafValues>
            3.5167637467384338e-01 -1.3674601912498474e-01</leafValues></_>
        <_>
          <internalNodes>
            0 -1 89 2.2229743190109730e-03</internalNodes>
          <leafValues>
            -1.1197574436664581e-01 3.6687877774238586e-01</leafValues></_>
        <_>
          <internalNodes>
            0 -1 87 6.4375109970569611e-02</internalNodes>
          <leafValues>
            5.5267412215471268e-02 -8.3574175834655762e-01</leafValues></_>
        <_>
          <internalNodes>
            0 -1 63 -2.9221118893474340e-03</internalNodes>
          <leafValues>
            2.4447698891162872e-01 -1.8791662156581879e-01</leafValues></_>
        <_>
          <internalNodes>
            0 -1 107 1.1538222432136536e-02</internalNodes>
          <leafValues>
            -1.1316574364900589e-01 3.9537450671195984e-01</leafValues></_>
        <_>
          <internalNodes>
            0 -1 142 3.5021742805838585e-03</internalNodes>
          <leafValues>
            -1.7262037098407745e-01 2.4954628944396973e-01</leafValues></_>
        <_>
          <internalNodes>
            0 -1 206 -1.7388437408953905e-03</internalNodes>
          <leafValues>
            -6.1444669961929321e-01 7.5045257806777954e-02</leafValues></_>
        <_>
          <internalNodes>
            0 -1 155 2.0936359651386738e-03</internalNodes>
          <leafValues>
            -1.0920537263154984e-01 4.2876783013343811e-01</leafValues></_>
        <_>
          <internalNodes>
            0 -1 205 -1.3712511863559484e-03</internalNodes>
          <leafValues>
            -6.4527177810668945e-01 7.0974893867969513e-02</leafValues></_></weakClassifiers></_>
    <!-- stage 9 -->
    <_>
      <maxWeakCount>29</maxWeakCount>
      <stageThreshold>-5.6706541776657104e-01</stageThreshold>
      <weakClassifiers>
        <_>
          <internalNodes>
            0 -1 199 -1.1145668104290962e-03</internalNodes>
          <leafValues>
            -2.9213482141494751e-01 4.3482223153114319e-01</leafValues></_>
        <_>
          <internalNodes>
            0 -1 82 1.2387873604893684e-02</internalNodes>
          <leafValues>
            -7.2071991860866547e-02 4.6625798940658569e-01</leafValues></_>
        <_>
          <internalNodes>
            0 -1 66 -3.2704882323741913e-02</internalNodes>
          <leafValues>
            -5.9842383861541748e-01 8.3793647587299347e-02</leafValues></_>
        <_>
          <internalNodes>
            0 -1 154 4.2740982025861740e-03</internalNodes>
          <leafValues>
            -8.7395019829273224e-02 5.1614326238632202e-01</leafValues></_>
        <_>
          <internalNodes>
            0 -1 134 3.7115223240107298e-03</internalNodes>
          <leafValues>
            6.0252100229263306e-02 -6.7482197284698486e-01</leafValues></_>
        <_>
          <internalNodes>
            0 -1 132 -8.1254653632640839e-03</internalNodes>
          <leafValues>
            3.2383003830909729e-01 -1.7202025651931763e-01</leafValues></_>
        <_>
          <internalNodes>
            0 -1 172 3.1438983976840973e-02</internalNodes>
          <leafValues>
            1.2586419284343719e-01 -4.4119510054588318e-01</leafValues></_>
        <_>
          <internalNodes>
            0 -1 119 -2.0132618024945259e-02</internalNodes>
          <leafValues>
            5.1573300361633301e-01 -9.6120625734329224e-02</leafValues></_>
        <_>
          <internalNodes>
            0 -1 28 3.8637943565845490e-02</internalNodes>
          <leafValues>
            -8.0453619360923767e-02 4.2145547270774841e-01</leafValues></_>
        <_>
          <internalNodes>
            0 -1 185 1.4020851254463196e-01</internalNodes>
          <leafValues>
            -7.8860856592655182e-02 6.8167579174041748e-01</leafValues></_>
        <_>
          <internalNodes>
            0 -1 21 2.2444780915975571e-02</internalNodes>
          <leafValues>
            -9.2273257672786713e-02 3.9030346274375916e-01</leafValues></_>
        <_>
          <internalNodes>
            0 -1 110 1.3617699034512043e-02</internalNodes>
          <leafValues>
            8.8045306503772736e-02 -5.0538247823715210e-01</leafValues></_>
        <_>
          <internalNodes>
            0 -1 25 2.2063106298446655e-02</internalNodes>
          <leafValues>
            -9.3457050621509552e-02 4.8463931679725647e-01</leafValues></_>
        <_>
          <internalNodes>
            0 -1 182 4.2428071610629559e-03</internalNodes>
          <leafValues>
            1.0602369159460068e-01 -4.6561035513877869e-01</leafValues></_>
        <_>
          <internalNodes>
            0 -1 126 1.6164170578122139e-02</internalNodes>
          <leafValues>
            -1.2114532291889191e-01 3.9637663960456848e-01</leafValues></_>
        <_>
          <internalNodes>
            0 -1 137 -8.9463335461914539e-04</internalNodes>
          <leafValues>
            3.0556097626686096e-01 -1.4269033074378967e-01</leafValues></_>
        <_>
          <internalNodes>
            0 -1 148 -7.3494967073202133e-03</internalNodes>
          <leafValues>
            4.1967168450355530e-01 -9.4217307865619659e-02</leafValues></_>
        <_>
          <internalNodes>
            0 -1 169 -1.2571036815643311e-02</internalNodes>
          <leafValues>
            -3.3934658765792847e-01 1.2821756303310394e-01</leafValues></_>
        <_>
          <internalNodes>
            0 -1 56 -2.6976924389600754e-02</internalNodes>
          <leafValues>
            -4.9633115530014038e-01 7.9369775950908661e-02</leafValues></_>
        <_>
          <internalNodes>
            0 -1 24 -6.2604174017906189e-02</internalNodes>
          <leafValues>
            -4.2552474141120911e-01 9.3898542225360870e-02</leafValues></_>
        <_>
          <internalNodes>
            0 -1 171 -4.0847066789865494e-02</internalNodes>
          <leafValues>
            -5.5566662549972534e-01 7.2788208723068237e-02</leafValues></_>
        <_>
          <internalNodes>
            0 -1 15 9.3345791101455688e-02</internalNodes>
          <leafValues>
            3.9777755737304688e-02 -9.0199166536331177e-01</leafValues></_>
        <_>
          <internalNodes>
            0 -1 11 1.7442146316170692e-02</internalNodes>
          <leafValues>
            5.6218981742858887e-02 -5.7202064990997314e-01</leafValues></_>
        <_>
          <internalNodes>
            0 -1 208 -1.3797231018543243e-02</internalNodes>
          <leafValues>
            2.5837999582290649e-01 -1.5840253233909607e-01</leafValues></_>
        <_>
          <internalNodes>
            0 -1 200 -5.4981131106615067e-03</internalNodes>
          <leafValues>
            4.3690848350524902e-01 -8.7195627391338348e-02</leafValues></_>
        <_>
          <internalNodes>
            0 -1 164 3.4121900796890259e-02</internalNodes>
          <leafValues>
            1.0362119972705841e-01 -3.9829692244529724e-01</leafValues></_>
        <_>
          <internalNodes>
            0 -1 173 1.5779145061969757e-02</internalNodes>
          <leafValues>
            -9.4907790422439575e-02 4.5612117648124695e-01</leafValues></_>
        <_>
          <internalNodes>
            0 -1 55 -1.6662955284118652e-02</internalNodes>
          <leafValues>
            -6.2515115737915039e-01 6.9372527301311493e-02</leafValues></_>
        <_>
          <internalNodes>
            0 -1 70 2.1116123534739017e-03</internalNodes>
          <leafValues>
            -1.2495857477188110e-01 3.4765762090682983e-01</leafValues></_></weakClassifiers></_></stages>
  <features>
    <_>
      <rects>
        <_>
          0 0 2 22 -1.</_>
        <_>
          1 0 1 22 2.</_></rects>
      <tilted>0</tilted></_>
    <_>
      <rects>
        <_>
          0 0 6 1 -1.</_>
        <_>
          2 0 2 1 3.</_></rects>
      <tilted>0</tilted></_>
    <_>
      <rects>
        <_>
          0 1 2 28 -1.</_>
        <_>
          1 1 1 28 2.</_></rects>
      <tilted>0</tilted></_>
    <_>
      <rects>
        <_>
          0 5 2 16 -1.</_>
        <_>
          0 5 1 8 2.</_>
        <_>
          1 13 1 8 2.</_></rects>
      <tilted>0</tilted></_>
    <_>
      <rects>
        <_>
          0 7 4 3 -1.</_>
        <_>
          0 8 4 1 3.</_></rects>
      <tilted>0</tilted></_>
    <_>
      <rects>
        <_>
          0 15 4 13 -1.</_>
        <_>
          2 15 2 13 2.</_></rects>
      <tilted>0</tilted></_>
    <_>
      <rects>
        <_>
          0 16 2 5 -1.</_>
        <_>
          1 16 1 5 2.</_></rects>
      <tilted>0</tilted></_>
    <_>
      <rects>
        <_>
          0 17 2 10 -1.</_>
        <_>
          1 17 1 10 2.</_></rects>
      <tilted>0</tilted></_>
    <_>
      <rects>
        <_>
          0 20 3 6 -1.</_>
        <_>
          1 20 1 6 3.</_></rects>
      <tilted>0</tilted></_>
    <_>
      <rects>
        <_>
          0 25 7 4 -1.</_>
        <_>
          0 27 7 2 2.</_></rects>
      <tilted>0</tilted></_>
    <_>
      <rects>
        <_>
          0 26 1 3 -1.</_>
        <_>
          0 27 1 1 3.</_></rects>
      <tilted>0</tilted></_>
    <_>
      <rects>
        <_>
          0 26 13 3 -1.</_>
        <_>
          0 27 13 1 3.</_></rects>
      <tilted>0</tilted></_>
    <_>
      <rects>
        <_>
          1 0 12 3 -1.</_>
        <_>
          5 0 4 3 3.</_></rects>
      <tilted>0</tilted></_>
    <_>
      <rects>
        <_>
          1 1 3 13 -1.</_>
        <_>
          2 1 1 13 3.</_></rects>
      <tilted>0</tilted></_>
    <_>
      <rects>
        <_>
          1 4 3 7 -1.</_>
        <_>
          2 4 1 7 3.</_></rects>
      <tilted>0</tilted></_>
    <_>
      <rects>
        <_>
          1 4 10 9 -1.</_>
        <_>
          1 7 10 3 3.</_></rects>
      <tilted>0</tilted></_>
    <_>
      <rects>
        <_>
          1 6 3 11 -1.</_>
        <_>
          2 6 1 11 3.</_></rects>
      <tilted>0</tilted></_>
    <_>
      <rects>
        <_>
          1 10 3 12 -1.</_>
        <_>
          2 10 1 12 3.</_></rects>
      <tilted>0</tilted></_>
    <_>
      <rects>
        <_>
          1 10 4 15 -1.</_>
        <_>
          3 10 2 15 2.</_></rects>
      <tilted>0</tilted></_>
    <_>
      <rects>
        <_>
          1 14 3 6 -1.</_>
        <_>
          2 14 1 6 3.</_></rects>
      <tilted>0</tilted></_>
    <_>
      <rects>
        <_>
          2 0 3 13 -1.</_>
        <_>
          3 0 1 13 3.</_></rects>
      <tilted>0</tilted></_>
    <_>
      <rects>
        <_>
          2 1 2 28 -1.</_>
        <_>
          2 1 1 14 2.</_>
        <_>
          3 15 1 14 2.</_></rects>
      <tilted>0</tilted></_>
    <_>
      <rects>
        <_>
          2 1 4 2 -1.</_>
        <_>
          2 2 4 1 2.</_></rects>
      <tilted>0</tilted></_>
    <_>
      <rects>
        <_>
          2 2 3 5 -1.</_>
        <_>
          3 2 1 5 3.</_></rects>
      <tilted>0</tilted></_>
    <_>
      <rects>
        <_>
          2 2 4 18 -1.</_>
        <_>
          2 8 4 6 3.</_></rects>
      <tilted>0</tilted></_>
    <_>
      <rects>
        <_>
          2 4 3 5 -1.</_>
        <_>
          3 4 1 5 3.</_></rects>
      <tilted>0</tilted></_>
    <_>
      <rects>
        <_>
          2 4 2 20 -1.</_>
        <_>
          2 4 1 10 2.</_>
        <_>
          3 14 1 10 2.</_></rects>
      <tilted>0</tilted></_>
    <_>
      <rects>
        <_>
          2 5 3 2 -1.</_>
        <_>
          3 5 1 2 3.</_></rects>
      <tilted>0</tilted></_>
    <_>
      <rects>
        <_>
          2 5 6 6 -1.</_>
        <_>
          4 5 2 6 3.</_></rects>
      <tilted>0</tilted></_>
    <_>
      <rects>
        <_>
          2 6 8 20 -1.</_>
        <_>
          2 6 4 10 2.</_>
        <_>
          6 16 4 10 2.</_></rects>
      <tilted>0</tilted></_>
    <_>
      <rects>
        <_>
          2 8 2 8 -1.</_>
        <_>
          3 8 1 8 2.</_></rects>
      <tilted>0</tilted></_>
    <_>
      <rects>
        <_>
          2 9 2 16 -1.</_>
        <_>
          2 9 1 8 2.</_>
        <_>
          3 17 1 8 2.</_></rects>
      <tilted>0</tilted></_>
    <_>
      <rects>
        <_>
          2 9 8 8 -1.</_>
        <_>
          6 9 4 8 2.</_></rects>
      <tilted>0</tilted></_>
    <_>
      <rects>
        <_>
          2 10 2 10 -1.</_>
        <_>
          2 10 1 5 2.</_>
        <_>
          3 15 1 5 2.</_></rects>
      <tilted>0</tilted></_>
    <_>
      <rects>
        <_>
          2 10 2 10 -1.</_>
        <_>
          3 10 1 10 2.</_></rects>
      <tilted>0</tilted></_>
    <_>
      <rects>
        <_>
          2 12 2 3 -1.</_>
        <_>
          3 12 1 3 2.</_></rects>
      <tilted>0</tilted></_>
    <_>
      <rects>
        <_>
          2 13 2 5 -1.</_>
        <_>
          3 13 1 5 2.</_></rects>
      <tilted>0</tilted></_>
    <_>
      <rects>
        <_>
          2 14 2 3 -1.</_>
        <_>
          3 14 1 3 2.</_></rects>
      <tilted>0</tilted></_>
    <_>
      <rects>
        <_>
          2 15 2 3 -1.</_>
        <_>
          3 15 1 3 2.</_></rects>
      <tilted>0</tilted></_>
    <_>
      <rects>
        <_>
          2 17 2 1 -1.</_>
        <_>
          3 17 1 1 2.</_></rects>
      <tilted>0</tilted></_>
    <_>
      <rects>
        <_>
          2 17 3 2 -1.</_>
        <_>
          3 17 1 2 3.</_></rects>
      <tilted>0</tilted></_>
    <_>
      <rects>
        <_>
          2 19 2 2 -1.</_>
        <_>
          2 20 2 1 2.</_></rects>
      <tilted>0</tilted></_>
    <_>
      <rects>
        <_>
          2 20 2 3 -1.</_>
        <_>
          3 20 1 3 2.</_></rects>
      <tilted>0</tilted></_>
    <_>
      <rects>
        <_>
          3 0 3 6 -1.</_>
        <_>
          4 0 1 6 3.</_></rects>
      <tilted>0</tilted></_>
    <_>
      <rects>
        <_>
          3 0 4 2 -1.</_>
        <_>
          3 0 2 1 2.</_>
        <_>
          5 1 2 1 2.</_></rects>
      <tilted>0</tilted></_>
    <_>
      <rects>
        <_>
          3 1 7 24 -1.</_>
        <_>
          3 9 7 8 3.</_></rects>
      <tilted>0</tilted></_>
    <_>
      <rects>
        <_>
          3 2 3 8 -1.</_>
        <_>
          4 2 1 8 3.</_></rects>
      <tilted>0</tilted></_>
    <_>
      <rects>
        <_>
          3 3 2 26 -1.</_>
        <_>
          3 3 1 13 2.</_>
        <_>
          4 16 1 13 2.</_></rects>
      <tilted>0</tilted></_>
    <_>
      <rects>
        <_>
          3 5 2 20 -1.</_>
        <_>
          3 5 1 10 2.</_>
        <_>
          4 15 1 10 2.</_></rects>
      <tilted>0</tilted></_>
    <_>
      <rects>
        <_>
          3 6 5 6 -1.</_>
        <_>
          3 8 5 2 3.</_></rects>
      <tilted>0</tilted></_>
    <_>
      <rects>
        <_>
          3 7 2 16 -1.</_>
        <_>
          3 7 1 8 2.</_>
        <_>
          4 15 1 8 2.</_></rects>
      <tilted>0</tilted></_>
    <_>
      <rects>
        <_>
          3 8 8 5 -1.</_>
        <_>
          7 8 4 5 2.</_></rects>
      <tilted>0</tilted></_>
    <_>
      <rects>
        <_>
          3 9 1 3 -1.</_>
        <_>
          3 10 1 1 3.</_></rects>
      <tilted>0</tilted></_>
    <_>
      <rects>
        <_>
          3 9 2 8 -1.</_>
        <_>
          3 13 2 4 2.</_></rects>
      <tilted>0</tilted></_>
    <_>
      <rects>
        <_>
          3 9 6 12 -1.</_>
        <_>
          6 9 3 12 2.</_></rects>
      <tilted>0</tilted></_>
    <_>
      <rects>
        <_>
          3 11 2 9 -1.</_>
        <_>
          3 14 2 3 3.</_></rects>
      <tilted>0</tilted></_>
    <_>
      <rects>
        <_>
          3 11 8 3 -1.</_>
        <_>
          7 11 4 3 2.</_></rects>
      <tilted>0</tilted></_>
    <_>
      <rects>
        <_>
          3 12 2 6 -1.</_>
        <_>
          3 15 2 3 2.</_></rects>
      <tilted>0</tilted></_>
    <_>
      <rects>
        <_>
          3 12 2 9 -1.</_>
        <_>
          3 15 2 3 3.</_></rects>
      <tilted>0</tilted></_>
    <_>
      <rects>
        <_>
          3 13 1 3 -1.</_>
        <_>
          3 14 1 1 3.</_></rects>
      <tilted>0</tilted></_>
    <_>
      <rects>
        <_>
          3 14 1 3 -1.</_>
        <_>
          3 15 1 1 3.</_></rects>
      <tilted>0</tilted></_>
    <_>
      <rects>
        <_>
          3 14 6 1 -1.</_>
        <_>
          5 14 2 1 3.</_></rects>
      <tilted>0</tilted></_>
    <_>
      <rects>
        <_>
          3 14 7 14 -1.</_>
        <_>
          3 21 7 7 2.</_></rects>
      <tilted>0</tilted></_>
    <_>
      <rects>
        <_>
          3 14 8 4 -1.</_>
        <_>
          3 16 8 2 2.</_></rects>
      <tilted>0</tilted></_>
    <_>
      <rects>
        <_>
          3 15 1 3 -1.</_>
        <_>
          3 16 1 1 3.</_></rects>
      <tilted>0</tilted></_>
    <_>
      <rects>
        <_>
          3 15 3 6 -1.</_>
        <_>
          4 15 1 6 3.</_></rects>
      <tilted>0</tilted></_>
    <_>
      <rects>
        <_>
          3 15 8 3 -1.</_>
        <_>
          7 15 4 3 2.</_></rects>
      <tilted>0</tilted></_>
    <_>
      <rects>
        <_>
          3 17 1 3 -1.</_>
        <_>
          3 18 1 1 3.</_></rects>
      <tilted>0</tilted></_>
    <_>
      <rects>
        <_>
          3 17 3 4 -1.</_>
        <_>
          4 17 1 4 3.</_></rects>
      <tilted>0</tilted></_>
    <_>
      <rects>
        <_>
          3 20 2 5 -1.</_>
        <_>
          4 20 1 5 2.</_></rects>
      <tilted>0</tilted></_>
    <_>
      <rects>
        <_>
          3 21 2 4 -1.</_>
        <_>
          3 21 1 2 2.</_>
        <_>
          4 23 1 2 2.</_></rects>
      <tilted>0</tilted></_>
    <_>
      <rects>
        <_>
          3 22 8 3 -1.</_>
        <_>
          3 23 8 1 3.</_></rects>
      <tilted>0</tilted></_>
    <_>
      <rects>
        <_>
          4 0 4 2 -1.</_>
        <_>
          4 1 4 1 2.</_></rects>
      <tilted>0</tilted></_>
    <_>
      <rects>
        <_>
          4 2 3 19 -1.</_>
        <_>
          5 2 1 19 3.</_></rects>
      <tilted>0</tilted></_>
    <_>
      <rects>
        <_>
          4 4 6 4 -1.</_>
        <_>
          6 4 2 4 3.</_></rects>
      <tilted>0</tilted></_>
    <_>
      <rects>
        <_>
          4 4 7 3 -1.</_>
        <_>
          4 5 7 1 3.</_></rects>
      <tilted>0</tilted></_>
    <_>
      <rects>
        <_>
          4 5 2 4 -1.</_>
        <_>
          5 5 1 4 2.</_></rects>
      <tilted>0</tilted></_>
    <_>
      <rects>
        <_>
          4 9 1 12 -1.</_>
        <_>
          4 13 1 4 3.</_></rects>
      <tilted>0</tilted></_>
    <_>
      <rects>
        <_>
          4 9 4 6 -1.</_>
        <_>
          4 11 4 2 3.</_></rects>
      <tilted>0</tilted></_>
    <_>
      <rects>
        <_>
          4 10 6 6 -1.</_>
        <_>
          6 10 2 6 3.</_></rects>
      <tilted>0</tilted></_>
    <_>
      <rects>
        <_>
          4 10 4 9 -1.</_>
        <_>
          4 13 4 3 3.</_></rects>
      <tilted>0</tilted></_>
    <_>
      <rects>
        <_>
          4 13 2 4 -1.</_>
        <_>
          5 13 1 4 2.</_></rects>
      <tilted>0</tilted></_>
    <_>
      <rects>
        <_>
          4 13 2 6 -1.</_>
        <_>
          5 13 1 6 2.</_></rects>
      <tilted>0</tilted></_>
    <_>
      <rects>
        <_>
          4 14 2 2 -1.</_>
        <_>
          5 14 1 2 2.</_></rects>
      <tilted>0</tilted></_>
    <_>
      <rects>
        <_>
          4 14 6 1 -1.</_>
        <_>
          6 14 2 1 3.</_></rects>
      <tilted>0</tilted></_>
    <_>
      <rects>
        <_>
          4 15 2 1 -1.</_>
        <_>
          5 15 1 1 2.</_></rects>
      <tilted>0</tilted></_>
    <_>
      <rects>
        <_>
          4 18 4 3 -1.</_>
        <_>
          4 19 4 1 3.</_></rects>
      <tilted>0</tilted></_>
    <_>
      <rects>
        <_>
          4 22 6 8 -1.</_>
        <_>
          4 26 6 4 2.</_></rects>
      <tilted>0</tilted></_>
    <_>
      <rects>
        <_>
          5 0 1 2 -1.</_>
        <_>
          5 1 1 1 2.</_></rects>
      <tilted>0</tilted></_>
    <_>
      <rects>
        <_>
          5 0 2 2 -1.</_>
        <_>
          5 1 2 1 2.</_></rects>
      <tilted>0</tilted></_>
    <_>
      <rects>
        <_>
          5 0 2 3 -1.</_>
        <_>
          5 1 2 1 3.</_></rects>
      <tilted>0</tilted></_>
    <_>
      <rects>
        <_>
          5 0 3 2 -1.</_>
        <_>
          5 1 3 1 2.</_></rects>
      <tilted>0</tilted></_>
    <_>
      <rects>
        <_>
          5 0 4 2 -1.</_>
        <_>
          5 1 4 1 2.</_></rects>
      <tilted>0</tilted></_>
    <_>
      <rects>
        <_>
          5 0 5 2 -1.</_>
        <_>
          5 1 5 1 2.</_></rects>
      <tilted>0</tilted></_>
    <_>
      <rects>
        <_>
          5 0 7 18 -1.</_>
        <_>
          5 6 7 6 3.</_></rects>
      <tilted>0</tilted></_>
    <_>
      <rects>
        <_>
          5 1 2 4 -1.</_>
        <_>
          5 3 2 2 2.</_></rects>
      <tilted>0</tilted></_>
    <_>
      <rects>
        <_>
          5 4 3 3 -1.</_>
        <_>
          6 4 1 3 3.</_></rects>
      <tilted>0</tilted></_>
    <_>
      <rects>
        <_>
          5 4 6 3 -1.</_>
        <_>
          7 4 2 3 3.</_></rects>
      <tilted>0</tilted></_>
    <_>
      <rects>
        <_>
          5 8 2 6 -1.</_>
        <_>
          5 10 2 2 3.</_></rects>
      <tilted>0</tilted></_>
    <_>
      <rects>
        <_>
          5 8 3 3 -1.</_>
        <_>
          5 9 3 1 3.</_></rects>
      <tilted>0</tilted></_>
    <_>
      <rects>
        <_>
          5 8 3 6 -1.</_>
        <_>
          5 10 3 2 3.</_></rects>
      <tilted>0</tilted></_>
    <_>
      <rects>
        <_>
          5 9 3 2 -1.</_>
        <_>
          5 10 3 1 2.</_></rects>
      <tilted>0</tilted></_>
    <_>
      <rects>
        <_>
          5 9 3 9 -1.</_>
        <_>
          5 12 3 3 3.</_></rects>
      <tilted>0</tilted></_>
    <_>
      <rects>
        <_>
          5 10 1 9 -1.</_>
        <_>
          5 13 1 3 3.</_></rects>
      <tilted>0</tilted></_>
    <_>
      <rects>
        <_>
          5 10 8 8 -1.</_>
        <_>
          5 14 8 4 2.</_></rects>
      <tilted>0</tilted></_>
    <_>
      <rects>
        <_>
          5 11 3 9 -1.</_>
        <_>
          5 14 3 3 3.</_></rects>
      <tilted>0</tilted></_>
    <_>
      <rects>
        <_>
          5 15 3 3 -1.</_>
        <_>
          5 16 3 1 3.</_></rects>
      <tilted>0</tilted></_>
    <_>
      <rects>
        <_>
          5 15 3 6 -1.</_>
        <_>
          5 17 3 2 3.</_></rects>
      <tilted>0</tilted></_>
    <_>
      <rects>
        <_>
          5 17 1 4 -1.</_>
        <_>
          5 19 1 2 2.</_></rects>
      <tilted>0</tilted></_>
    <_>
      <rects>
        <_>
          5 17 3 6 -1.</_>
        <_>
          5 19 3 2 3.</_></rects>
      <tilted>0</tilted></_>
    <_>
      <rects>
        <_>
          5 25 4 3 -1.</_>
        <_>
          7 25 2 3 2.</_></rects>
      <tilted>0</tilted></_>
    <_>
      <rects>
        <_>
          5 28 3 2 -1.</_>
        <_>
          5 29 3 1 2.</_></rects>
      <tilted>0</tilted></_>
    <_>
      <rects>
        <_>
          5 28 4 2 -1.</_>
        <_>
          5 29 4 1 2.</_></rects>
      <tilted>0</tilted></_>
    <_>
      <rects>
        <_>
          6 0 1 2 -1.</_>
        <_>
          6 1 1 1 2.</_></rects>
      <tilted>0</tilted></_>
    <_>
      <rects>
        <_>
          6 0 2 2 -1.</_>
        <_>
          6 1 2 1 2.</_></rects>
      <tilted>0</tilted></_>
    <_>
      <rects>
        <_>
          6 0 4 4 -1.</_>
        <_>
          6 0 2 2 2.</_>
        <_>
          8 2 2 2 2.</_></rects>
      <tilted>0</tilted></_>
    <_>
      <rects>
        <_>
          6 0 3 2 -1.</_>
        <_>
          6 1 3 1 2.</_></rects>
      <tilted>0</tilted></_>
    <_>
      <rects>
        <_>
          6 0 3 21 -1.</_>
        <_>
          6 7 3 7 3.</_></rects>
      <tilted>0</tilted></_>
    <_>
      <rects>
        <_>
          6 1 1 8 -1.</_>
        <_>
          6 5 1 4 2.</_></rects>
      <tilted>0</tilted></_>
    <_>
      <rects>
        <_>
          6 1 6 4 -1.</_>
        <_>
          6 1 3 2 2.</_>
        <_>
          9 3 3 2 2.</_></rects>
      <tilted>0</tilted></_>
    <_>
      <rects>
        <_>
          6 2 3 10 -1.</_>
        <_>
          6 7 3 5 2.</_></rects>
      <tilted>0</tilted></_>
    <_>
      <rects>
        <_>
          6 3 3 4 -1.</_>
        <_>
          7 3 1 4 3.</_></rects>
      <tilted>0</tilted></_>
    <_>
      <rects>
        <_>
          6 3 3 5 -1.</_>
        <_>
          7 3 1 5 3.</_></rects>
      <tilted>0</tilted></_>
    <_>
      <rects>
        <_>
          6 4 3 3 -1.</_>
        <_>
          7 4 1 3 3.</_></rects>
      <tilted>0</tilted></_>
    <_>
      <rects>
        <_>
          6 6 1 6 -1.</_>
        <_>
          6 8 1 2 3.</_></rects>
      <tilted>0</tilted></_>
    <_>
      <rects>
        <_>
          6 8 1 6 -1.</_>
        <_>
          6 10 1 2 3.</_></rects>
      <tilted>0</tilted></_>
    <_>
      <rects>
        <_>
          6 9 2 9 -1.</_>
        <_>
          6 12 2 3 3.</_></rects>
      <tilted>0</tilted></_>
    <_>
      <rects>
        <_>
          6 10 3 6 -1.</_>
        <_>
          6 12 3 2 3.</_></rects>
      <tilted>0</tilted></_>
    <_>
      <rects>
        <_>
          6 12 1 8 -1.</_>
        <_>
          6 16 1 4 2.</_></rects>
      <tilted>0</tilted></_>
    <_>
      <rects>
        <_>
          6 18 1 3 -1.</_>
        <_>
          6 19 1 1 3.</_></rects>
      <tilted>0</tilted></_>
    <_>
      <rects>
        <_>
          6 18 2 2 -1.</_>
        <_>
          6 19 2 1 2.</_></rects>
      <tilted>0</tilted></_>
    <_>
      <rects>
        <_>
          6 19 1 9 -1.</_>
        <_>
          6 22 1 3 3.</_></rects>
      <tilted>0</tilted></_>
    <_>
      <rects>
        <_>
          6 23 4 6 -1.</_>
        <_>
          6 23 2 3 2.</_>
        <_>
          8 26 2 3 2.</_></rects>
      <tilted>0</tilted></_>
    <_>
      <rects>
        <_>
          6 26 2 2 -1.</_>
        <_>
          7 26 1 2 2.</_></rects>
      <tilted>0</tilted></_>
    <_>
      <rects>
        <_>
          6 26 2 2 -1.</_>
        <_>
          6 27 2 1 2.</_></rects>
      <tilted>0</tilted></_>
    <_>
      <rects>
        <_>
          6 27 2 1 -1.</_>
        <_>
          7 27 1 1 2.</_></rects>
      <tilted>0</tilted></_>
    <_>
      <rects>
        <_>
          6 27 4 3 -1.</_>
        <_>
          8 27 2 3 2.</_></rects>
      <tilted>0</tilted></_>
    <_>
      <rects>
        <_>
          6 28 1 2 -1.</_>
        <_>
          6 29 1 1 2.</_></rects>
      <tilted>0</tilted></_>
    <_>
      <rects>
        <_>
          6 28 2 2 -1.</_>
        <_>
          6 29 2 1 2.</_></rects>
      <tilted>0</tilted></_>
    <_>
      <rects>
        <_>
          6 28 3 2 -1.</_>
        <_>
          6 29 3 1 2.</_></rects>
      <tilted>0</tilted></_>
    <_>
      <rects>
        <_>
          6 28 6 2 -1.</_>
        <_>
          6 28 3 1 2.</_>
        <_>
          9 29 3 1 2.</_></rects>
      <tilted>0</tilted></_>
    <_>
      <rects>
        <_>
          6 29 3 1 -1.</_>
        <_>
          7 29 1 1 3.</_></rects>
      <tilted>0</tilted></_>
    <_>
      <rects>
        <_>
          7 0 3 10 -1.</_>
        <_>
          8 0 1 10 3.</_></rects>
      <tilted>0</tilted></_>
    <_>
      <rects>
        <_>
          7 5 3 6 -1.</_>
        <_>
          8 5 1 6 3.</_></rects>
      <tilted>0</tilted></_>
    <_>
      <rects>
        <_>
          7 6 4 3 -1.</_>
        <_>
          7 7 4 1 3.</_></rects>
      <tilted>0</tilted></_>
    <_>
      <rects>
        <_>
          7 8 3 20 -1.</_>
        <_>
          7 18 3 10 2.</_></rects>
      <tilted>0</tilted></_>
    <_>
      <rects>
        <_>
          7 9 1 4 -1.</_>
        <_>
          7 11 1 2 2.</_></rects>
      <tilted>0</tilted></_>
    <_>
      <rects>
        <_>
          7 9 1 9 -1.</_>
        <_>
          7 12 1 3 3.</_></rects>
      <tilted>0</tilted></_>
    <_>
      <rects>
        <_>
          7 11 2 8 -1.</_>
        <_>
          7 11 1 4 2.</_>
        <_>
          8 15 1 4 2.</_></rects>
      <tilted>0</tilted></_>
    <_>
      <rects>
        <_>
          7 12 2 6 -1.</_>
        <_>
          8 12 1 6 2.</_></rects>
      <tilted>0</tilted></_>
    <_>
      <rects>
        <_>
          7 12 2 12 -1.</_>
        <_>
          7 12 1 6 2.</_>
        <_>
          8 18 1 6 2.</_></rects>
      <tilted>0</tilted></_>
    <_>
      <rects>
        <_>
          7 13 1 6 -1.</_>
        <_>
          7 15 1 2 3.</_></rects>
      <tilted>0</tilted></_>
    <_>
      <rects>
        <_>
          7 14 2 1 -1.</_>
        <_>
          8 14 1 1 2.</_></rects>
      <tilted>0</tilted></_>
    <_>
      <rects>
        <_>
          7 14 1 6 -1.</_>
        <_>
          7 16 1 2 3.</_></rects>
      <tilted>0</tilted></_>
    <_>
      <rects>
        <_>
          7 16 1 4 -1.</_>
        <_>
          7 18 1 2 2.</_></rects>
      <tilted>0</tilted></_>
    <_>
      <rects>
        <_>
          7 16 4 2 -1.</_>
        <_>
          7 16 2 1 2.</_>
        <_>
          9 17 2 1 2.</_></rects>
      <tilted>0</tilted></_>
    <_>
      <rects>
        <_>
          7 17 1 2 -1.</_>
        <_>
          7 18 1 1 2.</_></rects>
      <tilted>0</tilted></_>
    <_>
      <rects>
        <_>
          7 17 1 3 -1.</_>
        <_>
          7 18 1 1 3.</_></rects>
      <tilted>0</tilted></_>
    <_>
      <rects>
        <_>
          7 20 3 4 -1.</_>
        <_>
          8 20 1 4 3.</_></rects>
      <tilted>0</tilted></_>
    <_>
      <rects>
        <_>
          7 21 3 2 -1.</_>
        <_>
          8 21 1 2 3.</_></rects>
      <tilted>0</tilted></_>
    <_>
      <rects>
        <_>
          7 24 2 3 -1.</_>
        <_>
          7 25 2 1 3.</_></rects>
      <tilted>0</tilted></_>
    <_>
      <rects>
        <_>
          7 28 2 2 -1.</_>
        <_>
          7 28 1 1 2.</_>
        <_>
          8 29 1 1 2.</_></rects>
      <tilted>0</tilted></_>
    <_>
      <rects>
        <_>
          8 2 2 24 -1.</_>
        <_>
          8 14 2 12 2.</_></rects>
      <tilted>0</tilted></_>
    <_>
      <rects>
        <_>
          8 3 2 26 -1.</_>
        <_>
          8 3 1 13 2.</_>
        <_>
          9 16 1 13 2.</_></rects>
      <tilted>0</tilted></_>
    <_>
      <rects>
        <_>
          8 3 2 24 -1.</_>
        <_>
          8 11 2 8 3.</_></rects>
      <tilted>0</tilted></_>
    <_>
      <rects>
        <_>
          8 5 3 5 -1.</_>
        <_>
          9 5 1 5 3.</_></rects>
      <tilted>0</tilted></_>
    <_>
      <rects>
        <_>
          8 5 2 20 -1.</_>
        <_>
          8 5 1 10 2.</_>
        <_>
          9 15 1 10 2.</_></rects>
      <tilted>0</tilted></_>
    <_>
      <rects>
        <_>
          8 7 5 3 -1.</_>
        <_>
          8 8 5 1 3.</_></rects>
      <tilted>0</tilted></_>
    <_>
      <rects>
        <_>
          8 8 4 8 -1.</_>
        <_>
          10 8 2 8 2.</_></rects>
      <tilted>0</tilted></_>
    <_>
      <rects>
        <_>
          8 9 1 20 -1.</_>
        <_>
          8 19 1 10 2.</_></rects>
      <tilted>0</tilted></_>
    <_>
      <rects>
        <_>
          8 9 2 12 -1.</_>
        <_>
          8 13 2 4 3.</_></rects>
      <tilted>0</tilted></_>
    <_>
      <rects>
        <_>
          8 9 2 18 -1.</_>
        <_>
          8 15 2 6 3.</_></rects>
      <tilted>0</tilted></_>
    <_>
      <rects>
        <_>
          8 9 2 21 -1.</_>
        <_>
          8 16 2 7 3.</_></rects>
      <tilted>0</tilted></_>
    <_>
      <rects>
        <_>
          8 10 2 14 -1.</_>
        <_>
          8 10 1 7 2.</_>
        <_>
          9 17 1 7 2.</_></rects>
      <tilted>0</tilted></_>
    <_>
      <rects>
        <_>
          8 11 1 18 -1.</_>
        <_>
          8 20 1 9 2.</_></rects>
      <tilted>0</tilted></_>
    <_>
      <rects>
        <_>
          8 11 2 6 -1.</_>
        <_>
          8 14 2 3 2.</_></rects>
      <tilted>0</tilted></_>
    <_>
      <rects>
        <_>
          8 12 2 5 -1.</_>
        <_>
          9 12 1 5 2.</_></rects>
      <tilted>0</tilted></_>
    <_>
      <rects>
        <_>
          8 12 2 9 -1.</_>
        <_>
          8 15 2 3 3.</_></rects>
      <tilted>0</tilted></_>
    <_>
      <rects>
        <_>
          8 13 2 3 -1.</_>
        <_>
          9 13 1 3 2.</_></rects>
      <tilted>0</tilted></_>
    <_>
      <rects>
        <_>
          8 17 3 13 -1.</_>
        <_>
          9 17 1 13 3.</_></rects>
      <tilted>0</tilted></_>
    <_>
      <rects>
        <_>
          8 18 4 1 -1.</_>
        <_>
          10 18 2 1 2.</_></rects>
      <tilted>0</tilted></_>
    <_>
      <rects>
        <_>
          8 20 3 3 -1.</_>
        <_>
          8 21 3 1 3.</_></rects>
      <tilted>0</tilted></_>
    <_>
      <rects>
        <_>
          8 22 3 3 -1.</_>
        <_>
          8 23 3 1 3.</_></rects>
      <tilted>0</tilted></_>
    <_>
      <rects>
        <_>
          9 0 2 6 -1.</_>
        <_>
          9 3 2 3 2.</_></rects>
      <tilted>0</tilted></_>
    <_>
      <rects>
        <_>
          9 2 3 9 -1.</_>
        <_>
          10 2 1 9 3.</_></rects>
      <tilted>0</tilted></_>
    <_>
      <rects>
        <_>
          9 3 3 26 -1.</_>
        <_>
          9 16 3 13 2.</_></rects>
      <tilted>0</tilted></_>
    <_>
      <rects>
        <_>
          9 5 2 7 -1.</_>
        <_>
          10 5 1 7 2.</_></rects>
      <tilted>0</tilted></_>
    <_>
      <rects>
        <_>
          9 7 3 7 -1.</_>
        <_>
          10 7 1 7 3.</_></rects>
      <tilted>0</tilted></_>
    <_>
      <rects>
        <_>
          9 9 3 7 -1.</_>
        <_>
          10 9 1 7 3.</_></rects>
      <tilted>0</tilted></_>
    <_>
      <rects>
        <_>
          9 10 1 3 -1.</_>
        <_>
          9 11 1 1 3.</_></rects>
      <tilted>0</tilted></_>
    <_>
      <rects>
        <_>
          9 10 1 9 -1.</_>
        <_>
          9 13 1 3 3.</_></rects>
      <tilted>0</tilted></_>
    <_>
      <rects>
        <_>
          9 10 2 14 -1.</_>
        <_>
          9 10 1 7 2.</_>
        <_>
          10 17 1 7 2.</_></rects>
      <tilted>0</tilted></_>
    <_>
      <rects>
        <_>
          9 10 2 20 -1.</_>
        <_>
          9 10 1 10 2.</_>
        <_>
          10 20 1 10 2.</_></rects>
      <tilted>0</tilted></_>
    <_>
      <rects>
        <_>
          9 11 1 3 -1.</_>
        <_>
          9 12 1 1 3.</_></rects>
      <tilted>0</tilted></_>
    <_>
      <rects>
        <_>
          9 11 2 6 -1.</_>
        <_>
          10 11 1 6 2.</_></rects>
      <tilted>0</tilted></_>
    <_>
      <rects>
        <_>
          9 12 1 3 -1.</_>
        <_>
          9 13 1 1 3.</_></rects>
      <tilted>0</tilted></_>
    <_>
      <rects>
        <_>
          9 12 2 4 -1.</_>
        <_>
          10 12 1 4 2.</_></rects>
      <tilted>0</tilted></_>
    <_>
      <rects>
        <_>
          9 12 2 8 -1.</_>
        <_>
          10 12 1 8 2.</_></rects>
      <tilted>0</tilted></_>
    <_>
      <rects>
        <_>
          9 12 4 8 -1.</_>
        <_>
          9 12 2 4 2.</_>
        <_>
          11 16 2 4 2.</_></rects>
      <tilted>0</tilted></_>
    <_>
      <rects>
        <_>
          9 13 1 3 -1.</_>
        <_>
          9 14 1 1 3.</_></rects>
      <tilted>0</tilted></_>
    <_>
      <rects>
        <_>
          9 13 2 2 -1.</_>
        <_>
          10 13 1 2 2.</_></rects>
      <tilted>0</tilted></_>
    <_>
      <rects>
        <_>
          9 13 2 5 -1.</_>
        <_>
          10 13 1 5 2.</_></rects>
      <tilted>0</tilted></_>
    <_>
      <rects>
        <_>
          9 13 2 10 -1.</_>
        <_>
          9 13 1 5 2.</_>
        <_>
          10 18 1 5 2.</_></rects>
      <tilted>0</tilted></_>
    <_>
      <rects>
        <_>
          9 13 2 6 -1.</_>
        <_>
          10 13 1 6 2.</_></rects>
      <tilted>0</tilted></_>
    <_>
      <rects>
        <_>
          9 13 2 7 -1.</_>
        <_>
          10 13 1 7 2.</_></rects>
      <tilted>0</tilted></_>
    <_>
      <rects>
        <_>
          9 14 1 3 -1.</_>
        <_>
          9 15 1 1 3.</_></rects>
      <tilted>0</tilted></_>
    <_>
      <rects>
        <_>
          9 15 1 3 -1.</_>
        <_>
          9 16 1 1 3.</_></rects>
      <tilted>0</tilted></_>
    <_>
      <rects>
        <_>
          9 15 2 4 -1.</_>
        <_>
          10 15 1 4 2.</_></rects>
      <tilted>0</tilted></_>
    <_>
      <rects>
        <_>
          9 15 3 15 -1.</_>
        <_>
          9 20 3 5 3.</_></rects>
      <tilted>0</tilted></_>
    <_>
      <rects>
        <_>
          9 16 1 3 -1.</_>
        <_>
          9 17 1 1 3.</_></rects>
      <tilted>0</tilted></_>
    <_>
      <rects>
        <_>
          9 16 2 3 -1.</_>
        <_>
          10 16 1 3 2.</_></rects>
      <tilted>0</tilted></_>
    <_>
      <rects>
        <_>
          9 16 3 3 -1.</_>
        <_>
          10 16 1 3 3.</_></rects>
      <tilted>0</tilted></_>
    <_>
      <rects>
        <_>
          9 16 2 5 -1.</_>
        <_>
          10 16 1 5 2.</_></rects>
      <tilted>0</tilted></_>
    <_>
      <rects>
        <_>
          9 17 1 3 -1.</_>
        <_>
          9 18 1 1 3.</_></rects>
      <tilted>0</tilted></_>
    <_>
      <rects>
        <_>
          9 18 1 3 -1.</_>
        <_>
          9 19 1 1 3.</_></rects>
      <tilted>0</tilted></_>
    <_>
      <rects>
        <_>
          10 1 3 3 -1.</_>
        <_>
          10 2 3 1 3.</_></rects>
      <tilted>0</tilted></_>
    <_>
      <rects>
        <_>
          10 5 3 4 -1.</_>
        <_>
          11 5 1 4 3.</_></rects>
      <tilted>0</tilted></_>
    <_>
      <rects>
        <_>
          10 5 3 21 -1.</_>
        <_>
          11 5 1 21 3.</_></rects>
      <tilted>0</tilted></_>
    <_>
      <rects>
        <_>
          10 18 3 5 -1.</_>
        <_>
          11 18 1 5 3.</_></rects>
      <tilted>0</tilted></_>
    <_>
      <rects>
        <_>
          11 11 2 3 -1.</_>
        <_>
          12 11 1 3 2.</_></rects>
      <tilted>0</tilted></_>
    <_>
      <rects>
        <_>
          11 18 2 9 -1.</_>
        <_>
          12 18 1 9 2.</_></rects>
      <tilted>0</tilted></_></features></cascade>
</opencv_storage>
