<?xml version="1.0"?>
<opencv_storage>
<stage6>
  <maxWeakCount>28</maxWeakCount>
  <stageThreshold>-6.6985213756561279e-01</stageThreshold>
  <weakClassifiers>
    <_>
      <internalNodes>
        0 -1 34336 7.5862020254135132e-02</internalNodes>
      <leafValues>
        3.7581700086593628e-01 -6.8627452850341797e-01</leafValues></_>
    <_>
      <internalNodes>
        0 -1 69607 8.2936568651348352e-04</internalNodes>
      <leafValues>
        1.4091755449771881e-01 -4.3777889013290405e-01</leafValues></_>
    <_>
      <internalNodes>
        0 -1 58431 -1.8958235159516335e-03</internalNodes>
      <leafValues>
        3.5360112786293030e-01 -1.4232307672500610e-01</leafValues></_>
    <_>
      <internalNodes>
        0 -1 44056 -3.9061461575329304e-03</internalNodes>
      <leafValues>
        4.3914854526519775e-01 -1.2348832935094833e-01</leafValues></_>
    <_>
      <internalNodes>
        0 -1 35688 -8.5597243160009384e-03</internalNodes>
      <leafValues>
        -5.2022802829742432e-01 8.8729858398437500e-02</leafValues></_>
    <_>
      <internalNodes>
        0 -1 44312 1.0813564294949174e-03</internalNodes>
      <leafValues>
        -1.6048413515090942e-01 3.1512078642845154e-01</leafValues></_>
    <_>
      <internalNodes>
        0 -1 56082 -1.3731179758906364e-02</internalNodes>
      <leafValues>
        6.2859022617340088e-01 -8.5208110511302948e-02</leafValues></_>
    <_>
      <internalNodes>
        0 -1 50303 -1.4217846095561981e-02</internalNodes>
      <leafValues>
        4.0705978870391846e-01 -1.4187201857566833e-01</leafValues></_>
    <_>
      <internalNodes>
        0 -1 69340 1.3135258341208100e-03</internalNodes>
      <leafValues>
        1.1831180751323700e-01 -5.2260780334472656e-01</leafValues></_>
    <_>
      <internalNodes>
        0 -1 72596 1.3672770932316780e-02</internalNodes>
      <leafValues>
        -1.2746219336986542e-01 4.4079166650772095e-01</leafValues></_>
    <_>
      <internalNodes>
        0 -1 71439 -3.3213458955287933e-02</internalNodes>
      <leafValues>
        4.4598209857940674e-01 -9.6582747995853424e-02</leafValues></_>
    <_>
      <internalNodes>
        0 -1 71383 3.8862270303070545e-03</internalNodes>
      <leafValues>
        -1.6606797277927399e-01 3.3517438173294067e-01</leafValues></_>
    <_>
      <internalNodes>
        0 -1 34699 -8.8269166648387909e-02</internalNodes>
      <leafValues>
        -6.6152518987655640e-01 8.3848424255847931e-02</leafValues></_>
    <_>
      <internalNodes>
        0 -1 49718 -2.6791333220899105e-03</internalNodes>
      <leafValues>
        3.8902693986892700e-01 -1.3265022635459900e-01</leafValues></_>
    <_>
      <internalNodes>
        0 -1 54859 -2.0462102256715298e-03</internalNodes>
      <leafValues>
        3.1430029869079590e-01 -1.6543525457382202e-01</leafValues></_>
    <_>
      <internalNodes>
        0 -1 34515 -1.3981654774397612e-03</internalNodes>
      <leafValues>
        -4.7075304388999939e-01 1.0665271431207657e-01</leafValues></_>
    <_>
      <internalNodes>
        0 -1 66035 -1.5385068953037262e-02</internalNodes>
      <leafValues>
        -8.6840051412582397e-01 5.6154273450374603e-02</leafValues></_>
    <_>
      <internalNodes>
        0 -1 62167 5.8350907638669014e-03</internalNodes>
      <leafValues>
        -1.0798089206218719e-01 5.5987673997879028e-01</leafValues></_>
    <_>
      <internalNodes>
        0 -1 40930 1.0082353837788105e-02</internalNodes>
      <leafValues>
        8.4854893386363983e-02 -6.2263762950897217e-01</leafValues></_>
    <_>
      <internalNodes>
        0 -1 41007 -5.3777694702148438e-03</internalNodes>
      <leafValues>
        3.9087435603141785e-01 -1.3765351474285126e-01</leafValues></_>
    <_>
      <internalNodes>
        0 -1 24726 1.3901665806770325e-01</internalNodes>
      <leafValues>
        6.7692227661609650e-02 -8.4538888931274414e-01</leafValues></_>
    <_>
      <internalNodes>
        0 -1 31299 -1.5484998002648354e-02</internalNodes>
      <leafValues>
        3.7331977486610413e-01 -1.4248737692832947e-01</leafValues></_>
    <_>
      <internalNodes>
        0 -1 23976 -9.0222842991352081e-03</internalNodes>
      <leafValues>
        6.1001563072204590e-01 -7.9021655023097992e-02</leafValues></_>
    <_>
      <internalNodes>
        0 -1 66992 -4.6382243745028973e-03</internalNodes>
      <leafValues>
        -5.8579832315444946e-01 9.0343065559864044e-02</leafValues></_>
    <_>
      <internalNodes>
        0 -1 54246 -8.6258593946695328e-03</internalNodes>
      <leafValues>
        4.6516245603561401e-01 -1.1446357518434525e-01</leafValues></_>
    <_>
      <internalNodes>
        0 -1 37109 3.2281482126563787e-03</internalNodes>
      <leafValues>
        -1.6784745454788208e-01 3.0639940500259399e-01</leafValues></_>
    <_>
      <internalNodes>
        0 -1 46535 -3.9239455945789814e-03</internalNodes>
      <leafValues>
        3.6411041021347046e-01 -1.6047926247119904e-01</leafValues></_>
    <_>
      <internalNodes>
        0 -1 46196 5.0292862579226494e-04</internalNodes>
      <leafValues>
        -1.7986786365509033e-01 3.4919500350952148e-01</leafValues></_></weakClassifiers></stage6>
</opencv_storage>
