<?xml version="1.0"?>
<opencv_storage>
<stage0>
  <maxWeakCount>14</maxWeakCount>
  <stageThreshold>-3.8542565703392029e-01</stageThreshold>
  <weakClassifiers>
    <_>
      <internalNodes>
        0 -1 66222 -2.6186825707554817e-03</internalNodes>
      <leafValues>
        7.5596815347671509e-01 1.6957862675189972e-01</leafValues></_>
    <_>
      <internalNodes>
        0 -1 66116 1.3163177063688636e-03</internalNodes>
      <leafValues>
        -1.5334135293960571e-01 5.0398558378219604e-01</leafValues></_>
    <_>
      <internalNodes>
        0 -1 92391 1.2601689435541630e-02</internalNodes>
      <leafValues>
        -1.3084821403026581e-01 5.3831559419631958e-01</leafValues></_>
    <_>
      <internalNodes>
        0 -1 92253 -1.2295221909880638e-02</internalNodes>
      <leafValues>
        6.1048728227615356e-01 -1.6571596264839172e-01</leafValues></_>
    <_>
      <internalNodes>
        0 -1 66118 -4.7713107778690755e-04</internalNodes>
      <leafValues>
        3.4287136793136597e-01 -2.6971095800399780e-01</leafValues></_>
    <_>
      <internalNodes>
        0 -1 44231 1.8079975619912148e-02</internalNodes>
      <leafValues>
        -1.2530350685119629e-01 6.9446009397506714e-01</leafValues></_>
    <_>
      <internalNodes>
        0 -1 43031 -1.3993790373206139e-02</internalNodes>
      <leafValues>
        5.4776072502136230e-01 -1.6730482876300812e-01</leafValues></_>
    <_>
      <internalNodes>
        0 -1 88590 -4.0832087397575378e-03</internalNodes>
      <leafValues>
        -5.6264019012451172e-01 1.6894379258155823e-01</leafValues></_>
    <_>
      <internalNodes>
        0 -1 53723 1.1014423333108425e-02</internalNodes>
      <leafValues>
        -1.2581370770931244e-01 5.2854925394058228e-01</leafValues></_>
    <_>
      <internalNodes>
        0 -1 73552 2.0070946775376797e-03</internalNodes>
      <leafValues>
        -1.3404411077499390e-01 5.3587335348129272e-01</leafValues></_>
    <_>
      <internalNodes>
        0 -1 47772 -1.6317610861733556e-03</internalNodes>
      <leafValues>
        4.5196002721786499e-01 -2.6979744434356689e-01</leafValues></_>
    <_>
      <internalNodes>
        0 -1 20589 -3.7509158253669739e-02</internalNodes>
      <leafValues>
        5.5261784791946411e-01 -1.5141911804676056e-01</leafValues></_>
    <_>
      <internalNodes>
        0 -1 23424 -5.9146005660295486e-03</internalNodes>
      <leafValues>
        4.6722456812858582e-01 -1.3238359987735748e-01</leafValues></_>
    <_>
      <internalNodes>
        0 -1 22715 -1.4352032914757729e-02</internalNodes>
      <leafValues>
        6.4741414785385132e-01 -9.7237162292003632e-02</leafValues></_></weakClassifiers></stage0>
</opencv_storage>
