<?xml version="1.0"?>
<opencv_storage>
<stage6>
  <maxWeakCount>30</maxWeakCount>
  <stageThreshold>-7.1596843004226685e-01</stageThreshold>
  <weakClassifiers>
    <_>
      <internalNodes>
        0 -1 44264 -4.4379490427672863e-03</internalNodes>
      <leafValues>
        -7.7777779102325439e-01 3.7962964177131653e-01</leafValues></_>
    <_>
      <internalNodes>
        0 -1 89483 -9.0702977031469345e-03</internalNodes>
      <leafValues>
        6.1532258987426758e-01 -6.7970752716064453e-02</leafValues></_>
    <_>
      <internalNodes>
        0 -1 42576 1.0016895830631256e-02</internalNodes>
      <leafValues>
        -1.5570074319839478e-01 4.1797956824302673e-01</leafValues></_>
    <_>
      <internalNodes>
        0 -1 89377 4.2924731969833374e-03</internalNodes>
      <leafValues>
        -1.2992502748966217e-01 3.5292416810989380e-01</leafValues></_>
    <_>
      <internalNodes>
        0 -1 53706 3.7722545675933361e-03</internalNodes>
      <leafValues>
        1.0809059441089630e-01 -4.7376367449760437e-01</leafValues></_>
    <_>
      <internalNodes>
        0 -1 69733 1.8072525272145867e-03</internalNodes>
      <leafValues>
        -1.4040453732013702e-01 4.5079073309898376e-01</leafValues></_>
    <_>
      <internalNodes>
        0 -1 69733 -9.4613141845911741e-04</internalNodes>
      <leafValues>
        3.3061295747756958e-01 -1.6427236795425415e-01</leafValues></_>
    <_>
      <internalNodes>
        0 -1 88577 -7.3960307054221630e-04</internalNodes>
      <leafValues>
        -4.6912682056427002e-01 1.1710670590400696e-01</leafValues></_>
    <_>
      <internalNodes>
        0 -1 25471 -1.5344833955168724e-02</internalNodes>
      <leafValues>
        -7.9233735799789429e-01 5.9620190411806107e-02</leafValues></_>
    <_>
      <internalNodes>
        0 -1 36235 1.1739917099475861e-03</internalNodes>
      <leafValues>
        -1.3456831872463226e-01 3.8588356971740723e-01</leafValues></_>
    <_>
      <internalNodes>
        0 -1 24321 6.4044736791402102e-04</internalNodes>
      <leafValues>
        -1.7264829576015472e-01 2.9350396990776062e-01</leafValues></_>
    <_>
      <internalNodes>
        0 -1 57819 -5.0346562638878822e-03</internalNodes>
      <leafValues>
        4.1601175069808960e-01 -1.2090345472097397e-01</leafValues></_>
    <_>
      <internalNodes>
        0 -1 66010 7.4181077070534229e-04</internalNodes>
      <leafValues>
        -1.5507659316062927e-01 3.4544834494590759e-01</leafValues></_>
    <_>
      <internalNodes>
        0 -1 80423 -3.8054041564464569e-02</internalNodes>
      <leafValues>
        -4.7988906502723694e-01 1.0930245369672775e-01</leafValues></_>
    <_>
      <internalNodes>
        0 -1 95296 -3.9509139955043793e-02</internalNodes>
      <leafValues>
        4.7411873936653137e-01 -1.0698375105857849e-01</leafValues></_>
    <_>
      <internalNodes>
        0 -1 62879 1.2740621343255043e-02</internalNodes>
      <leafValues>
        -1.2339916825294495e-01 4.4865554571151733e-01</leafValues></_>
    <_>
      <internalNodes>
        0 -1 44757 -4.6517334878444672e-02</internalNodes>
      <leafValues>
        -7.2347372770309448e-01 8.1683874130249023e-02</leafValues></_>
    <_>
      <internalNodes>
        0 -1 76353 4.5852968469262123e-03</internalNodes>
      <leafValues>
        -1.5820817649364471e-01 3.4846231341362000e-01</leafValues></_>
    <_>
      <internalNodes>
        0 -1 88580 -1.8264137906953692e-03</internalNodes>
      <leafValues>
        -5.7898163795471191e-01 1.0809755325317383e-01</leafValues></_>
    <_>
      <internalNodes>
        0 -1 44918 -2.3499093949794769e-03</internalNodes>
      <leafValues>
        -7.5946706533432007e-01 5.0309475511312485e-02</leafValues></_>
    <_>
      <internalNodes>
        0 -1 88161 -1.8447872251272202e-02</internalNodes>
      <leafValues>
        4.1715818643569946e-01 -1.2101292610168457e-01</leafValues></_>
    <_>
      <internalNodes>
        0 -1 80496 1.2521994300186634e-02</internalNodes>
      <leafValues>
        -1.1428473889827728e-01 4.0875235199928284e-01</leafValues></_>
    <_>
      <internalNodes>
        0 -1 50054 2.1878569386899471e-03</internalNodes>
      <leafValues>
        -1.1594901233911514e-01 4.3632179498672485e-01</leafValues></_>
    <_>
      <internalNodes>
        0 -1 49542 -1.0068088769912720e-02</internalNodes>
      <leafValues>
        4.2005127668380737e-01 -1.1275269091129303e-01</leafValues></_>
    <_>
      <internalNodes>
        0 -1 73559 2.2242562845349312e-03</internalNodes>
      <leafValues>
        -1.2913624942302704e-01 3.6535355448722839e-01</leafValues></_>
    <_>
      <internalNodes>
        0 -1 73552 -1.9542481750249863e-03</internalNodes>
      <leafValues>
        4.3068274855613708e-01 -1.7632293701171875e-01</leafValues></_>
    <_>
      <internalNodes>
        0 -1 88727 1.6912443097680807e-03</internalNodes>
      <leafValues>
        8.3969250321388245e-02 -7.1143460273742676e-01</leafValues></_>
    <_>
      <internalNodes>
        0 -1 96608 2.6081681251525879e-02</internalNodes>
      <leafValues>
        -1.7844238877296448e-01 3.0388891696929932e-01</leafValues></_>
    <_>
      <internalNodes>
        0 -1 83055 4.3798596598207951e-03</internalNodes>
      <leafValues>
        -1.1733383685350418e-01 4.3602415919303894e-01</leafValues></_>
    <_>
      <internalNodes>
        0 -1 53827 7.6971226371824741e-03</internalNodes>
      <leafValues>
        1.2706440687179565e-01 -4.4724228978157043e-01</leafValues></_></weakClassifiers></stage6>
</opencv_storage>
