<?xml version="1.0"?>
<opencv_storage>
<stage2>
  <maxWeakCount>11</maxWeakCount>
  <stageThreshold>-1.1619685888290405e+00</stageThreshold>
  <weakClassifiers>
    <_>
      <internalNodes>
        0 -1 114841 1.1466604191809893e-03</internalNodes>
      <leafValues>
        -1.7901234328746796e-01 8.6283892393112183e-01</leafValues></_>
    <_>
      <internalNodes>
        0 -1 113276 3.6612828262150288e-03</internalNodes>
      <leafValues>
        -2.3524865508079529e-01 8.1508117914199829e-01</leafValues></_>
    <_>
      <internalNodes>
        0 -1 136075 8.0403615720570087e-04</internalNodes>
      <leafValues>
        -2.2362168133258820e-01 6.5117073059082031e-01</leafValues></_>
    <_>
      <internalNodes>
        0 -1 117968 2.3299332708120346e-02</internalNodes>
      <leafValues>
        -2.5704270601272583e-01 7.8824317455291748e-01</leafValues></_>
    <_>
      <internalNodes>
        0 -1 55566 5.7946117594838142e-03</internalNodes>
      <leafValues>
        -1.3976363837718964e-01 6.3951981067657471e-01</leafValues></_>
    <_>
      <internalNodes>
        0 -1 135768 4.4470555149018764e-03</internalNodes>
      <leafValues>
        -1.5569753944873810e-01 7.8038477897644043e-01</leafValues></_>
    <_>
      <internalNodes>
        0 -1 138989 -4.1418084874749184e-03</internalNodes>
      <leafValues>
        7.3190617561340332e-01 -1.9722412526607513e-01</leafValues></_>
    <_>
      <internalNodes>
        0 -1 43467 -2.0986329764127731e-03</internalNodes>
      <leafValues>
        5.6737744808197021e-01 -2.0273488759994507e-01</leafValues></_>
    <_>
      <internalNodes>
        0 -1 106153 -8.4342353511601686e-04</internalNodes>
      <leafValues>
        5.3666025400161743e-01 -2.5060531497001648e-01</leafValues></_>
    <_>
      <internalNodes>
        0 -1 162709 2.3253855761140585e-03</internalNodes>
      <leafValues>
        -1.9410309195518494e-01 6.1332041025161743e-01</leafValues></_>
    <_>
      <internalNodes>
        0 -1 106213 4.6530016697943211e-03</internalNodes>
      <leafValues>
        -1.7220053076744080e-01 7.2089934349060059e-01</leafValues></_></weakClassifiers></stage2>
</opencv_storage>
