<?xml version="1.0"?>
<opencv_storage>
<stage6>
  <maxWeakCount>13</maxWeakCount>
  <stageThreshold>-6.3964629173278809e-01</stageThreshold>
  <weakClassifiers>
    <_>
      <internalNodes>
        0 -1 132791 3.1301919370889664e-03</internalNodes>
      <leafValues>
        -2.6425590738654137e-02 7.9856115579605103e-01</leafValues></_>
    <_>
      <internalNodes>
        0 -1 136949 -2.3083966225385666e-03</internalNodes>
      <leafValues>
        5.8695805072784424e-01 -2.0809942483901978e-01</leafValues></_>
    <_>
      <internalNodes>
        0 -1 75271 -9.8965354263782501e-03</internalNodes>
      <leafValues>
        6.8051123619079590e-01 -1.6992802917957306e-01</leafValues></_>
    <_>
      <internalNodes>
        0 -1 160142 6.3195489346981049e-03</internalNodes>
      <leafValues>
        1.1453539133071899e-01 -8.4325110912322998e-01</leafValues></_>
    <_>
      <internalNodes>
        0 -1 101895 -9.0610864572227001e-04</internalNodes>
      <leafValues>
        3.2897606492042542e-01 -2.9516515135765076e-01</leafValues></_>
    <_>
      <internalNodes>
        0 -1 122937 -4.7342334873974323e-03</internalNodes>
      <leafValues>
        5.1397043466567993e-01 -2.0233902335166931e-01</leafValues></_>
    <_>
      <internalNodes>
        0 -1 53863 -2.0996674895286560e-02</internalNodes>
      <leafValues>
        7.1092206239700317e-01 -1.1445428431034088e-01</leafValues></_>
    <_>
      <internalNodes>
        0 -1 136479 -1.2046087533235550e-02</internalNodes>
      <leafValues>
        -9.1003936529159546e-01 1.1462374031543732e-01</leafValues></_>
    <_>
      <internalNodes>
        0 -1 142786 6.8561593070626259e-04</internalNodes>
      <leafValues>
        1.9339662790298462e-01 -5.3301817178726196e-01</leafValues></_>
    <_>
      <internalNodes>
        0 -1 157778 1.2018462643027306e-02</internalNodes>
      <leafValues>
        -1.9589485228061676e-01 5.1849335432052612e-01</leafValues></_>
    <_>
      <internalNodes>
        0 -1 156620 6.9412969052791595e-02</internalNodes>
      <leafValues>
        -8.8463045656681061e-02 8.1537789106369019e-01</leafValues></_>
    <_>
      <internalNodes>
        0 -1 12995 2.6211566291749477e-03</internalNodes>
      <leafValues>
        -1.8525545299053192e-01 4.3877649307250977e-01</leafValues></_>
    <_>
      <internalNodes>
        0 -1 115382 3.1388676725327969e-03</internalNodes>
      <leafValues>
        -1.9021300971508026e-01 4.7479733824729919e-01</leafValues></_></weakClassifiers></stage6>
</opencv_storage>
