<?xml version="1.0"?>
<opencv_storage>
<cascade>
  <stageType>BOOST</stageType>
  <featureType>HAAR</featureType>
  <height>37</height>
  <width>13</width>
  <stageParams>
    <boostType>GAB</boostType>
    <minHitRate>9.9500000476837158e-01</minHitRate>
    <maxFalseAlarm>5.0000000000000000e-01</maxFalseAlarm>
    <weightTrimRate>9.4999999999999996e-01</weightTrimRate>
    <maxDepth>1</maxDepth>
    <maxWeakCount>100</maxWeakCount></stageParams>
  <featureParams>
    <maxCatCount>0</maxCatCount>
    <featSize>1</featSize>
    <mode>BASIC</mode></featureParams>
  <stageNum>5</stageNum>
  <stages>
    <!-- stage 0 -->
    <_>
      <maxWeakCount>11</maxWeakCount>
      <stageThreshold>-9.5448452234268188e-01</stageThreshold>
      <weakClassifiers>
        <_>
          <internalNodes>
            0 -1 37 -2.1357159130275249e-03</internalNodes>
          <leafValues>
            7.7460771799087524e-01 -2.0557491481304169e-01</leafValues></_>
        <_>
          <internalNodes>
            0 -1 52 2.1604476496577263e-03</internalNodes>
          <leafValues>
            -2.7783644199371338e-01 5.6619125604629517e-01</leafValues></_>
        <_>
          <internalNodes>
            0 -1 75 -1.2793520465493202e-02</internalNodes>
          <leafValues>
            7.1227318048477173e-01 -1.1077081412076950e-01</leafValues></_>
        <_>
          <internalNodes>
            0 -1 76 5.8620497584342957e-03</internalNodes>
          <leafValues>
            -1.9971436262130737e-01 6.4048415422439575e-01</leafValues></_>
        <_>
          <internalNodes>
            0 -1 23 1.1515730060636997e-02</internalNodes>
          <leafValues>
            -1.2943303585052490e-01 7.5382781028747559e-01</leafValues></_>
        <_>
          <internalNodes>
            0 -1 32 -5.4316218942403793e-02</internalNodes>
          <leafValues>
            -5.7859092950820923e-01 2.0020492374897003e-01</leafValues></_>
        <_>
          <internalNodes>
            0 -1 34 4.0445197373628616e-03</internalNodes>
          <leafValues>
            -2.3385040462017059e-01 4.5460873842239380e-01</leafValues></_>
        <_>
          <internalNodes>
            0 -1 18 1.1513718403875828e-02</internalNodes>
          <leafValues>
            -1.1495126038789749e-01 6.0491037368774414e-01</leafValues></_>
        <_>
          <internalNodes>
            0 -1 15 -2.2620365023612976e-02</internalNodes>
          <leafValues>
            7.0701664686203003e-01 -1.3848365843296051e-01</leafValues></_>
        <_>
          <internalNodes>
            0 -1 58 1.1767817195504904e-03</internalNodes>
          <leafValues>
            -2.6303580403327942e-01 3.8531830906867981e-01</leafValues></_>
        <_>
          <internalNodes>
            0 -1 45 6.6936435177922249e-04</internalNodes>
          <leafValues>
            -3.2506641745567322e-01 3.0111128091812134e-01</leafValues></_></weakClassifiers></_>
    <!-- stage 1 -->
    <_>
      <maxWeakCount>18</maxWeakCount>
      <stageThreshold>-7.3479092121124268e-01</stageThreshold>
      <weakClassifiers>
        <_>
          <internalNodes>
            0 -1 46 -2.3379018530249596e-03</internalNodes>
          <leafValues>
            6.9723433256149292e-01 -9.1836735606193542e-02</leafValues></_>
        <_>
          <internalNodes>
            0 -1 39 2.4388520978391171e-03</internalNodes>
          <leafValues>
            -1.1767119169235229e-01 6.7569631338119507e-01</leafValues></_>
        <_>
          <internalNodes>
            0 -1 47 -1.4461537357419729e-03</internalNodes>
          <leafValues>
            5.6700396537780762e-01 -1.3116005063056946e-01</leafValues></_>
        <_>
          <internalNodes>
            0 -1 29 1.7167180776596069e-02</internalNodes>
          <leafValues>
            -1.6532774269580841e-01 4.2219889163970947e-01</leafValues></_>
        <_>
          <internalNodes>
            0 -1 54 1.1132913641631603e-03</internalNodes>
          <leafValues>
            -1.8742294609546661e-01 4.3143564462661743e-01</leafValues></_>
        <_>
          <internalNodes>
            0 -1 71 1.8094610422849655e-02</internalNodes>
          <leafValues>
            -1.2752382457256317e-01 6.0091799497604370e-01</leafValues></_>
        <_>
          <internalNodes>
            0 -1 74 -1.8316267523914576e-03</internalNodes>
          <leafValues>
            4.6278673410415649e-01 -1.9844606518745422e-01</leafValues></_>
        <_>
          <internalNodes>
            0 -1 49 5.0261011347174644e-04</internalNodes>
          <leafValues>
            -1.9791267812252045e-01 3.5215261578559875e-01</leafValues></_>
        <_>
          <internalNodes>
            0 -1 41 -4.3191583827137947e-03</internalNodes>
          <leafValues>
            4.7539630532264709e-01 -1.6706055402755737e-01</leafValues></_>
        <_>
          <internalNodes>
            0 -1 43 -3.2003954984247684e-03</internalNodes>
          <leafValues>
            2.7421957254409790e-01 -2.6701971888542175e-01</leafValues></_>
        <_>
          <internalNodes>
            0 -1 66 -1.7764596268534660e-02</internalNodes>
          <leafValues>
            -7.5870168209075928e-01 9.5808900892734528e-02</leafValues></_>
        <_>
          <internalNodes>
            0 -1 40 2.6090517640113831e-03</internalNodes>
          <leafValues>
            -2.0556765794754028e-01 3.7899905443191528e-01</leafValues></_>
        <_>
          <internalNodes>
            0 -1 3 1.2794685550034046e-02</internalNodes>
          <leafValues>
            1.0765199363231659e-01 -7.9961484670639038e-01</leafValues></_>
        <_>
          <internalNodes>
            0 -1 81 -7.2297491133213043e-03</internalNodes>
          <leafValues>
            3.8255643844604492e-01 -1.9307425618171692e-01</leafValues></_>
        <_>
          <internalNodes>
            0 -1 38 4.2274344014003873e-04</internalNodes>
          <leafValues>
            -1.6513694822788239e-01 3.9648768305778503e-01</leafValues></_>
        <_>
          <internalNodes>
            0 -1 28 -4.2914936784654856e-04</internalNodes>
          <leafValues>
            4.0207397937774658e-01 -1.6624587774276733e-01</leafValues></_>
        <_>
          <internalNodes>
            0 -1 6 -1.6376268118619919e-02</internalNodes>
          <leafValues>
            6.1005079746246338e-01 -1.0478456318378448e-01</leafValues></_>
        <_>
          <internalNodes>
            0 -1 31 -1.7722756601870060e-03</internalNodes>
          <leafValues>
            6.3714814186096191e-01 -9.9844060838222504e-02</leafValues></_></weakClassifiers></_>
    <!-- stage 2 -->
    <_>
      <maxWeakCount>17</maxWeakCount>
      <stageThreshold>-6.7643171548843384e-01</stageThreshold>
      <weakClassifiers>
        <_>
          <internalNodes>
            0 -1 65 7.8242300078272820e-03</internalNodes>
          <leafValues>
            1.4614500105381012e-01 7.3399013280868530e-01</leafValues></_>
        <_>
          <internalNodes>
            0 -1 61 -9.9577195942401886e-03</internalNodes>
          <leafValues>
            5.3129458427429199e-01 -1.3882297277450562e-01</leafValues></_>
        <_>
          <internalNodes>
            0 -1 11 -3.4837173298001289e-03</internalNodes>
          <leafValues>
            3.9631065726280212e-01 -2.1093641221523285e-01</leafValues></_>
        <_>
          <internalNodes>
            0 -1 69 5.5567099479958415e-04</internalNodes>
          <leafValues>
            -2.8430402278900146e-01 2.8436800837516785e-01</leafValues></_>
        <_>
          <internalNodes>
            0 -1 14 -2.9280435293912888e-02</internalNodes>
          <leafValues>
            6.3441562652587891e-01 -1.0540816187858582e-01</leafValues></_>
        <_>
          <internalNodes>
            0 -1 7 -7.9706069082021713e-03</internalNodes>
          <leafValues>
            5.0849068164825439e-01 -1.8113325536251068e-01</leafValues></_>
        <_>
          <internalNodes>
            0 -1 13 1.2340229004621506e-02</internalNodes>
          <leafValues>
            -1.3205845654010773e-01 4.9206292629241943e-01</leafValues></_>
        <_>
          <internalNodes>
            0 -1 64 -2.2071233252063394e-04</internalNodes>
          <leafValues>
            3.6019915342330933e-01 -1.8859460949897766e-01</leafValues></_>
        <_>
          <internalNodes>
            0 -1 79 2.4148233234882355e-02</internalNodes>
          <leafValues>
            -1.0903368145227432e-01 6.7411625385284424e-01</leafValues></_>
        <_>
          <internalNodes>
            0 -1 78 -1.1471286416053772e-02</internalNodes>
          <leafValues>
            4.8017328977584839e-01 -1.7220765352249146e-01</leafValues></_>
        <_>
          <internalNodes>
            0 -1 33 -3.2282765954732895e-02</internalNodes>
          <leafValues>
            -4.3744286894798279e-01 1.7600293457508087e-01</leafValues></_>
        <_>
          <internalNodes>
            0 -1 17 -1.6329085454344749e-02</internalNodes>
          <leafValues>
            6.0896962881088257e-01 -1.2827509641647339e-01</leafValues></_>
        <_>
          <internalNodes>
            0 -1 19 7.1340063586831093e-03</internalNodes>
          <leafValues>
            -1.7885479331016541e-01 5.5020707845687866e-01</leafValues></_>
        <_>
          <internalNodes>
            0 -1 36 3.7412962410598993e-03</internalNodes>
          <leafValues>
            1.3403855264186859e-01 -5.6488233804702759e-01</leafValues></_>
        <_>
          <internalNodes>
            0 -1 82 -6.1278566718101501e-03</internalNodes>
          <leafValues>
            4.1468092799186707e-01 -1.8019828200340271e-01</leafValues></_>
        <_>
          <internalNodes>
            0 -1 67 -1.6687951982021332e-02</internalNodes>
          <leafValues>
            5.1718175411224365e-01 -1.4374445378780365e-01</leafValues></_>
        <_>
          <internalNodes>
            0 -1 55 -8.6946291849017143e-03</internalNodes>
          <leafValues>
            3.8381618261337280e-01 -2.0009930431842804e-01</leafValues></_></weakClassifiers></_>
    <!-- stage 3 -->
    <_>
      <maxWeakCount>18</maxWeakCount>
      <stageThreshold>-4.8454856872558594e-01</stageThreshold>
      <weakClassifiers>
        <_>
          <internalNodes>
            0 -1 37 -2.3664156906306744e-03</internalNodes>
          <leafValues>
            5.9427827596664429e-01 -6.3241109251976013e-02</leafValues></_>
        <_>
          <internalNodes>
            0 -1 44 2.9451795853674412e-04</internalNodes>
          <leafValues>
            -3.4848523139953613e-01 2.6698172092437744e-01</leafValues></_>
        <_>
          <internalNodes>
            0 -1 27 -6.2940334901213646e-03</internalNodes>
          <leafValues>
            5.2709686756134033e-01 -1.6954986751079559e-01</leafValues></_>
        <_>
          <internalNodes>
            0 -1 20 -9.1236047446727753e-03</internalNodes>
          <leafValues>
            4.8858913779258728e-01 -1.8575721979141235e-01</leafValues></_>
        <_>
          <internalNodes>
            0 -1 59 -2.0858813077211380e-03</internalNodes>
          <leafValues>
            4.6810671687126160e-01 -1.5141315758228302e-01</leafValues></_>
        <_>
          <internalNodes>
            0 -1 10 -2.6221175212413073e-03</internalNodes>
          <leafValues>
            4.2111817002296448e-01 -2.2040927410125732e-01</leafValues></_>
        <_>
          <internalNodes>
            0 -1 51 -8.0092146527022123e-04</internalNodes>
          <leafValues>
            5.5382359027862549e-01 -1.4401723444461823e-01</leafValues></_>
        <_>
          <internalNodes>
            0 -1 4 2.3176450282335281e-02</internalNodes>
          <leafValues>
            -1.0971911251544952e-01 6.1792981624603271e-01</leafValues></_>
        <_>
          <internalNodes>
            0 -1 5 7.5434637255966663e-03</internalNodes>
          <leafValues>
            -1.1487314105033875e-01 5.7349258661270142e-01</leafValues></_>
        <_>
          <internalNodes>
            0 -1 63 5.0912420265376568e-03</internalNodes>
          <leafValues>
            -1.7560659348964691e-01 4.4394773244857788e-01</leafValues></_>
        <_>
          <internalNodes>
            0 -1 12 8.3800964057445526e-03</internalNodes>
          <leafValues>
            -1.4082930982112885e-01 4.9204120039939880e-01</leafValues></_>
        <_>
          <internalNodes>
            0 -1 48 -9.2554010450839996e-02</internalNodes>
          <leafValues>
            -5.8437824249267578e-01 1.1931018531322479e-01</leafValues></_>
        <_>
          <internalNodes>
            0 -1 24 -7.9874936491250992e-03</internalNodes>
          <leafValues>
            7.5746464729309082e-01 -8.5248574614524841e-02</leafValues></_>
        <_>
          <internalNodes>
            0 -1 77 5.3446860983967781e-03</internalNodes>
          <leafValues>
            -1.0027093440294266e-01 6.8710827827453613e-01</leafValues></_>
        <_>
          <internalNodes>
            0 -1 56 -8.4425404202193022e-04</internalNodes>
          <leafValues>
            3.9362397789955139e-01 -1.6160011291503906e-01</leafValues></_>
        <_>
          <internalNodes>
            0 -1 60 5.8963429182767868e-03</internalNodes>
          <leafValues>
            -1.6643212735652924e-01 4.1694676876068115e-01</leafValues></_>
        <_>
          <internalNodes>
            0 -1 42 1.3241047039628029e-02</internalNodes>
          <leafValues>
            -1.7165608704090118e-01 4.0266397595405579e-01</leafValues></_>
        <_>
          <internalNodes>
            0 -1 35 -2.4340927600860596e-02</internalNodes>
          <leafValues>
            -5.6595242023468018e-01 1.2876176834106445e-01</leafValues></_></weakClassifiers></_>
    <!-- stage 4 -->
    <_>
      <maxWeakCount>22</maxWeakCount>
      <stageThreshold>-7.0107883214950562e-01</stageThreshold>
      <weakClassifiers>
        <_>
          <internalNodes>
            0 -1 37 -4.4340435415506363e-03</internalNodes>
          <leafValues>
            5.8399999141693115e-01 9.2307694256305695e-02</leafValues></_>
        <_>
          <internalNodes>
            0 -1 72 -4.3977737426757812e-02</internalNodes>
          <leafValues>
            5.2208918333053589e-01 -9.2963844537734985e-02</leafValues></_>
        <_>
          <internalNodes>
            0 -1 30 2.2970926016569138e-02</internalNodes>
          <leafValues>
            -1.1903630942106247e-01 5.4113459587097168e-01</leafValues></_>
        <_>
          <internalNodes>
            0 -1 73 -1.9863802939653397e-02</internalNodes>
          <leafValues>
            5.7317203283309937e-01 -1.4837802946567535e-01</leafValues></_>
        <_>
          <internalNodes>
            0 -1 50 9.1986581683158875e-03</internalNodes>
          <leafValues>
            -1.2701456248760223e-01 5.3072214126586914e-01</leafValues></_>
        <_>
          <internalNodes>
            0 -1 21 -3.3387582749128342e-02</internalNodes>
          <leafValues>
            -5.3912287950515747e-01 1.2789195775985718e-01</leafValues></_>
        <_>
          <internalNodes>
            0 -1 22 -1.1585482396185398e-02</internalNodes>
          <leafValues>
            -7.6444888114929199e-01 7.9297594726085663e-02</leafValues></_>
        <_>
          <internalNodes>
            0 -1 9 -2.9507357627153397e-02</internalNodes>
          <leafValues>
            6.9878292083740234e-01 -1.0121016949415207e-01</leafValues></_>
        <_>
          <internalNodes>
            0 -1 26 -1.7940815538167953e-02</internalNodes>
          <leafValues>
            -7.8881818056106567e-01 8.8347911834716797e-02</leafValues></_>
        <_>
          <internalNodes>
            0 -1 16 -1.4830525964498520e-02</internalNodes>
          <leafValues>
            5.5181443691253662e-01 -1.2358243763446808e-01</leafValues></_>
        <_>
          <internalNodes>
            0 -1 2 -1.6732042655348778e-02</internalNodes>
          <leafValues>
            5.4165405035018921e-01 -1.1879722774028778e-01</leafValues></_>
        <_>
          <internalNodes>
            0 -1 80 1.1847814545035362e-02</internalNodes>
          <leafValues>
            -8.9734286069869995e-02 6.1216062307357788e-01</leafValues></_>
        <_>
          <internalNodes>
            0 -1 57 -2.4157860316336155e-03</internalNodes>
          <leafValues>
            3.6596354842185974e-01 -1.6217085719108582e-01</leafValues></_>
        <_>
          <internalNodes>
            0 -1 53 3.1695927027612925e-03</internalNodes>
          <leafValues>
            -2.3723308742046356e-01 2.6866006851196289e-01</leafValues></_>
        <_>
          <internalNodes>
            0 -1 8 -7.3225349187850952e-03</internalNodes>
          <leafValues>
            3.7754923105239868e-01 -1.7153351008892059e-01</leafValues></_>
        <_>
          <internalNodes>
            0 -1 62 -1.8340023234486580e-02</internalNodes>
          <leafValues>
            7.6782685518264771e-01 -8.5989348590373993e-02</leafValues></_>
        <_>
          <internalNodes>
            0 -1 45 -1.3785050250589848e-03</internalNodes>
          <leafValues>
            -5.4029083251953125e-01 1.4356909692287445e-01</leafValues></_>
        <_>
          <internalNodes>
            0 -1 0 1.0755280032753944e-02</internalNodes>
          <leafValues>
            -1.6584645211696625e-01 4.1376084089279175e-01</leafValues></_>
        <_>
          <internalNodes>
            0 -1 1 -1.0272352024912834e-02</internalNodes>
          <leafValues>
            -7.1964293718338013e-01 9.8864957690238953e-02</leafValues></_>
        <_>
          <internalNodes>
            0 -1 25 1.2220889329910278e-02</internalNodes>
          <leafValues>
            7.8747697174549103e-02 -6.8315702676773071e-01</leafValues></_>
        <_>
          <internalNodes>
            0 -1 68 9.4340518116950989e-03</internalNodes>
          <leafValues>
            -1.0922575742006302e-01 5.9308362007141113e-01</leafValues></_>
        <_>
          <internalNodes>
            0 -1 70 -3.6863037385046482e-03</internalNodes>
          <leafValues>
            -6.3015216588973999e-01 1.1203950643539429e-01</leafValues></_></weakClassifiers></_></stages>
  <features>
    <_>
      <rects>
        <_>
          0 14 2 18 -1.</_>
        <_>
          1 14 1 18 2.</_></rects>
      <tilted>0</tilted></_>
    <_>
      <rects>
        <_>
          0 14 11 3 -1.</_>
        <_>
          0 15 11 1 3.</_></rects>
      <tilted>0</tilted></_>
    <_>
      <rects>
        <_>
          0 18 3 10 -1.</_>
        <_>
          1 18 1 10 3.</_></rects>
      <tilted>0</tilted></_>
    <_>
      <rects>
        <_>
          0 26 9 3 -1.</_>
        <_>
          0 27 9 1 3.</_></rects>
      <tilted>0</tilted></_>
    <_>
      <rects>
        <_>
          1 7 2 30 -1.</_>
        <_>
          1 7 1 15 2.</_>
        <_>
          2 22 1 15 2.</_></rects>
      <tilted>0</tilted></_>
    <_>
      <rects>
        <_>
          1 10 3 4 -1.</_>
        <_>
          2 10 1 4 3.</_></rects>
      <tilted>0</tilted></_>
    <_>
      <rects>
        <_>
          1 11 3 6 -1.</_>
        <_>
          2 11 1 6 3.</_></rects>
      <tilted>0</tilted></_>
    <_>
      <rects>
        <_>
          1 13 3 5 -1.</_>
        <_>
          2 13 1 5 3.</_></rects>
      <tilted>0</tilted></_>
    <_>
      <rects>
        <_>
          1 14 3 7 -1.</_>
        <_>
          2 14 1 7 3.</_></rects>
      <tilted>0</tilted></_>
    <_>
      <rects>
        <_>
          1 20 3 12 -1.</_>
        <_>
          2 20 1 12 3.</_></rects>
      <tilted>0</tilted></_>
    <_>
      <rects>
        <_>
          1 23 3 2 -1.</_>
        <_>
          2 23 1 2 3.</_></rects>
      <tilted>0</tilted></_>
    <_>
      <rects>
        <_>
          1 35 6 2 -1.</_>
        <_>
          1 35 3 1 2.</_>
        <_>
          4 36 3 1 2.</_></rects>
      <tilted>0</tilted></_>
    <_>
      <rects>
        <_>
          2 0 2 14 -1.</_>
        <_>
          2 0 1 7 2.</_>
        <_>
          3 7 1 7 2.</_></rects>
      <tilted>0</tilted></_>
    <_>
      <rects>
        <_>
          2 0 3 10 -1.</_>
        <_>
          3 0 1 10 3.</_></rects>
      <tilted>0</tilted></_>
    <_>
      <rects>
        <_>
          2 0 3 21 -1.</_>
        <_>
          3 0 1 21 3.</_></rects>
      <tilted>0</tilted></_>
    <_>
      <rects>
        <_>
          2 11 3 13 -1.</_>
        <_>
          3 11 1 13 3.</_></rects>
      <tilted>0</tilted></_>
    <_>
      <rects>
        <_>
          2 15 2 9 -1.</_>
        <_>
          3 15 1 9 2.</_></rects>
      <tilted>0</tilted></_>
    <_>
      <rects>
        <_>
          2 18 3 8 -1.</_>
        <_>
          3 18 1 8 3.</_></rects>
      <tilted>0</tilted></_>
    <_>
      <rects>
        <_>
          2 19 3 8 -1.</_>
        <_>
          3 19 1 8 3.</_></rects>
      <tilted>0</tilted></_>
    <_>
      <rects>
        <_>
          2 20 3 4 -1.</_>
        <_>
          3 20 1 4 3.</_></rects>
      <tilted>0</tilted></_>
    <_>
      <rects>
        <_>
          2 26 3 6 -1.</_>
        <_>
          3 26 1 6 3.</_></rects>
      <tilted>0</tilted></_>
    <_>
      <rects>
        <_>
          2 27 9 10 -1.</_>
        <_>
          2 32 9 5 2.</_></rects>
      <tilted>0</tilted></_>
    <_>
      <rects>
        <_>
          2 29 11 3 -1.</_>
        <_>
          2 30 11 1 3.</_></rects>
      <tilted>0</tilted></_>
    <_>
      <rects>
        <_>
          3 12 2 10 -1.</_>
        <_>
          3 12 1 5 2.</_>
        <_>
          4 17 1 5 2.</_></rects>
      <tilted>0</tilted></_>
    <_>
      <rects>
        <_>
          3 13 2 8 -1.</_>
        <_>
          3 13 1 4 2.</_>
        <_>
          4 17 1 4 2.</_></rects>
      <tilted>0</tilted></_>
    <_>
      <rects>
        <_>
          3 15 2 8 -1.</_>
        <_>
          3 19 2 4 2.</_></rects>
      <tilted>0</tilted></_>
    <_>
      <rects>
        <_>
          3 17 2 9 -1.</_>
        <_>
          3 20 2 3 3.</_></rects>
      <tilted>0</tilted></_>
    <_>
      <rects>
        <_>
          3 27 3 4 -1.</_>
        <_>
          4 27 1 4 3.</_></rects>
      <tilted>0</tilted></_>
    <_>
      <rects>
        <_>
          3 31 2 2 -1.</_>
        <_>
          3 31 1 1 2.</_>
        <_>
          4 32 1 1 2.</_></rects>
      <tilted>0</tilted></_>
    <_>
      <rects>
        <_>
          3 31 7 6 -1.</_>
        <_>
          3 33 7 2 3.</_></rects>
      <tilted>0</tilted></_>
    <_>
      <rects>
        <_>
          4 2 3 24 -1.</_>
        <_>
          5 2 1 24 3.</_></rects>
      <tilted>0</tilted></_>
    <_>
      <rects>
        <_>
          4 6 2 1 -1.</_>
        <_>
          5 6 1 1 2.</_></rects>
      <tilted>0</tilted></_>
    <_>
      <rects>
        <_>
          4 18 7 18 -1.</_>
        <_>
          4 27 7 9 2.</_></rects>
      <tilted>0</tilted></_>
    <_>
      <rects>
        <_>
          4 22 8 14 -1.</_>
        <_>
          4 29 8 7 2.</_></rects>
      <tilted>0</tilted></_>
    <_>
      <rects>
        <_>
          4 24 2 6 -1.</_>
        <_>
          5 24 1 6 2.</_></rects>
      <tilted>0</tilted></_>
    <_>
      <rects>
        <_>
          4 25 7 10 -1.</_>
        <_>
          4 30 7 5 2.</_></rects>
      <tilted>0</tilted></_>
    <_>
      <rects>
        <_>
          4 29 5 2 -1.</_>
        <_>
          4 30 5 1 2.</_></rects>
      <tilted>0</tilted></_>
    <_>
      <rects>
        <_>
          4 35 5 2 -1.</_>
        <_>
          4 36 5 1 2.</_></rects>
      <tilted>0</tilted></_>
    <_>
      <rects>
        <_>
          5 0 1 2 -1.</_>
        <_>
          5 1 1 1 2.</_></rects>
      <tilted>0</tilted></_>
    <_>
      <rects>
        <_>
          5 0 3 2 -1.</_>
        <_>
          5 1 3 1 2.</_></rects>
      <tilted>0</tilted></_>
    <_>
      <rects>
        <_>
          5 3 3 3 -1.</_>
        <_>
          6 3 1 3 3.</_></rects>
      <tilted>0</tilted></_>
    <_>
      <rects>
        <_>
          5 4 3 3 -1.</_>
        <_>
          6 4 1 3 3.</_></rects>
      <tilted>0</tilted></_>
    <_>
      <rects>
        <_>
          5 9 3 22 -1.</_>
        <_>
          6 9 1 22 3.</_></rects>
      <tilted>0</tilted></_>
    <_>
      <rects>
        <_>
          5 32 8 4 -1.</_>
        <_>
          5 32 4 2 2.</_>
        <_>
          9 34 4 2 2.</_></rects>
      <tilted>0</tilted></_>
    <_>
      <rects>
        <_>
          5 33 4 2 -1.</_>
        <_>
          5 34 4 1 2.</_></rects>
      <tilted>0</tilted></_>
    <_>
      <rects>
        <_>
          5 34 3 3 -1.</_>
        <_>
          5 35 3 1 3.</_></rects>
      <tilted>0</tilted></_>
    <_>
      <rects>
        <_>
          5 35 4 2 -1.</_>
        <_>
          5 36 4 1 2.</_></rects>
      <tilted>0</tilted></_>
    <_>
      <rects>
        <_>
          6 0 2 2 -1.</_>
        <_>
          6 1 2 1 2.</_></rects>
      <tilted>0</tilted></_>
    <_>
      <rects>
        <_>
          6 0 3 28 -1.</_>
        <_>
          6 14 3 14 2.</_></rects>
      <tilted>0</tilted></_>
    <_>
      <rects>
        <_>
          6 2 1 4 -1.</_>
        <_>
          6 4 1 2 2.</_></rects>
      <tilted>0</tilted></_>
    <_>
      <rects>
        <_>
          6 15 3 6 -1.</_>
        <_>
          7 15 1 6 3.</_></rects>
      <tilted>0</tilted></_>
    <_>
      <rects>
        <_>
          6 24 2 2 -1.</_>
        <_>
          6 24 1 1 2.</_>
        <_>
          7 25 1 1 2.</_></rects>
      <tilted>0</tilted></_>
    <_>
      <rects>
        <_>
          6 32 2 4 -1.</_>
        <_>
          6 34 2 2 2.</_></rects>
      <tilted>0</tilted></_>
    <_>
      <rects>
        <_>
          6 32 6 3 -1.</_>
        <_>
          8 32 2 3 3.</_></rects>
      <tilted>0</tilted></_>
    <_>
      <rects>
        <_>
          7 2 4 2 -1.</_>
        <_>
          7 2 2 1 2.</_>
        <_>
          9 3 2 1 2.</_></rects>
      <tilted>0</tilted></_>
    <_>
      <rects>
        <_>
          7 9 3 17 -1.</_>
        <_>
          8 9 1 17 3.</_></rects>
      <tilted>0</tilted></_>
    <_>
      <rects>
        <_>
          7 22 2 3 -1.</_>
        <_>
          7 23 2 1 3.</_></rects>
      <tilted>0</tilted></_>
    <_>
      <rects>
        <_>
          7 28 3 3 -1.</_>
        <_>
          8 28 1 3 3.</_></rects>
      <tilted>0</tilted></_>
    <_>
      <rects>
        <_>
          7 32 4 1 -1.</_>
        <_>
          9 32 2 1 2.</_></rects>
      <tilted>0</tilted></_>
    <_>
      <rects>
        <_>
          8 1 1 6 -1.</_>
        <_>
          8 4 1 3 2.</_></rects>
      <tilted>0</tilted></_>
    <_>
      <rects>
        <_>
          8 4 3 8 -1.</_>
        <_>
          9 4 1 8 3.</_></rects>
      <tilted>0</tilted></_>
    <_>
      <rects>
        <_>
          8 5 3 12 -1.</_>
        <_>
          9 5 1 12 3.</_></rects>
      <tilted>0</tilted></_>
    <_>
      <rects>
        <_>
          8 7 3 5 -1.</_>
        <_>
          9 7 1 5 3.</_></rects>
      <tilted>0</tilted></_>
    <_>
      <rects>
        <_>
          8 7 2 10 -1.</_>
        <_>
          8 7 1 5 2.</_>
        <_>
          9 12 1 5 2.</_></rects>
      <tilted>0</tilted></_>
    <_>
      <rects>
        <_>
          8 12 1 2 -1.</_>
        <_>
          8 13 1 1 2.</_></rects>
      <tilted>0</tilted></_>
    <_>
      <rects>
        <_>
          8 14 3 6 -1.</_>
        <_>
          9 14 1 6 3.</_></rects>
      <tilted>0</tilted></_>
    <_>
      <rects>
        <_>
          8 14 2 10 -1.</_>
        <_>
          8 19 2 5 2.</_></rects>
      <tilted>0</tilted></_>
    <_>
      <rects>
        <_>
          8 16 3 15 -1.</_>
        <_>
          9 16 1 15 3.</_></rects>
      <tilted>0</tilted></_>
    <_>
      <rects>
        <_>
          8 27 2 10 -1.</_>
        <_>
          8 27 1 5 2.</_>
        <_>
          9 32 1 5 2.</_></rects>
      <tilted>0</tilted></_>
    <_>
      <rects>
        <_>
          8 32 3 2 -1.</_>
        <_>
          9 32 1 2 3.</_></rects>
      <tilted>0</tilted></_>
    <_>
      <rects>
        <_>
          9 7 3 3 -1.</_>
        <_>
          9 8 3 1 3.</_></rects>
      <tilted>0</tilted></_>
    <_>
      <rects>
        <_>
          9 9 2 12 -1.</_>
        <_>
          10 9 1 12 2.</_></rects>
      <tilted>0</tilted></_>
    <_>
      <rects>
        <_>
          9 9 4 20 -1.</_>
        <_>
          11 9 2 20 2.</_></rects>
      <tilted>0</tilted></_>
    <_>
      <rects>
        <_>
          9 13 3 9 -1.</_>
        <_>
          10 13 1 9 3.</_></rects>
      <tilted>0</tilted></_>
    <_>
      <rects>
        <_>
          9 14 2 2 -1.</_>
        <_>
          10 14 1 2 2.</_></rects>
      <tilted>0</tilted></_>
    <_>
      <rects>
        <_>
          9 16 2 11 -1.</_>
        <_>
          10 16 1 11 2.</_></rects>
      <tilted>0</tilted></_>
    <_>
      <rects>
        <_>
          9 18 3 3 -1.</_>
        <_>
          10 18 1 3 3.</_></rects>
      <tilted>0</tilted></_>
    <_>
      <rects>
        <_>
          9 19 2 2 -1.</_>
        <_>
          10 19 1 2 2.</_></rects>
      <tilted>0</tilted></_>
    <_>
      <rects>
        <_>
          9 21 3 11 -1.</_>
        <_>
          10 21 1 11 3.</_></rects>
      <tilted>0</tilted></_>
    <_>
      <rects>
        <_>
          9 22 3 12 -1.</_>
        <_>
          10 22 1 12 3.</_></rects>
      <tilted>0</tilted></_>
    <_>
      <rects>
        <_>
          10 3 3 5 -1.</_>
        <_>
          11 3 1 5 3.</_></rects>
      <tilted>0</tilted></_>
    <_>
      <rects>
        <_>
          10 11 1 14 -1.</_>
        <_>
          10 18 1 7 2.</_></rects>
      <tilted>0</tilted></_>
    <_>
      <rects>
        <_>
          10 16 3 6 -1.</_>
        <_>
          11 16 1 6 3.</_></rects>
      <tilted>0</tilted></_></features></cascade>
</opencv_storage>
