<?xml version="1.0"?>
<opencv_storage>
<stage6>
  <maxWeakCount>24</maxWeakCount>
  <stageThreshold>-5.9246981143951416e-01</stageThreshold>
  <weakClassifiers>
    <_>
      <internalNodes>
        0 -1 53231 -1.8196615576744080e-01</internalNodes>
      <leafValues>
        -5.7894736528396606e-01 3.9115929603576660e-01</leafValues></_>
    <_>
      <internalNodes>
        0 -1 100513 3.9556130766868591e-02</internalNodes>
      <leafValues>
        -4.5300923287868500e-02 8.0646777153015137e-01</leafValues></_>
    <_>
      <internalNodes>
        0 -1 58677 1.0101497173309326e-03</internalNodes>
      <leafValues>
        -3.5114666819572449e-01 1.5954516828060150e-01</leafValues></_>
    <_>
      <internalNodes>
        0 -1 15978 3.6959871649742126e-03</internalNodes>
      <leafValues>
        -1.0709232836961746e-01 4.8930922150611877e-01</leafValues></_>
    <_>
      <internalNodes>
        0 -1 22536 1.2523161247372627e-02</internalNodes>
      <leafValues>
        -1.0303282737731934e-01 5.8468204736709595e-01</leafValues></_>
    <_>
      <internalNodes>
        0 -1 61649 -8.1219011917710304e-03</internalNodes>
      <leafValues>
        5.0191533565521240e-01 -1.1919644474983215e-01</leafValues></_>
    <_>
      <internalNodes>
        0 -1 71732 -1.0059477761387825e-02</internalNodes>
      <leafValues>
        4.7450786828994751e-01 -1.1059237271547318e-01</leafValues></_>
    <_>
      <internalNodes>
        0 -1 109551 -9.7515452653169632e-03</internalNodes>
      <leafValues>
        5.1783996820449829e-01 -1.1282207071781158e-01</leafValues></_>
    <_>
      <internalNodes>
        0 -1 44363 1.2772991321980953e-03</internalNodes>
      <leafValues>
        1.1609391123056412e-01 -5.3325766324996948e-01</leafValues></_>
    <_>
      <internalNodes>
        0 -1 103361 -2.0791988819837570e-02</internalNodes>
      <leafValues>
        4.9362596869468689e-01 -1.2379000335931778e-01</leafValues></_>
    <_>
      <internalNodes>
        0 -1 107284 -7.8702263999730349e-04</internalNodes>
      <leafValues>
        4.0632778406143188e-01 -1.4459149539470673e-01</leafValues></_>
    <_>
      <internalNodes>
        0 -1 41434 -5.2769044414162636e-03</internalNodes>
      <leafValues>
        4.7838908433914185e-01 -1.0543538630008698e-01</leafValues></_>
    <_>
      <internalNodes>
        0 -1 41030 1.0140947997570038e-02</internalNodes>
      <leafValues>
        -1.5622092783451080e-01 4.6218636631965637e-01</leafValues></_>
    <_>
      <internalNodes>
        0 -1 81981 -1.9325399771332741e-03</internalNodes>
      <leafValues>
        3.2777172327041626e-01 -1.6135998070240021e-01</leafValues></_>
    <_>
      <internalNodes>
        0 -1 100538 2.1626388654112816e-02</internalNodes>
      <leafValues>
        -1.1317159980535507e-01 4.8108088970184326e-01</leafValues></_>
    <_>
      <internalNodes>
        0 -1 69989 2.1084835752844810e-03</internalNodes>
      <leafValues>
        -2.1890728175640106e-01 3.0289542675018311e-01</leafValues></_>
    <_>
      <internalNodes>
        0 -1 79772 -3.5339610185474157e-03</internalNodes>
      <leafValues>
        4.2959475517272949e-01 -1.3395188748836517e-01</leafValues></_>
    <_>
      <internalNodes>
        0 -1 102058 6.1210365965962410e-03</internalNodes>
      <leafValues>
        9.8538257181644440e-02 -5.7406109571456909e-01</leafValues></_>
    <_>
      <internalNodes>
        0 -1 81976 2.0849104039371014e-03</internalNodes>
      <leafValues>
        -1.4209572970867157e-01 4.3355759978294373e-01</leafValues></_>
    <_>
      <internalNodes>
        0 -1 59227 4.8882565461099148e-03</internalNodes>
      <leafValues>
        -1.2265349924564362e-01 4.2153936624526978e-01</leafValues></_>
    <_>
      <internalNodes>
        0 -1 96630 -1.2920009903609753e-03</internalNodes>
      <leafValues>
        3.2177305221557617e-01 -1.5973179042339325e-01</leafValues></_>
    <_>
      <internalNodes>
        0 -1 96561 6.2323175370693207e-04</internalNodes>
      <leafValues>
        -1.9196717441082001e-01 2.9109430313110352e-01</leafValues></_>
    <_>
      <internalNodes>
        0 -1 31318 6.0735233128070831e-03</internalNodes>
      <leafValues>
        -8.1606924533843994e-02 6.2488216161727905e-01</leafValues></_>
    <_>
      <internalNodes>
        0 -1 8754 -9.5482468605041504e-03</internalNodes>
      <leafValues>
        -7.7391511201858521e-01 8.4779761731624603e-02</leafValues></_></weakClassifiers></stage6>
</opencv_storage>
