<?xml version="1.0"?>
<opencv_storage>
<stage1>
  <maxWeakCount>18</maxWeakCount>
  <stageThreshold>-7.3479092121124268e-01</stageThreshold>
  <weakClassifiers>
    <_>
      <internalNodes>
        0 -1 80226 -2.3379018530249596e-03</internalNodes>
      <leafValues>
        6.9723433256149292e-01 -9.1836735606193542e-02</leafValues></_>
    <_>
      <internalNodes>
        0 -1 70386 2.4388520978391171e-03</internalNodes>
      <leafValues>
        -1.1767119169235229e-01 6.7569631338119507e-01</leafValues></_>
    <_>
      <internalNodes>
        0 -1 80362 -1.4461537357419729e-03</internalNodes>
      <leafValues>
        5.6700396537780762e-01 -1.3116005063056946e-01</leafValues></_>
    <_>
      <internalNodes>
        0 -1 58519 1.7167180776596069e-02</internalNodes>
      <leafValues>
        -1.6532774269580841e-01 4.2219889163970947e-01</leafValues></_>
    <_>
      <internalNodes>
        0 -1 89680 1.1132913641631603e-03</internalNodes>
      <leafValues>
        -1.8742294609546661e-01 4.3143564462661743e-01</leafValues></_>
    <_>
      <internalNodes>
        0 -1 104470 1.8094610422849655e-02</internalNodes>
      <leafValues>
        -1.2752382457256317e-01 6.0091799497604370e-01</leafValues></_>
    <_>
      <internalNodes>
        0 -1 105364 -1.8316267523914576e-03</internalNodes>
      <leafValues>
        4.6278673410415649e-01 -1.9844606518745422e-01</leafValues></_>
    <_>
      <internalNodes>
        0 -1 81138 5.0261011347174644e-04</internalNodes>
      <leafValues>
        -1.9791267812252045e-01 3.5215261578559875e-01</leafValues></_>
    <_>
      <internalNodes>
        0 -1 72213 -4.3191583827137947e-03</internalNodes>
      <leafValues>
        4.7539630532264709e-01 -1.6706055402755737e-01</leafValues></_>
    <_>
      <internalNodes>
        0 -1 80099 -3.2003954984247684e-03</internalNodes>
      <leafValues>
        2.7421957254409790e-01 -2.6701971888542175e-01</leafValues></_>
    <_>
      <internalNodes>
        0 -1 100186 -1.7764596268534660e-02</internalNodes>
      <leafValues>
        -7.5870168209075928e-01 9.5808900892734528e-02</leafValues></_>
    <_>
      <internalNodes>
        0 -1 71717 2.6090517640113831e-03</internalNodes>
      <leafValues>
        -2.0556765794754028e-01 3.7899905443191528e-01</leafValues></_>
    <_>
      <internalNodes>
        0 -1 15155 1.2794685550034046e-02</internalNodes>
      <leafValues>
        1.0765199363231659e-01 -7.9961484670639038e-01</leafValues></_>
    <_>
      <internalNodes>
        0 -1 109084 -7.2297491133213043e-03</internalNodes>
      <leafValues>
        3.8255643844604492e-01 -1.9307425618171692e-01</leafValues></_>
    <_>
      <internalNodes>
        0 -1 70142 4.2274344014003873e-04</internalNodes>
      <leafValues>
        -1.6513694822788239e-01 3.9648768305778503e-01</leafValues></_>
    <_>
      <internalNodes>
        0 -1 58427 -4.2914936784654856e-04</internalNodes>
      <leafValues>
        4.0207397937774658e-01 -1.6624587774276733e-01</leafValues></_>
    <_>
      <internalNodes>
        0 -1 24443 -1.6376268118619919e-02</internalNodes>
      <leafValues>
        6.1005079746246338e-01 -1.0478456318378448e-01</leafValues></_>
    <_>
      <internalNodes>
        0 -1 62154 -1.7722756601870060e-03</internalNodes>
      <leafValues>
        6.3714814186096191e-01 -9.9844060838222504e-02</leafValues></_></weakClassifiers></stage1>
</opencv_storage>
