<?xml version="1.0"?>
<opencv_storage>
<stage2>
  <maxWeakCount>21</maxWeakCount>
  <stageThreshold>-8.1068748235702515e-01</stageThreshold>
  <weakClassifiers>
    <_>
      <internalNodes>
        0 -1 41873 -1.6087852418422699e-02</internalNodes>
      <leafValues>
        7.1978020668029785e-01 1.7892426252365112e-01</leafValues></_>
    <_>
      <internalNodes>
        0 -1 23872 -2.4273542687296867e-02</internalNodes>
      <leafValues>
        6.5797561407089233e-01 -9.2386752367019653e-02</leafValues></_>
    <_>
      <internalNodes>
        0 -1 11152 -1.5715941786766052e-02</internalNodes>
      <leafValues>
        5.1972705125808716e-01 -1.3456197082996368e-01</leafValues></_>
    <_>
      <internalNodes>
        0 -1 100653 -1.6006175428628922e-02</internalNodes>
      <leafValues>
        5.2740818262100220e-01 -1.4095428586006165e-01</leafValues></_>
    <_>
      <internalNodes>
        0 -1 69816 -8.2858465611934662e-03</internalNodes>
      <leafValues>
        -4.9151074886322021e-01 1.5094567835330963e-01</leafValues></_>
    <_>
      <internalNodes>
        0 -1 48490 1.6907416284084320e-02</internalNodes>
      <leafValues>
        -1.1890529841184616e-01 5.6571060419082642e-01</leafValues></_>
    <_>
      <internalNodes>
        0 -1 49680 -6.9372830912470818e-03</internalNodes>
      <leafValues>
        5.5215764045715332e-01 -1.9865381717681885e-01</leafValues></_>
    <_>
      <internalNodes>
        0 -1 96656 -9.9963508546352386e-04</internalNodes>
      <leafValues>
        5.0074684619903564e-01 -1.0937453806400299e-01</leafValues></_>
    <_>
      <internalNodes>
        0 -1 89593 -1.0334801860153675e-02</internalNodes>
      <leafValues>
        4.7183209657669067e-01 -1.2934303283691406e-01</leafValues></_>
    <_>
      <internalNodes>
        0 -1 91780 3.1902024056762457e-03</internalNodes>
      <leafValues>
        -9.7694538533687592e-02 6.2044799327850342e-01</leafValues></_>
    <_>
      <internalNodes>
        0 -1 80210 -1.5459752175956964e-03</internalNodes>
      <leafValues>
        4.6235549449920654e-01 -1.3291870057582855e-01</leafValues></_>
    <_>
      <internalNodes>
        0 -1 105630 -1.8398492829874158e-04</internalNodes>
      <leafValues>
        -2.7503252029418945e-01 2.4284653365612030e-01</leafValues></_>
    <_>
      <internalNodes>
        0 -1 106603 -6.9553018547594547e-03</internalNodes>
      <leafValues>
        4.9497655034065247e-01 -1.2171161174774170e-01</leafValues></_>
    <_>
      <internalNodes>
        0 -1 106598 4.5743654482066631e-03</internalNodes>
      <leafValues>
        -1.4088737964630127e-01 4.4959256052970886e-01</leafValues></_>
    <_>
      <internalNodes>
        0 -1 31679 1.0137710720300674e-02</internalNodes>
      <leafValues>
        1.0163653641939163e-01 -7.4877387285232544e-01</leafValues></_>
    <_>
      <internalNodes>
        0 -1 66423 9.6719965338706970e-02</internalNodes>
      <leafValues>
        8.3899796009063721e-02 -7.1950364112854004e-01</leafValues></_>
    <_>
      <internalNodes>
        0 -1 95343 -1.1389909777790308e-03</internalNodes>
      <leafValues>
        5.3738135099411011e-01 -1.2428019195795059e-01</leafValues></_>
    <_>
      <internalNodes>
        0 -1 102101 4.4249044731259346e-03</internalNodes>
      <leafValues>
        8.6470402777194977e-02 -7.4965119361877441e-01</leafValues></_>
    <_>
      <internalNodes>
        0 -1 16521 6.1352118849754333e-02</internalNodes>
      <leafValues>
        -7.6191216707229614e-02 8.7240600585937500e-01</leafValues></_>
    <_>
      <internalNodes>
        0 -1 108345 -6.6968784667551517e-03</internalNodes>
      <leafValues>
        6.7814534902572632e-01 -7.0183567702770233e-02</leafValues></_>
    <_>
      <internalNodes>
        0 -1 12112 1.2664074078202248e-02</internalNodes>
      <leafValues>
        -1.3732086122035980e-01 4.3355238437652588e-01</leafValues></_></weakClassifiers></stage2>
</opencv_storage>
