<?xml version="1.0"?>
<opencv_storage>
<stage3>
  <maxWeakCount>9</maxWeakCount>
  <stageThreshold>-7.1007752418518066e-01</stageThreshold>
  <weakClassifiers>
    <_>
      <internalNodes>
        0 -1 105152 4.3606795370578766e-03</internalNodes>
      <leafValues>
        -4.5803356170654297e-01 6.8703109025955200e-01</leafValues></_>
    <_>
      <internalNodes>
        0 -1 105789 8.7837427854537964e-03</internalNodes>
      <leafValues>
        -3.1485033035278320e-01 6.6215026378631592e-01</leafValues></_>
    <_>
      <internalNodes>
        0 -1 119402 5.6217010132968426e-03</internalNodes>
      <leafValues>
        -2.0239454507827759e-01 6.8813121318817139e-01</leafValues></_>
    <_>
      <internalNodes>
        0 -1 116609 -3.0859564431011677e-03</internalNodes>
      <leafValues>
        -8.2201385498046875e-01 1.6333496570587158e-01</leafValues></_>
    <_>
      <internalNodes>
        0 -1 66617 -8.9451875537633896e-03</internalNodes>
      <leafValues>
        6.7785274982452393e-01 -2.1202822029590607e-01</leafValues></_>
    <_>
      <internalNodes>
        0 -1 126091 -2.9448255896568298e-02</internalNodes>
      <leafValues>
        5.9412527084350586e-01 -1.8795689940452576e-01</leafValues></_>
    <_>
      <internalNodes>
        0 -1 60663 4.1933618485927582e-03</internalNodes>
      <leafValues>
        -2.1104134619235992e-01 5.1121121644973755e-01</leafValues></_>
    <_>
      <internalNodes>
        0 -1 61041 3.1333004590123892e-03</internalNodes>
      <leafValues>
        -2.1773862838745117e-01 5.5646514892578125e-01</leafValues></_>
    <_>
      <internalNodes>
        0 -1 54907 8.5455481894314289e-04</internalNodes>
      <leafValues>
        2.0837849378585815e-01 -5.7939165830612183e-01</leafValues></_></weakClassifiers></stage3>
</opencv_storage>
