<?xml version="1.0"?>
<opencv_storage>
<stage2>
  <maxWeakCount>8</maxWeakCount>
  <stageThreshold>-9.5972865819931030e-01</stageThreshold>
  <weakClassifiers>
    <_>
      <internalNodes>
        0 -1 105789 5.5222888477146626e-03</internalNodes>
      <leafValues>
        -3.9731284976005554e-01 7.9252111911773682e-01</leafValues></_>
    <_>
      <internalNodes>
        0 -1 105119 1.0628285817801952e-03</internalNodes>
      <leafValues>
        -7.0456838607788086e-01 4.9349111318588257e-01</leafValues></_>
    <_>
      <internalNodes>
        0 -1 100255 6.2034223228693008e-03</internalNodes>
      <leafValues>
        -3.4539598226547241e-01 7.5065046548843384e-01</leafValues></_>
    <_>
      <internalNodes>
        0 -1 78597 -5.4888837039470673e-03</internalNodes>
      <leafValues>
        7.7559500932693481e-01 -2.0282715559005737e-01</leafValues></_>
    <_>
      <internalNodes>
        0 -1 120589 6.7705120891332626e-03</internalNodes>
      <leafValues>
        -1.8912567198276520e-01 7.7289897203445435e-01</leafValues></_>
    <_>
      <internalNodes>
        0 -1 123737 2.8346288017928600e-03</internalNodes>
      <leafValues>
        -2.4851226806640625e-01 6.6082412004470825e-01</leafValues></_>
    <_>
      <internalNodes>
        0 -1 71852 8.0517698079347610e-03</internalNodes>
      <leafValues>
        -1.5342816710472107e-01 8.4146422147750854e-01</leafValues></_>
    <_>
      <internalNodes>
        0 -1 109754 9.9306972697377205e-04</internalNodes>
      <leafValues>
        -5.0180262327194214e-01 3.7210553884506226e-01</leafValues></_></weakClassifiers></stage2>
</opencv_storage>
