<?xml version="1.0"?>
<opencv_storage>
<stage8>
  <maxWeakCount>17</maxWeakCount>
  <stageThreshold>-9.5970052480697632e-01</stageThreshold>
  <weakClassifiers>
    <_>
      <internalNodes>
        0 -1 109704 2.8802501037716866e-03</internalNodes>
      <leafValues>
        -1.6803278028964996e-01 6.1716938018798828e-01</leafValues></_>
    <_>
      <internalNodes>
        0 -1 81679 -6.9889398291707039e-03</internalNodes>
      <leafValues>
        7.0291692018508911e-01 -1.9247084856033325e-01</leafValues></_>
    <_>
      <internalNodes>
        0 -1 44888 4.7081671655178070e-02</internalNodes>
      <leafValues>
        -1.8736058473587036e-01 4.8587530851364136e-01</leafValues></_>
    <_>
      <internalNodes>
        0 -1 122831 -7.7266683802008629e-03</internalNodes>
      <leafValues>
        4.8427778482437134e-01 -2.1200625598430634e-01</leafValues></_>
    <_>
      <internalNodes>
        0 -1 96544 -1.9235763465985656e-03</internalNodes>
      <leafValues>
        -6.7371684312820435e-01 1.1634498089551926e-01</leafValues></_>
    <_>
      <internalNodes>
        0 -1 125542 3.9629428647458553e-03</internalNodes>
      <leafValues>
        9.7832709550857544e-02 -7.3693358898162842e-01</leafValues></_>
    <_>
      <internalNodes>
        0 -1 71668 -3.9974369108676910e-02</internalNodes>
      <leafValues>
        -9.3234014511108398e-01 8.5132218897342682e-02</leafValues></_>
    <_>
      <internalNodes>
        0 -1 72170 -8.6902104318141937e-02</internalNodes>
      <leafValues>
        3.4730258584022522e-01 -2.6463285088539124e-01</leafValues></_>
    <_>
      <internalNodes>
        0 -1 106010 -5.7122339494526386e-03</internalNodes>
      <leafValues>
        -8.4611570835113525e-01 1.1069425940513611e-01</leafValues></_>
    <_>
      <internalNodes>
        0 -1 100552 5.5991820991039276e-03</internalNodes>
      <leafValues>
        6.0430124402046204e-02 -8.3293783664703369e-01</leafValues></_>
    <_>
      <internalNodes>
        0 -1 88290 3.7737009115517139e-03</internalNodes>
      <leafValues>
        -2.0106139779090881e-01 4.3930909037590027e-01</leafValues></_>
    <_>
      <internalNodes>
        0 -1 97611 -1.7890468006953597e-03</internalNodes>
      <leafValues>
        -5.4586660861968994e-01 1.5290161967277527e-01</leafValues></_>
    <_>
      <internalNodes>
        0 -1 123286 -6.2075410969555378e-03</internalNodes>
      <leafValues>
        4.6785935759544373e-01 -1.8224450945854187e-01</leafValues></_>
    <_>
      <internalNodes>
        0 -1 101914 -7.2739436291158199e-04</internalNodes>
      <leafValues>
        -6.8238550424575806e-01 1.3277789950370789e-01</leafValues></_>
    <_>
      <internalNodes>
        0 -1 138287 5.3860256448388100e-03</internalNodes>
      <leafValues>
        -1.5958234667778015e-01 5.6634294986724854e-01</leafValues></_>
    <_>
      <internalNodes>
        0 -1 105117 -1.1320051271468401e-03</internalNodes>
      <leafValues>
        -7.9725784063339233e-01 1.0562183707952499e-01</leafValues></_>
    <_>
      <internalNodes>
        0 -1 93020 4.6395841054618359e-03</internalNodes>
      <leafValues>
        -1.6721181571483612e-01 4.9685063958168030e-01</leafValues></_></weakClassifiers></stage8>
</opencv_storage>
