<?xml version="1.0"?>
<opencv_storage>
<stage2>
  <maxWeakCount>7</maxWeakCount>
  <stageThreshold>-7.0420312881469727e-01</stageThreshold>
  <weakClassifiers>
    <_>
      <internalNodes>
        0 -1 49904 6.8982476368546486e-03</internalNodes>
      <leafValues>
        -4.8997133970260620e-01 6.4362853765487671e-01</leafValues></_>
    <_>
      <internalNodes>
        0 -1 89736 -8.9393761008977890e-03</internalNodes>
      <leafValues>
        5.9998786449432373e-01 -4.2009258270263672e-01</leafValues></_>
    <_>
      <internalNodes>
        0 -1 44085 1.1954419314861298e-02</internalNodes>
      <leafValues>
        -3.2482215762138367e-01 5.5600273609161377e-01</leafValues></_>
    <_>
      <internalNodes>
        0 -1 76698 7.1581825613975525e-03</internalNodes>
      <leafValues>
        -5.2934002876281738e-01 4.0227428078651428e-01</leafValues></_>
    <_>
      <internalNodes>
        0 -1 59137 6.2999627552926540e-03</internalNodes>
      <leafValues>
        -5.4804259538650513e-01 2.7595394849777222e-01</leafValues></_>
    <_>
      <internalNodes>
        0 -1 48928 2.4070590734481812e-02</internalNodes>
      <leafValues>
        1.4858809113502502e-01 -9.2473512887954712e-01</leafValues></_>
    <_>
      <internalNodes>
        0 -1 35764 -1.3374602422118187e-02</internalNodes>
      <leafValues>
        5.7865262031555176e-01 -2.5348964333534241e-01</leafValues></_></weakClassifiers></stage2>
</opencv_storage>
