<?xml version="1.0"?>
<opencv_storage>
<stage1>
  <maxWeakCount>7</maxWeakCount>
  <stageThreshold>-7.0891016721725464e-01</stageThreshold>
  <weakClassifiers>
    <_>
      <internalNodes>
        0 -1 65386 4.6777039766311646e-02</internalNodes>
      <leafValues>
        -5.6565654277801514e-01 7.3833900690078735e-01</leafValues></_>
    <_>
      <internalNodes>
        0 -1 36649 -9.0121226385235786e-03</internalNodes>
      <leafValues>
        5.6955057382583618e-01 -4.4780287146568298e-01</leafValues></_>
    <_>
      <internalNodes>
        0 -1 76761 -1.9543331116437912e-02</internalNodes>
      <leafValues>
        4.1040846705436707e-01 -5.6440514326095581e-01</leafValues></_>
    <_>
      <internalNodes>
        0 -1 69148 5.0270594656467438e-03</internalNodes>
      <leafValues>
        2.4798998236656189e-01 -8.3658277988433838e-01</leafValues></_>
    <_>
      <internalNodes>
        0 -1 43027 2.0665830001235008e-02</internalNodes>
      <leafValues>
        -4.1251066327095032e-01 5.5751699209213257e-01</leafValues></_>
    <_>
      <internalNodes>
        0 -1 69260 1.2815319001674652e-02</internalNodes>
      <leafValues>
        -3.4726846218109131e-01 4.9998688697814941e-01</leafValues></_>
    <_>
      <internalNodes>
        0 -1 83155 5.0616115331649780e-03</internalNodes>
      <leafValues>
        -3.7407702207565308e-01 5.2047502994537354e-01</leafValues></_></weakClassifiers></stage1>
</opencv_storage>
