<?xml version="1.0"?>
<opencv_storage>
<stage7>
  <maxWeakCount>25</maxWeakCount>
  <stageThreshold>-6.8816602230072021e-01</stageThreshold>
  <weakClassifiers>
    <_>
      <internalNodes>
        0 -1 73446 1.1813480406999588e-02</internalNodes>
      <leafValues>
        2.0155038684606552e-02 6.5396827459335327e-01</leafValues></_>
    <_>
      <internalNodes>
        0 -1 66982 9.8665384575724602e-03</internalNodes>
      <leafValues>
        -1.4387878775596619e-01 4.9737116694450378e-01</leafValues></_>
    <_>
      <internalNodes>
        0 -1 94035 5.0825290381908417e-03</internalNodes>
      <leafValues>
        8.4586597979068756e-02 -8.1845313310623169e-01</leafValues></_>
    <_>
      <internalNodes>
        0 -1 81289 1.2699990766122937e-03</internalNodes>
      <leafValues>
        -3.4184497594833374e-01 1.9438460469245911e-01</leafValues></_>
    <_>
      <internalNodes>
        0 -1 52629 7.3762908577919006e-02</internalNodes>
      <leafValues>
        -2.2237882018089294e-02 8.5336202383041382e-01</leafValues></_>
    <_>
      <internalNodes>
        0 -1 92585 -2.1735681220889091e-03</internalNodes>
      <leafValues>
        -7.4204742908477783e-01 6.5853148698806763e-02</leafValues></_>
    <_>
      <internalNodes>
        0 -1 49171 1.8867666367441416e-03</internalNodes>
      <leafValues>
        -1.8629908561706543e-01 2.8995275497436523e-01</leafValues></_>
    <_>
      <internalNodes>
        0 -1 55412 -6.7087411880493164e-02</internalNodes>
      <leafValues>
        6.3251137733459473e-01 -8.9158415794372559e-02</leafValues></_>
    <_>
      <internalNodes>
        0 -1 58265 7.0823282003402710e-03</internalNodes>
      <leafValues>
        -1.7842763662338257e-01 3.8386297225952148e-01</leafValues></_>
    <_>
      <internalNodes>
        0 -1 55159 5.1592332310974598e-03</internalNodes>
      <leafValues>
        -3.2850739359855652e-01 2.0328482985496521e-01</leafValues></_>
    <_>
      <internalNodes>
        0 -1 66197 1.0336776031181216e-03</internalNodes>
      <leafValues>
        -2.3430523276329041e-01 2.5157809257507324e-01</leafValues></_>
    <_>
      <internalNodes>
        0 -1 63006 -3.8523141294717789e-02</internalNodes>
      <leafValues>
        -5.3648662567138672e-01 1.0562618076801300e-01</leafValues></_>
    <_>
      <internalNodes>
        0 -1 32001 4.2405359447002411e-02</internalNodes>
      <leafValues>
        -2.3504725098609924e-01 2.4796928465366364e-01</leafValues></_>
    <_>
      <internalNodes>
        0 -1 33856 3.0109006911516190e-03</internalNodes>
      <leafValues>
        8.3842486143112183e-02 -7.0691561698913574e-01</leafValues></_>
    <_>
      <internalNodes>
        0 -1 13932 -9.9535472691059113e-03</internalNodes>
      <leafValues>
        4.6393871307373047e-01 -1.3063669204711914e-01</leafValues></_>
    <_>
      <internalNodes>
        0 -1 5358 2.3215988650918007e-02</internalNodes>
      <leafValues>
        -1.2703241407871246e-01 4.6646049618721008e-01</leafValues></_>
    <_>
      <internalNodes>
        0 -1 75603 3.9313109591603279e-03</internalNodes>
      <leafValues>
        -1.8330773711204529e-01 3.1953737139701843e-01</leafValues></_>
    <_>
      <internalNodes>
        0 -1 95999 -1.0770023800432682e-03</internalNodes>
      <leafValues>
        -5.0448292493820190e-01 1.1343277990818024e-01</leafValues></_>
    <_>
      <internalNodes>
        0 -1 63382 -2.2642448311671615e-04</internalNodes>
      <leafValues>
        2.2766768932342529e-01 -2.7065914869308472e-01</leafValues></_>
    <_>
      <internalNodes>
        0 -1 93731 8.3427252247929573e-03</internalNodes>
      <leafValues>
        -9.8122283816337585e-02 5.8459234237670898e-01</leafValues></_>
    <_>
      <internalNodes>
        0 -1 45346 7.3624193668365479e-02</internalNodes>
      <leafValues>
        -1.3087019324302673e-01 4.6128118038177490e-01</leafValues></_>
    <_>
      <internalNodes>
        0 -1 92213 8.7682008743286133e-02</internalNodes>
      <leafValues>
        1.0738150775432587e-01 -5.8296233415603638e-01</leafValues></_>
    <_>
      <internalNodes>
        0 -1 53194 6.7636139690876007e-02</internalNodes>
      <leafValues>
        -7.8176349401473999e-02 7.8018385171890259e-01</leafValues></_>
    <_>
      <internalNodes>
        0 -1 24218 1.2137934099882841e-03</internalNodes>
      <leafValues>
        -1.3842806220054626e-01 4.1203448176383972e-01</leafValues></_>
    <_>
      <internalNodes>
        0 -1 44717 1.1546716559678316e-03</internalNodes>
      <leafValues>
        2.1357950568199158e-01 -2.6484993100166321e-01</leafValues></_></weakClassifiers></stage7>
</opencv_storage>
